{"learner":{"attributes":{"best_iteration":"99","best_ntree_limit":"100","scikit_learn":"{\"n_estimators\": 100, \"objective\": \"reg:squarederror\", \"max_depth\": null, \"max_leaves\": null, \"max_bin\": null, \"grow_policy\": null, \"learning_rate\": null, \"verbosity\": null, \"booster\": null, \"tree_method\": null, \"gamma\": null, \"min_child_weight\": null, \"max_delta_step\": null, \"subsample\": 0.8, \"sampling_method\": null, \"colsample_bytree\": null, \"colsample_bylevel\": null, \"colsample_bynode\": null, \"reg_alpha\": null, \"reg_lambda\": null, \"scale_pos_weight\": null, \"base_score\": null, \"missing\": NaN, \"num_parallel_tree\": null, \"random_state\": null, \"n_jobs\": null, \"monotone_constraints\": null, \"interaction_constraints\": null, \"importance_type\": null, \"gpu_id\": null, \"validate_parameters\": null, \"predictor\": null, \"enable_categorical\": false, \"feature_types\": null, \"max_cat_to_onehot\": null, \"max_cat_threshold\": null, \"eval_metric\": null, \"early_stopping_rounds\": null, \"callbacks\": null, \"_estimator_type\": \"regressor\"}"},"feature_names":["distance_cycling","distance_walking","floors","active_calories","steps","heart_rate","sleep_minutes","awake_count","bed_time","active_minutes","wo_calories","systolic_hist","diastolic_hist"],"feature_types":["float","float","float","float","float","float","float","float","float","float","float","float","float"],"gradient_booster":{"model":{"gbtree_model_param":{"num_parallel_tree":"1","num_trees":"100","size_leaf_vector":"0"},"tree_info":[0,0,0,0,0,0,0,0,0,0,0,0,0,0,0,0,0,0,0,0,0,0,0,0,0,0,0,0,0,0,0,0,0,0,0,0,0,0,0,0,0,0,0,0,0,0,0,0,0,0,0,0,0,0,0,0,0,0,0,0,0,0,0,0,0,0,0,0,0,0,0,0,0,0,0,0,0,0,0,0,0,0,0,0,0,0,0,0,0,0,0,0,0,0,0,0,0,0,0,0],"trees":[{"base_weights":[7.3918526E1,6.4976746E1,7.574831E1,7.583531E1,1.225E1],"categories":[],"categories_nodes":[],"categories_segments":[],"categories_sizes":[],"default_left":[1,0,1,0,0],"id":0,"left_children":[1,-1,3,-1,-1],"loss_changes":[6.82575E3,0E0,2.3305E3,0E0,0E0],"parents":[2147483647,0,0,2,2],"right_children":[2,-1,4,-1,-1],"split_conditions":[6.573045E1,1.9493025E1,6.51885E4,2.2750595E1,3.6750002E0],"split_indices":[12,0,4,0,0],"split_type":[0,0,0,0,0],"sum_hessian":[7.17E2,1.28E2,5.89E2,5.88E2,1E0],"tree_param":{"num_deleted":"0","num_feature":"13","num_nodes":"5","size_leaf_vector":"0"}},{"base_weights":[5.12324E1,4.696591E1,5.3295345E1,5.3362293E1,1.04125E1],"categories":[],"categories_nodes":[],"categories_segments":[],"categories_sizes":[],"default_left":[1,0,1,0,0],"id":1,"left_children":[1,-1,3,-1,-1],"loss_changes":[3.9395E3,0E0,8.3975E2,0E0,0E0],"parents":[2147483647,0,0,2,2],"right_children":[2,-1,4,-1,-1],"split_conditions":[7.051629E1,1.4089774E1,6.51885E4,1.6008688E1,3.1237502E0],"split_indices":[12,0,4,0,0],"split_type":[0,0,0,0,0],"sum_hessian":[7.31E2,2.46E2,4.85E2,4.84E2,1E0],"tree_param":{"num_deleted":"0","num_feature":"13","num_nodes":"5","size_leaf_vector":"0"}},{"base_weights":[3.606084E1,3.2997868E1,3.7453392E1,3.3176277E1,1.4623508E1,3.693346E1,4.5793186E1,2.356381E1,3.36501E1,3.6975636E1,8.850625E0,1.03703575E1,4.6882423E1,2.9516964E1,3.499757E1,3.701791E1,8.8703575E0,4.996489E1,2.5792572E1,9.1879015E0,3.044195E1,3.5280193E1,1.54379015E1,1.03703575E1,3.7053764E1],"categories":[],"categories_nodes":[],"categories_segments":[],"categories_sizes":[],"default_left":[1,1,1,1,0,1,1,0,1,1,0,0,1,1,1,1,0,0,0,0,0,0,0,0,0],"id":2,"left_children":[1,3,5,7,-1,9,11,-1,13,15,-1,-1,17,19,21,23,-1,-1,-1,-1,-1,-1,-1,-1,-1],"loss_changes":[1.7881875E3,2.6882812E2,3.900625E2,2.4096875E2,0E0,2.140625E2,4.3982422E2,0E0,1.5879688E2,2.13375E2,0E0,0E0,2.0648047E2,8.2975E2,3.1771875E2,5.04375E1,0E0,0E0,0E0,0E0,0E0,0E0,0E0,0E0,0E0],"parents":[2147483647,0,0,1,1,2,2,3,3,5,5,6,6,8,8,9,9,12,12,13,13,14,14,15,15],"right_children":[2,4,6,8,-1,10,12,-1,14,16,-1,-1,18,20,22,24,-1,-1,-1,-1,-1,-1,-1,-1,-1],"split_conditions":[7.01552E1,5.10725E4,9.3005325E1,5.260572E1,4.3870525E0,6.51885E4,9.737268E1,7.0691433E0,6.23E2,9.2617325E1,2.6551876E0,3.1111073E0,2.05E1,5.0000095E1,1.4216366E3,2.45E1,2.6611073E0,1.4989468E1,7.737772E0,2.7563705E0,9.132586E0,1.0584059E1,4.6313705E0,3.1111073E0,1.111613E1],"split_indices":[12,4,12,10,0,4,11,0,4,12,0,0,2,12,10,6,0,0,0,0,0,0,0,0,0],"split_type":[0,0,0,0,0,0,0,0,0,0,0,0,0,0,0,0,0,0,0,0,0,0,0,0,0],"sum_hessian":[7.08E2,2.29E2,4.79E2,2.26E2,3E0,4.56E2,2.3E1,1.3E1,2.13E2,4.55E2,1E0,1E0,2.2E1,5.8E1,1.55E2,4.54E2,1E0,1.8E1,4E0,3E0,5.5E1,1.52E2,3E0,1E0,4.53E2],"tree_param":{"num_deleted":"0","num_feature":"13","num_nodes":"25","size_leaf_vector":"0"}},{"base_weights":[2.5615028E1,2.3666882E1,2.7316261E1,2.1589533E1,2.4799694E1,2.8454903E1,2.3073597E1,1.6617254E1,2.295604E1,2.5296812E1,1.935654E1,2.8113901E1,4.2201E1,2.4745981E1,-2.791736E0,1.8165226E1,9.896185E0,2.309491E1,4.812292E0,2.5479858E1,1.3391493E1,-5.01409E0,2.2044308E1,2.8159914E1,7.523031E0,1.1375624E1,4.706344E1,6.4163895E0,2.5138746E1,-1.3249896E1,1.2083056E1,2.3400404E1,1.0218438E1,1.3737398E1,2.5661457E1,-1.2333427E1,4.812292E0,2.256898E1,6.0377846E0,2.544579E1,9.083056E0,4.812292E0,-2.0874723E1,2.3638308E1,8.383877E0,2.312292E0,1.2083056E1,2.5632563E1,5.812292E0],"categories":[],"categories_nodes":[],"categories_segments":[],"categories_sizes":[],"default_left":[1,1,1,1,1,1,1,1,1,1,1,1,1,1,1,0,0,1,0,1,0,1,1,0,0,0,0,0,1,1,0,1,1,0,0,0,0,0,0,1,0,0,0,0,0,0,0,0,0],"id":3,"left_children":[1,3,5,7,9,11,13,15,17,19,21,23,25,27,29,-1,-1,31,-1,33,-1,35,37,-1,-1,-1,-1,-1,39,41,-1,43,45,-1,-1,-1,-1,-1,-1,47,-1,-1,-1,-1,-1,-1,-1,-1,-1],"loss_changes":[1.7033438E3,2.5998438E2,1.1405312E3,4.8145312E2,8.3984375E1,1.6823438E2,3.7026562E3,1.4275879E2,1.3326562E2,7.502344E1,1.5515889E3,5.8171875E1,2.1405664E2,4.074375E2,1.093477E3,0E0,0E0,1.3851953E2,0E0,4.6242188E1,0E0,2.7511987E2,3.1697266E1,0E0,0E0,0E0,0E0,0E0,1.4846875E2,6.513394E2,0E0,1.3405469E2,3.1028198E1,0E0,0E0,0E0,0E0,0E0,0E0,1.2603906E2,0E0,0E0,0E0,0E0,0E0,0E0,0E0,0E0,0E0],"parents":[2147483647,0,0,1,1,2,2,3,3,4,4,5,5,6,6,7,7,8,8,9,9,10,10,11,11,12,12,13,13,14,14,17,17,19,19,21,21,22,22,28,28,29,29,31,31,32,32,39,39],"right_children":[2,4,6,8,10,12,14,16,18,20,22,24,26,28,30,-1,-1,32,-1,34,-1,36,38,-1,-1,-1,-1,-1,40,42,-1,44,46,-1,-1,-1,-1,-1,-1,48,-1,-1,-1,-1,-1,-1,-1,-1,-1],"split_conditions":[7.4802155E1,1.2151798E3,4.9685626E2,6.292902E1,5.828369E2,1.0284869E2,1.4431116E2,3.5083818E0,1.066075E3,5.0659E4,5.8600714E2,6.51885E4,1.1911466E2,3.719321E1,1.84305E4,5.449568E0,2.9688556E0,7.4209885E1,1.4436877E0,9.221399E1,4.017448E0,4.76425E3,1.359722E6,8.447974E0,2.2569094E0,3.4126873E0,1.4119032E1,1.9249169E0,1.793228E6,1.65926E5,3.624917E0,1.2363298E1,8.274838E1,4.1212196E0,7.698437E0,-3.7000284E0,1.4436877E0,6.7706943E0,1.8113354E0,3.880383E1,2.724917E0,1.4436877E0,-6.2624173E0,7.0914927E0,2.5151632E0,6.936877E-1,3.624917E0,7.6897693E0,1.7436877E0],"split_indices":[12,1,6,12,6,12,11,7,1,4,6,4,11,10,4,0,0,12,0,11,0,1,3,0,0,0,0,0,3,3,0,7,1,0,0,0,0,0,0,7,0,0,0,0,0,0,0,0,0],"split_type":[0,0,0,0,0,0,0,0,0,0,0,0,0,0,0,0,0,0,0,0,0,0,0,0,0,0,0,0,0,0,0,0,0,0,0,0,0,0,0,0,0,0,0,0,0,0,0,0,0],"sum_hessian":[7.08E2,3.37E2,3.71E2,1.26E2,2.11E2,2.88E2,8.3E1,3E1,9.6E1,1.9E2,2.1E1,2.84E2,4E0,7.8E1,5E0,2.3E1,7E0,9.5E1,1E0,1.86E2,4E0,2E0,1.9E1,2.83E2,1E0,1E0,3E0,2E0,7.6E1,3E0,2E0,9.2E1,3E0,4E0,1.82E2,1E0,1E0,1.8E1,1E0,7.4E1,2E0,1E0,2E0,9E1,2E0,1E0,2E0,7.3E1,1E0],"tree_param":{"num_deleted":"0","num_feature":"13","num_nodes":"49","size_leaf_vector":"0"}},{"base_weights":[1.7899042E1,1.6834969E1,1.9466654E1,1.3371139E1,1.7347721E1,2.0285143E1,1.3461877E1,1.5303331E1,3.0215743E0,1.7536308E1,1.0008745E1,2.0908047E1,1.3718103E1,1.5075743E1,-4.0249166E0,7.914609E0,1.6276808E1,-1.9680227E1,1.0253111E1,2.7847834E1,1.735007E1,4.4185276E0,1.1381204E1,2.1027973E1,4.784406E0,4.1471744E0,1.5903477E1,1.0344676E1,1.8515343E1,-1.3993168E1,3.962223E0,3.3675318E0,9.969349E0,1.8733894E1,1.3561784E1,1.1646072E1,-4.452896E-1,3.1901115E1,5.817354E0,7.4004326E0,1.7465775E1,1.9840952E1,2.4261772E1,8.5883045E0,-1.4116955E0,6.1412873E0,-2.9116955E0,3.5883045E0,1.6362785E1,6.2320966E-1,1.1599324E1,1.9325373E1,1.9674072E0,1.0927175E0,5.0959873E0,4.8465614E0,1.9185932E1,5.263312E0,1.4891811E1,1.7641872E1,1.1778036E1,1.9898859E1,4.9404488E0,1.9784845E1,3.099437E1,2.1177394E0,8.11774E0,1.6817574E1,4.0883045E0,-3.2592773E-2,9.674072E-1,1.3182117E1,3.9511108E0],"categories":[],"categories_nodes":[],"categories_segments":[],"categories_sizes":[],"default_left":[1,1,1,1,1,1,1,1,1,1,1,1,1,1,1,1,1,0,1,1,1,0,0,1,1,1,1,1,1,0,0,1,0,1,1,0,0,0,0,0,1,1,1,0,0,1,0,0,1,1,1,0,0,0,0,0,0,0,0,0,0,0,0,0,0,0,0,0,0,0,0,0,0],"id":4,"left_children":[1,3,5,7,9,11,13,15,17,19,21,23,25,27,29,31,33,-1,35,37,39,-1,-1,41,43,45,47,49,51,-1,-1,53,-1,55,57,-1,-1,-1,-1,-1,59,61,63,-1,-1,65,-1,-1,67,69,71,-1,-1,-1,-1,-1,-1,-1,-1,-1,-1,-1,-1,-1,-1,-1,-1,-1,-1,-1,-1,-1,-1],"loss_changes":[9.032969E2,5.619531E2,1.1620625E3,1.1935967E3,3.5872656E2,7.5628125E2,1.1330889E3,2.4519824E2,2.0076412E3,2.3697656E2,4.1779907E1,3.460703E2,4.5694678E2,3.7801953E2,3.739153E2,4.1172394E1,4.6131836E1,0E0,1.393081E2,2.6089844E2,2.9785156E2,0E0,0E0,3.9765625E2,8.2832085E1,1.0233866E2,5.441504E1,2.0012048E2,2.1666064E2,0E0,0E0,1.0159191E1,0E0,3.8844727E1,1.9754932E2,0E0,0E0,0E0,0E0,0E0,1.5879688E2,5.0953125E1,1.1048398E3,0E0,0E0,2.257048E1,0E0,0E0,3.7307617E1,7.087072E-1,1.2949915E2,0E0,0E0,0E0,0E0,0E0,0E0,0E0,0E0,0E0,0E0,0E0,0E0,0E0,0E0,0E0,0E0,0E0,0E0,0E0,0E0,0E0,0E0],"parents":[2147483647,0,0,1,1,2,2,3,3,4,4,5,5,6,6,7,7,8,8,9,9,10,10,11,11,12,12,13,13,14,14,15,15,16,16,18,18,19,19,20,20,23,23,24,24,25,25,26,26,27,27,28,28,31,31,33,33,34,34,40,40,41,41,42,42,45,45,48,48,49,49,50,50],"right_children":[2,4,6,8,10,12,14,16,18,20,22,24,26,28,30,32,34,-1,36,38,40,-1,-1,42,44,46,48,50,52,-1,-1,54,-1,56,58,-1,-1,-1,-1,-1,60,62,64,-1,-1,66,-1,-1,68,70,72,-1,-1,-1,-1,-1,-1,-1,-1,-1,-1,-1,-1,-1,-1,-1,-1,-1,-1,-1,-1,-1,-1],"split_conditions":[7.76833E1,4.0892548E2,5.473198E2,3.141474E2,1.1567855E6,1.9462E4,1.453887E2,6.016697E1,1.3837352E0,5.46863E1,3.668906E2,1.6484258E0,2.898294E2,2.4268268E2,8.404315E3,3.1898975E2,7.050044E1,-5.9040685E0,2.0253706E5,1.885E5,5.5516907E1,1.3255583E0,3.4143612E0,8.599138E1,3.05446E4,1.65E1,3.28255E3,1.0956826E0,8.572093E1,-4.1979504E0,1.1886669E0,1.3384491E2,2.9908047E0,1.2E0,2.9493744E2,3.4938219E0,-1.3358688E-1,9.570335E0,1.7452064E0,2.22013E0,2.3788988E4,3.961171E1,3.2009308E2,2.5764914E0,-4.2350867E-1,1.8837902E4,-8.735087E-1,1.0764914E0,9.45E1,1.357645E3,1.0491247E1,5.797612E0,5.902222E-1,3.2781526E-1,1.5287963E0,1.4539685E0,5.7557797E0,1.5789937E0,4.4675436E0,5.292562E0,3.533411E0,5.969658E0,1.4821347E0,5.935454E0,9.298311E0,6.3532186E-1,2.435322E0,5.0452724E0,1.2264915E0,-9.777833E-3,2.9022217E-1,3.9546354E0,1.1853333E0],"split_indices":[12,8,6,8,3,4,11,12,7,12,6,5,6,10,1,6,12,0,3,3,12,0,0,12,0,2,1,7,12,0,0,11,0,8,6,0,0,0,0,0,1,7,10,0,0,1,0,0,2,1,7,0,0,0,0,0,0,0,0,0,0,0,0,0,0,0,0,0,0,0,0,0,0],"split_type":[0,0,0,0,0,0,0,0,0,0,0,0,0,0,0,0,0,0,0,0,0,0,0,0,0,0,0,0,0,0,0,0,0,0,0,0,0,0,0,0,0,0,0,0,0,0,0,0,0,0,0,0,0,0,0,0,0,0,0,0,0,0,0,0,0,0,0,0,0,0,0,0,0],"sum_hessian":[7.37E2,4.46E2,2.91E2,6.1E1,3.85E2,2.54E2,3.7E1,5.1E1,1E1,3.74E2,1.1E1,2.3E2,2.4E1,3.4E1,3E0,7E0,4.4E1,2E0,8E0,4E0,3.7E2,3E0,8E0,2.28E2,2E0,5E0,1.9E1,1.6E1,1.8E1,1E0,2E0,3E0,4E0,2E1,2.4E1,7E0,1E0,3E0,1E0,5E0,3.65E2,1.72E2,5.6E1,1E0,1E0,4E0,1E0,1E0,1.8E1,2E0,1.4E1,1.7E1,1E0,2E0,1E0,1E0,1.9E1,4E0,2E1,3.52E2,1.3E1,1.71E2,1E0,3.6E1,2E1,2E0,2E0,1.7E1,1E0,1E0,1E0,1.1E1,3E0],"tree_param":{"num_deleted":"0","num_feature":"13","num_nodes":"73","size_leaf_vector":"0"}},{"base_weights":[1.2992328E1,1.2715938E1,2.0155354E1,1.1450529E1,1.3533092E1,2.2612844E1,9.01407E0,8.994463E0,1.2498158E1,1.3938585E1,8.894537E0,2.3424395E1,4.0024796E0,9.914944E0,2.2548485E0,2.8971112E0,9.426347E0,3.9221065E0,1.2762238E1,1.5208357E1,1.2534944E1,1.2575358E1,2.4750648E0,2.537636E1,1.0248419E1,7.8808117E-1,4.281863E0,7.9415984E0,1.22563505E1,6.2409897E0,-1.2500674E0,1.5819876E1,1.1775627E1,1.4772207E1,2.4375633E1,1.2876851E1,5.434825E0,1.5884052E1,6.03124E0,-6.0923586E0,6.5112696E0,1.6137875E1,2.9742254E1,1.2615986E0,2.0970917E-1,9.83347E0,6.539513E0,1.2965343E1,-2.379734E0,-1.6832066E0,-1.9189453E-1,1.0338857E1,1.799539E1,5.5337467E0,1.2162216E1,3.2039042E0,1.4948191E1,2.609081E1,7.042286E0,-5.295741E-1,1.3038641E1,6.775856E0,4.71344E-2,7.1746387E0,-1.5579758E0,-5.947838E-1,-1.4041328E1,8.740977E0,2.5333672E0,1.7766218E1,3.1839104E0],"categories":[],"categories_nodes":[],"categories_segments":[],"categories_sizes":[],"default_left":[1,1,1,1,1,1,1,1,1,1,1,1,0,0,0,1,1,1,1,1,1,1,1,1,0,1,0,1,1,0,1,1,1,1,1,1,1,0,1,1,1,1,0,0,0,0,0,0,0,0,0,0,0,0,0,0,0,0,0,0,0,0,0,0,0,0,0,0,0,0,0],"id":5,"left_children":[1,3,5,7,9,11,13,15,17,19,21,23,-1,-1,-1,25,27,29,31,33,35,37,39,41,-1,43,-1,45,47,-1,49,51,53,55,57,59,61,-1,63,65,67,69,-1,-1,-1,-1,-1,-1,-1,-1,-1,-1,-1,-1,-1,-1,-1,-1,-1,-1,-1,-1,-1,-1,-1,-1,-1,-1,-1,-1,-1],"loss_changes":[1.1137188E3,5.368047E2,4.5327637E2,5.797344E2,6.302656E2,1.9320605E2,1.4178589E1,1.938916E2,3.7118945E2,4.6347656E2,7.958877E2,2.0287598E2,0E0,0E0,0E0,1.7068932E1,2.3040918E2,9.1757324E1,3.5671875E2,3.9159766E2,3.6698047E2,3.8055444E2,5.237873E2,1.2503711E2,0E0,8.309078E-1,0E0,7.893237E1,2.9027612E2,0E0,1.05201E0,3.02833E2,2.7052148E2,3.22625E2,2.4369629E1,3.778086E2,7.193121E1,0E0,8.927542E1,2.1014873E2,6.655145E1,9.108826E1,0E0,0E0,0E0,0E0,0E0,0E0,0E0,0E0,0E0,0E0,0E0,0E0,0E0,0E0,0E0,0E0,0E0,0E0,0E0,0E0,0E0,0E0,0E0,0E0,0E0,0E0,0E0,0E0,0E0],"parents":[2147483647,0,0,1,1,2,2,3,3,4,4,5,5,6,6,7,7,8,8,9,9,10,10,11,11,15,15,16,16,17,17,18,18,19,19,20,20,21,21,22,22,23,23,25,25,27,27,28,28,30,30,31,31,32,32,33,33,34,34,35,35,36,36,38,38,39,39,40,40,41,41],"right_children":[2,4,6,8,10,12,14,16,18,20,22,24,-1,-1,-1,26,28,30,32,34,36,38,40,42,-1,44,-1,46,48,-1,50,52,54,56,58,60,62,-1,64,66,68,70,-1,-1,-1,-1,-1,-1,-1,-1,-1,-1,-1,-1,-1,-1,-1,-1,-1,-1,-1,-1,-1,-1,-1,-1,-1,-1,-1,-1,-1],"split_conditions":[9.3005325E1,1.1871475E2,1.780303E-2,3.67275E2,1.3930101E2,1.3761995E3,2.275591E4,5.965371E1,4.625505E1,5.2355E3,8.289856E1,5.5E0,1.2007439E0,2.9744833E0,6.7645454E-1,3.757608E2,1.8274968E0,7.457209E3,1.271764E2,5.015E3,8.817732E1,1.3581052E-3,8.528364E1,3.1433545E2,3.0745258E0,1.0591358E2,1.284559E0,1.1140211E2,1.1860173E2,1.8722969E0,2.3513082E4,6.700453E1,1.4026797E2,6.1629303E1,1.15E1,5.494E3,7.359657E2,4.765216E0,5.2752566E0,4.983409E3,4.5674774E2,9.4098413E2,8.922677E0,3.784796E-1,6.2912755E-2,2.9500413E0,1.961854E0,3.8896031E0,-7.1392024E-1,-5.0496197E-1,-5.756836E-2,3.1016572E0,5.3986173E0,1.6601241E0,3.648665E0,9.6117127E-1,4.4844575E0,7.8272433E0,2.112686E0,-1.5887223E-1,3.9115925E0,2.0327568E0,1.414032E-2,2.1523917E0,-4.6739274E-1,-1.7843515E-1,-4.2123985E0,2.6222932E0,7.600102E-1,5.3298655E0,9.5517313E-1],"split_indices":[12,11,5,1,11,8,1,12,10,4,12,2,0,0,0,10,7,1,10,4,12,5,12,10,0,11,0,11,11,0,1,12,10,6,2,4,10,0,7,1,6,8,0,0,0,0,0,0,0,0,0,0,0,0,0,0,0,0,0,0,0,0,0,0,0,0,0,0,0,0,0],"split_type":[0,0,0,0,0,0,0,0,0,0,0,0,0,0,0,0,0,0,0,0,0,0,0,0,0,0,0,0,0,0,0,0,0,0,0,0,0,0,0,0,0,0,0,0,0,0,0,0,0,0,0,0,0,0,0,0,0,0,0,0,0,0,0,0,0,0,0,0,0,0,0],"sum_hessian":[6.91E2,6.68E2,2.3E1,2.68E2,4E2,1.8E1,5E0,8.3E1,1.85E2,3.66E2,3.4E1,1.7E1,1E0,4E0,1E0,6E0,7.7E1,6E0,1.79E2,1.87E2,1.79E2,2.1E1,1.3E1,1.4E1,3E0,3E0,3E0,5.3E1,2.4E1,4E0,2E0,4E1,1.39E2,1.81E2,6E0,1.7E2,9E0,1.3E1,8E0,4E0,9E0,6E0,8E0,1E0,2E0,2E1,3.3E1,2.3E1,1E0,1E0,1E0,1.3E1,2.7E1,9E0,1.3E2,3E0,1.78E2,5E0,1E0,2E0,1.68E2,7E0,2E0,7E0,1E0,3E0,1E0,5E0,4E0,5E0,1E0],"tree_param":{"num_deleted":"0","num_feature":"13","num_nodes":"71","size_leaf_vector":"0"}},{"base_weights":[9.074255E0,8.994029E0,2.522354E1,9.275358E0,6.217553E0,5.7542624E0,9.491044E0,6.903224E0,-3.9396796E0,6.6812572E0,-2.070952E0,9.175228E0,1.2703551E1,4.2637405E0,9.184408E0,-1.33814335E1,1.7661171E0,5.2461753E0,1.2982305E1,5.233383E-2,-5.2820473E0,1.2246394E1,8.822576E0,3.5703442E0,1.3599204E1,-1.9743195E0,5.4920597E0,6.618649E0,1.2819968E1,2.1728427E0,2.729702E-1,3.4184868E0,8.258473E0,1.43201065E1,3.1466484E0,8.789635E-1,-5.161972E-1,1.02131195E1,1.8029812E1,1.0727176E1,8.337617E0,9.458522E0,-1.7383747E0,1.3947318E1,-1.2070122E0,1.3731018E0,-9.355713E0,4.281549E0,9.961996E0,4.3284507E0,7.871213E0,1.4703874E1,6.8649454E0],"categories":[],"categories_nodes":[],"categories_segments":[],"categories_sizes":[],"default_left":[1,1,0,1,1,1,1,1,1,1,1,1,1,1,1,0,1,1,1,1,0,1,1,1,1,1,1,1,1,0,0,0,0,0,0,0,0,0,0,0,0,0,0,0,0,0,0,0,0,0,0,0,0],"id":6,"left_children":[1,3,-1,5,7,9,11,13,15,17,19,21,23,25,27,-1,29,31,33,35,-1,37,39,41,43,45,47,49,51,-1,-1,-1,-1,-1,-1,-1,-1,-1,-1,-1,-1,-1,-1,-1,-1,-1,-1,-1,-1,-1,-1,-1,-1],"loss_changes":[7.0466797E2,5.023828E2,0E0,4.3826562E2,5.077483E2,3.039939E2,5.0232812E2,3.522146E2,2.9299683E2,2.5742322E2,3.436679E1,4.973828E2,3.7681543E2,2.5603766E2,2.3230005E2,0E0,1.8360825E0,1.4244037E2,3.388855E1,2.333577E0,0E0,4.6262012E2,3.770039E2,2.0399454E2,2.5908496E2,1.6109816E2,1.0344165E2,2.903949E1,4.4901855E1,0E0,0E0,0E0,0E0,0E0,0E0,0E0,0E0,0E0,0E0,0E0,0E0,0E0,0E0,0E0,0E0,0E0,0E0,0E0,0E0,0E0,0E0,0E0,0E0],"parents":[2147483647,0,0,1,1,3,3,4,4,5,5,6,6,7,7,8,8,9,9,10,10,11,11,12,12,13,13,14,14,16,16,17,17,18,18,19,19,21,21,22,22,23,23,24,24,25,25,26,26,27,27,28,28],"right_children":[2,4,-1,6,8,10,12,14,16,18,20,22,24,26,28,-1,30,32,34,36,-1,38,40,42,44,46,48,50,52,-1,-1,-1,-1,-1,-1,-1,-1,-1,-1,-1,-1,-1,-1,-1,-1,-1,-1,-1,-1,-1,-1,-1,-1],"split_conditions":[1.0972323E2,5.705204E2,7.567062E0,1.00672325E2,1.453887E2,1.3844414E3,8.6300385E1,6.2736816E2,7.868069E3,1.3357908E3,1.5373431E4,8.963135E1,1.3853824E2,6.0947548E1,1.06375E4,-4.01443E0,1.243E3,1.492372E0,7.483575E3,9.378139E1,-1.5846143E0,1.64658E5,3.182416E2,8.489056E3,3.5697457E4,2.4018005E5,1.3748989E-1,4.9944813E-3,1.5E1,6.5185285E-1,8.189106E-2,1.0255461E0,2.4775422E0,4.296032E0,9.439946E-1,2.6368904E-1,-1.5485917E-1,3.063936E0,5.4089437E0,3.2181528E0,2.501285E0,2.8375566E0,-5.2151245E-1,4.1841955E0,-3.6210367E-1,4.1193056E-1,-2.806714E0,1.2844647E0,2.9885988E0,1.2985352E0,2.361364E0,4.4111624E0,2.0594838E0],"split_indices":[12,6,0,11,11,8,12,6,1,8,1,10,8,12,4,0,0,7,1,11,0,3,6,1,0,3,5,5,2,0,0,0,0,0,0,0,0,0,0,0,0,0,0,0,0,0,0,0,0,0,0,0,0],"split_type":[0,0,0,0,0,0,0,0,0,0,0,0,0,0,0,0,0,0,0,0,0,0,0,0,0,0,0,0,0,0,0,0,0,0,0,0,0,0,0,0,0,0,0,0,0,0,0,0,0,0,0,0,0],"sum_hessian":[7.18E2,7.16E2,2E0,6.48E2,6.8E1,3.9E1,6.09E2,6.4E1,4E0,3.5E1,4E0,5.58E2,5.1E1,3.1E1,3.3E1,1E0,3E0,3E1,5E0,3E0,1E0,5.4E1,5.04E2,5E0,4.6E1,5E0,2.6E1,2.1E1,1.2E1,2E0,1E0,2E1,1E1,4E0,1E0,1E0,2E0,4.2E1,1.2E1,9.8E1,4.06E2,2E0,3E0,4.5E1,1E0,4E0,1E0,2.2E1,4E0,9E0,1.2E1,8E0,4E0],"tree_param":{"num_deleted":"0","num_feature":"13","num_nodes":"53","size_leaf_vector":"0"}},{"base_weights":[6.3195596E0,6.2626324E0,2.4422085E1,6.161022E0,1.1972823E1,1.1705331E1,6.05296E0,1.2856824E1,1.1244049E0,4.423132E0,1.946404E1,1.2899067E1,5.968132E0,1.3635325E1,2.535904E0,1.4142424E0,1.274268E1,1.5025346E1,4.3468194E0,6.0515666E0,5.6203604E-1,2.4722571E0,-8.2052994E-1,1.2644014E1,5.967459E0,-3.6848803E0,2.387106E0],"categories":[],"categories_nodes":[],"categories_segments":[],"categories_sizes":[],"default_left":[1,1,0,1,1,1,1,1,0,1,0,1,1,0,0,1,0,0,0,1,1,0,0,0,0,0,0],"id":7,"left_children":[1,3,-1,5,7,9,11,13,-1,15,-1,17,19,-1,-1,21,-1,-1,-1,23,25,-1,-1,-1,-1,-1,-1],"loss_changes":[6.178887E2,3.5965234E2,0E0,3.7010938E2,1.0062402E2,6.484142E2,3.434746E2,5.380542E1,0E0,1.8223958E2,0E0,8.016333E1,3.2000586E2,0E0,0E0,1.8579515E1,0E0,0E0,0E0,3.160078E2,1.0180723E2,0E0,0E0,0E0,0E0,0E0,0E0],"parents":[2147483647,0,0,1,1,3,3,4,4,5,5,6,6,7,7,9,9,11,11,12,12,15,15,19,19,20,20],"right_children":[2,4,-1,6,8,10,12,14,-1,16,-1,18,20,-1,-1,22,-1,-1,-1,24,26,-1,-1,-1,-1,-1,-1],"split_conditions":[1.2575606E2,1.7618336E1,7.326626E0,1.3025E2,2.3091577E-1,9.203599E1,1.4116667E1,1.8426547E2,3.373215E-1,6.5E0,5.8392124E0,4.0469277E-1,3.7378426E4,4.0905976E0,7.607712E-1,5.7853594E-2,3.822804E0,4.507604E0,1.3040459E0,5.46863E1,4.1628766E4,7.4167717E-1,-2.4615899E-1,3.7932045E0,1.7902378E0,-1.1054641E0,7.161318E-1],"split_indices":[12,7,0,6,5,6,8,11,0,2,0,5,1,0,0,5,0,0,0,12,1,0,0,0,0,0,0],"split_type":[0,0,0,0,0,0,0,0,0,0,0,0,0,0,0,0,0,0,0,0,0,0,0,0,0,0,0],"sum_hessian":[7.47E2,7.46E2,1E0,7.35E2,1.1E1,1.2E1,7.23E2,1E1,1E0,7E0,5E0,7E0,7.16E2,9E0,1E0,6E0,1E0,5E0,2E0,7.05E2,1.1E1,4E0,2E0,7E0,6.98E2,3E0,8E0],"tree_param":{"num_deleted":"0","num_feature":"13","num_nodes":"27","size_leaf_vector":"0"}},{"base_weights":[4.5235157E0,4.4716306E0,2.0758774E1,4.605839E0,1.8198283E0,4.3808713E0,7.5329337E0,2.8531032E0,-2.1532722E0,3.8436482E0,5.6197405E0,8.230143E0,-1.2269337E1,-2.6483867E0,3.3587093E0,-4.0147223E0,7.1185875E-1,4.0430045E0,-2.1274793E0,6.1330843E0,1.4442189E0,8.857948E0,1.3105491E0,4.204717E0,3.4087044E-1,1.3912073E0,-6.6309357E-1,2.9452155E0,4.859926E0,-4.875076E0,2.8064282E0,5.373221E0,1.0076445E1,-1.3002236E0,3.8396063E0,6.434075E0,1.1202505E1,-1.203949E0,2.240161E0,3.143691E0,9.522977E0,-4.3603897E-1,2.5011635E0],"categories":[],"categories_nodes":[],"categories_segments":[],"categories_sizes":[],"default_left":[1,1,0,1,1,1,1,1,1,1,1,1,0,0,1,0,1,1,1,1,1,1,1,1,1,0,0,0,0,0,0,0,0,0,0,0,0,0,0,0,0,0,0],"id":8,"left_children":[1,3,-1,5,7,9,11,13,15,17,19,21,-1,-1,23,-1,25,27,29,31,33,35,37,39,41,-1,-1,-1,-1,-1,-1,-1,-1,-1,-1,-1,-1,-1,-1,-1,-1,-1,-1],"loss_changes":[5.08625E2,2.4536914E2,0E0,4.134629E2,1.539345E2,3.9902734E2,7.49875E2,8.95612E1,4.5524303E1,5.3713135E2,3.962588E2,1.8822241E2,0E0,0E0,6.7500854E1,0E0,4.6587877E0,3.7131348E2,2.1702737E2,4.4925537E2,1.4962039E2,1.6660449E2,1.4384576E1,8.856177E1,1.2839068E1,0E0,0E0,0E0,0E0,0E0,0E0,0E0,0E0,0E0,0E0,0E0,0E0,0E0,0E0,0E0,0E0,0E0,0E0],"parents":[2147483647,0,0,1,1,3,3,4,4,5,5,6,6,7,7,8,8,9,9,10,10,11,11,14,14,16,16,17,17,18,18,19,19,20,20,21,21,22,22,23,23,24,24],"right_children":[2,4,-1,6,8,10,12,14,16,18,20,22,-1,-1,24,-1,26,28,30,32,34,36,38,40,42,-1,-1,-1,-1,-1,-1,-1,-1,-1,-1,-1,-1,-1,-1,-1,-1,-1,-1],"split_conditions":[1.2575606E2,8.707218E5,6.2276325E0,4.00922E5,1.3454662E2,7.955177E1,6.835217E2,6.5224045E1,1.4291562E2,3.22394E5,1.175079E4,5.604761E2,-3.6808012E0,-7.94516E-1,2.05E1,-1.2044168E0,7.5067246E3,4.0725E3,3.64669E5,6.5516753E3,2.0738E4,3.5135127E-3,5.995159E3,4.1955E6,4.841143E4,4.173622E-1,-1.9892807E-1,8.8356465E-1,1.4579779E0,-1.4625227E0,8.419285E-1,1.6119664E0,3.0229335E0,-3.900671E-1,1.1518819E0,1.9302225E0,3.3607516E0,-3.6118472E-1,6.7204833E-1,9.4310737E-1,2.856893E0,-1.3081169E-1,7.503491E-1],"split_indices":[12,3,0,3,11,12,6,12,11,3,1,6,0,0,2,0,1,4,3,1,4,5,1,3,1,0,0,0,0,0,0,0,0,0,0,0,0,0,0,0,0,0,0],"split_type":[0,0,0,0,0,0,0,0,0,0,0,0,0,0,0,0,0,0,0,0,0,0,0,0,0,0,0,0,0,0,0,0,0,0,0,0,0,0,0,0,0,0,0],"sum_hessian":[7.13E2,7.12E2,1E0,6.77E2,3.5E1,6.31E2,4.6E1,2.8E1,7E0,4.43E2,1.88E2,4.5E1,1E0,2E0,2.6E1,4E0,3E0,4.29E2,1.4E1,1.67E2,2.1E1,4.1E1,4E0,2E1,6E0,2E0,1E0,1.85E2,2.44E2,9E0,5E0,1.42E2,2.5E1,1E1,1.1E1,2.2E1,1.9E1,1E0,3E0,1.8E1,2E0,5E0,1E0],"tree_param":{"num_deleted":"0","num_feature":"13","num_nodes":"43","size_leaf_vector":"0"}},{"base_weights":[3.3533638E0,3.3099718E0,1.7644958E1,3.3855278E0,-1.530707E0,3.305916E0,8.252516E0,-2.536976E0,4.769127E0,3.1997175E0,6.505729E0,9.553841E0,1.597702E0,6.4876556E-1,-3.317004E0,3.1423383E0,9.255489E0,8.462595E0,2.0233903E0,6.167063E0,1.2245546E1,1.497612E-1,2.2467918E0,-7.791901E-2,1.0510674E0,-5.897808E-1,-3.5841842E0,4.49904E0,2.9257293E0,1.8370277E1,1.0552597E-1,9.730172E0,1.4889526E-1,3.008065E0,-6.2042236E-1],"categories":[],"categories_nodes":[],"categories_segments":[],"categories_sizes":[],"default_left":[1,1,0,1,1,1,1,1,0,1,1,1,1,1,1,1,1,1,1,0,0,0,0,0,0,0,0,0,0,0,0,0,0,0,0],"id":9,"left_children":[1,3,-1,5,7,9,11,13,-1,15,17,19,21,23,25,27,29,31,33,-1,-1,-1,-1,-1,-1,-1,-1,-1,-1,-1,-1,-1,-1,-1,-1],"loss_changes":[3.9863965E2,2.7436865E2,0E0,2.5363477E2,8.817111E1,2.2215088E2,7.999664E1,2.948658E1,0E0,2.1206494E2,1.7584619E2,6.5267944E0,2.4830494E0,9.589374E-1,4.444069E0,1.8931543E2,4.9846136E2,1.56625E2,2.269263E1,0E0,0E0,0E0,0E0,0E0,0E0,0E0,0E0,0E0,0E0,0E0,0E0,0E0,0E0,0E0,0E0],"parents":[2147483647,0,0,1,1,3,3,4,4,5,5,6,6,7,7,9,9,10,10,11,11,12,12,13,13,14,14,15,15,16,16,17,17,18,18],"right_children":[2,4,-1,6,8,10,12,14,-1,16,18,20,22,24,26,28,30,32,34,-1,-1,-1,-1,-1,-1,-1,-1,-1,-1,-1,-1,-1,-1,-1,-1],"split_conditions":[1.2184476E2,1.7139978E3,5.2934875E0,1.6928673E1,4.607813E2,1.1836626E3,3.0326372E3,7.8532275E2,1.4307381E0,6.2E1,1.3219274E0,8.820823E1,8.954033E3,7.8903E2,9.378139E1,8.998302E1,8.7E1,3.0926E4,4.9530853E2,1.850119E0,3.673664E0,4.492836E-2,6.740376E-1,-2.3375703E-2,3.1532022E-1,-1.7693424E-1,-1.0752553E0,1.3497121E0,8.777188E-1,5.5110836E0,3.1657793E-2,2.9190516E0,4.466858E-2,9.024195E-1,-1.8612671E-1],"split_indices":[12,10,0,7,6,10,1,8,0,2,7,12,1,1,11,10,2,4,6,0,0,0,0,0,0,0,0,0,0,0,0,0,0,0,0],"split_type":[0,0,0,0,0,0,0,0,0,0,0,0,0,0,0,0,0,0,0,0,0,0,0,0,0,0,0,0,0,0,0,0,0,0,0],"sum_hessian":[7.36E2,7.35E2,1E0,7.24E2,1.1E1,7.14E2,1E1,1E1,1E0,6.93E2,2.1E1,8E0,2E0,2E0,8E0,6.88E2,5E0,1.4E1,7E0,5E0,3E0,1E0,1E0,1E0,1E0,1E0,7E0,9.2E1,5.96E2,2E0,3E0,1.2E1,2E0,5E0,2E0],"tree_param":{"num_deleted":"0","num_feature":"13","num_nodes":"35","size_leaf_vector":"0"}},{"base_weights":[2.3548326E0,1.7184268E0,3.4235551E0,9.0035653E-1,4.580833E0,3.9539824E0,-9.5620596E-1,7.232627E-1,5.0356984E0,3.7722014E-2,5.337569E0,5.207446E0,2.5293875E0,-1.5325733E1,1.04339056E-1,3.2987502E-1,2.465528E0,1.1579245E1,1.2603554E0,-3.2098303E0,3.280559E0,6.3365564E0,3.1979117E-1,8.781674E0,4.1588726E0,2.279687E0,1.4998215E1,1.0167544E0,-2.3037934E0,1.821048E-1,5.898019E0,5.9887533E0,3.2450995E-1,3.0277073E0,1.6271034E1,6.9518456E0,-1.031498E0,-8.6705655E-1,-3.8462455E0,-1.03658296E-1,6.690691E0,5.4067936E0,1.0379844E1,9.078328E0,-1.7260091E0,2.8195994E0,1.2122918E1,1.4689603E0,6.1862793E0,1.4643556E0,4.9932394E0,-1.2692143E0,3.2102907E0,-2.9703357E0,-2.0277786E-1,-6.9047016E-1,1.0212607E0,6.8562074E0,2.3350322E0,2.0343692E0,1.0926016E1,-4.7858715E0,1.5919644E0,-3.545438E0,3.9738846E-1,-4.2740035E0,-8.5372734E-1,5.18336E-1,-6.910998E-1,7.459844E0,3.1735168E0,1.2585784E1,2.821516E0,-3.7477505E0,5.42305E-1,-1.9861984E0,8.983797E0,2.0417374E1,5.7425456E0,1.8862857E0,-8.029354E0,4.3450065E0,1.0806674E1,3.600479E0,1.9489565E-1,8.224828E0,1.3775558E0,-2.5042403E0,2.858935E0,4.7417192E0,-6.5513897E-1,-1.110967E0,-3.6222782E0,3.3337593E-1,-6.375427E-1],"categories":[],"categories_nodes":[],"categories_segments":[],"categories_sizes":[],"default_left":[1,1,1,1,1,1,1,1,1,1,1,1,1,0,1,1,1,1,1,1,1,1,1,1,1,1,0,1,1,1,1,1,1,0,0,0,1,0,1,1,0,1,1,0,1,1,1,1,1,1,1,1,1,1,1,0,0,0,0,0,0,0,0,0,0,0,0,0,0,0,0,0,0,0,0,0,0,0,0,0,0,0,0,0,0,0,0,0,0,0,0,0,0,0,0],"id":10,"left_children":[1,3,5,7,9,11,13,15,17,19,21,23,25,-1,27,29,31,33,35,37,39,41,43,45,47,49,-1,51,53,55,57,59,61,-1,-1,-1,63,-1,65,67,-1,69,71,-1,73,75,77,79,81,83,85,87,89,91,93,-1,-1,-1,-1,-1,-1,-1,-1,-1,-1,-1,-1,-1,-1,-1,-1,-1,-1,-1,-1,-1,-1,-1,-1,-1,-1,-1,-1,-1,-1,-1,-1,-1,-1,-1,-1,-1,-1,-1,-1],"loss_changes":[4.7157617E2,1.0308846E3,6.101216E2,2.4901636E2,3.367163E2,4.0289136E2,4.4354547E2,2.2673476E2,3.3126392E2,1.6849928E2,4.1904028E2,4.2446216E2,3.11404E2,0E0,6.3864464E1,2.2272916E2,4.5819717E2,1.5134613E2,1.3761142E2,8.592911E0,9.301857E1,2.0702905E2,2.8444257E2,5.036787E2,5.1990686E2,2.3605707E2,0E0,1.0937601E2,1.0601006E1,1.9547737E2,7.888626E0,4.2682043E2,2.602288E2,0E0,0E0,0E0,3.0145996E1,0E0,4.0316086E0,2.1851482E0,0E0,2.4684277E2,1.6456763E2,0E0,6.16497E1,3.4370636E2,7.824214E2,1.8559283E2,4.2095215E2,2.3250647E2,2.807798E2,6.3241547E1,6.822241E1,3.2489777E0,9.118439E-1,0E0,0E0,0E0,0E0,0E0,0E0,0E0,0E0,0E0,0E0,0E0,0E0,0E0,0E0,0E0,0E0,0E0,0E0,0E0,0E0,0E0,0E0,0E0,0E0,0E0,0E0,0E0,0E0,0E0,0E0,0E0,0E0,0E0,0E0,0E0,0E0,0E0,0E0,0E0,0E0],"parents":[2147483647,0,0,1,1,2,2,3,3,4,4,5,5,6,6,7,7,8,8,9,9,10,10,11,11,12,12,14,14,15,15,16,16,17,17,18,18,19,19,20,20,21,21,22,22,23,23,24,24,25,25,27,27,28,28,29,29,30,30,31,31,32,32,36,36,38,38,39,39,41,41,42,42,44,44,45,45,46,46,47,47,48,48,49,49,50,50,51,51,52,52,53,53,54,54],"right_children":[2,4,6,8,10,12,14,16,18,20,22,24,26,-1,28,30,32,34,36,38,40,42,44,46,48,50,-1,52,54,56,58,60,62,-1,-1,-1,64,-1,66,68,-1,70,72,-1,74,76,78,80,82,84,86,88,90,92,94,-1,-1,-1,-1,-1,-1,-1,-1,-1,-1,-1,-1,-1,-1,-1,-1,-1,-1,-1,-1,-1,-1,-1,-1,-1,-1,-1,-1,-1,-1,-1,-1,-1,-1,-1,-1,-1,-1,-1,-1],"split_conditions":[1.22952545E2,3.910435E-2,2.6758483E-1,3.0424E4,6.23E2,5.3385E3,2.6885474E-1,6.2080554E2,3.44145E4,1.01232153E3,2.10675E4,7.314554E1,1.7432913E2,-4.59772E0,1.3811264E2,1.4959593E1,1.3208113E3,3.32675E4,1.9961346E4,2.6388705E2,1.8035722E-1,1.3657214E3,1.552425E2,7.9818085E2,3.9751E2,1.6083E5,4.4994645E0,7.8288315E1,1.7276016E4,3.0117148E3,1E0,2.2945813E2,2.817E3,9.0831226E-1,4.8813105E0,2.085554E0,1.5E1,-2.6011696E-1,1.5115864E3,4.3593826E2,2.0072074E0,7.188835E1,5.477708E2,2.7234986E0,6.5E0,4.1031342E2,3.6310547E2,3.9535376E2,1.3262292E3,3.7274893E3,9.6815424E2,6.0336685E0,2.01168E3,1.3882861E2,3.628894E4,-2.0714106E-1,3.0637825E-1,2.0568624E0,7.0050967E-1,6.103108E-1,3.2778049E0,-1.4357615E0,4.7758934E-1,-1.0636314E0,1.1921654E-1,-1.282201E0,-2.561182E-1,1.555008E-1,-2.0732996E-1,2.2379534E0,9.5205504E-1,3.7757354E0,8.4645486E-1,-1.1243252E0,1.626915E-1,-5.958595E-1,2.6951392E0,6.125212E0,1.7227638E0,5.658857E-1,-2.4088063E0,1.303502E0,3.2420022E0,1.0801437E0,5.84687E-2,2.4674485E0,4.1326678E-1,-7.5127214E-1,8.5768056E-1,1.4225159E0,-1.965417E-1,-3.3329013E-1,-1.0866835E0,1.0001279E-1,-1.9126283E-1],"split_indices":[11,5,5,4,4,4,5,10,4,8,4,12,11,0,11,7,4,4,1,6,5,8,10,8,6,3,0,12,1,1,2,1,4,0,0,0,2,0,1,6,0,12,6,0,2,6,6,6,8,1,8,2,0,11,1,0,0,0,0,0,0,0,0,0,0,0,0,0,0,0,0,0,0,0,0,0,0,0,0,0,0,0,0,0,0,0,0,0,0,0,0,0,0,0,0],"split_type":[0,0,0,0,0,0,0,0,0,0,0,0,0,0,0,0,0,0,0,0,0,0,0,0,0,0,0,0,0,0,0,0,0,0,0,0,0,0,0,0,0,0,0,0,0,0,0,0,0,0,0,0,0,0,0,0,0,0,0,0,0,0,0,0,0,0,0,0,0,0,0,0,0,0,0,0,0,0,0,0,0,0,0,0,0,0,0,0,0,0,0,0,0,0,0],"sum_hessian":[7.01E2,4.41E2,2.6E2,3.44E2,9.7E1,2.32E2,2.8E1,3.31E2,1.3E1,1.4E1,8.3E1,1.22E2,1.1E2,1E0,2.7E1,2.71E2,6E1,4E0,9E0,7E0,7E0,6.9E1,1.4E1,2.6E1,9.6E1,1.09E2,1E0,2E1,7E0,2.65E2,6E0,2.2E1,3.8E1,2E0,2E0,2E0,7E0,2E0,5E0,4E0,3E0,5.8E1,1.1E1,2E0,1.2E1,1E1,1.6E1,4.2E1,5.4E1,8.5E1,2.4E1,1E1,1E1,5E0,2E0,1.3E2,1.35E2,4E0,2E0,1.3E1,9E0,7E0,3.1E1,2E0,5E0,4E0,1E0,2E0,2E0,2.9E1,2.9E1,8E0,3E0,6E0,6E0,6E0,4E0,6E0,1E1,4.1E1,1E0,4E1,1.4E1,3.1E1,5.4E1,1.2E1,1.2E1,8E0,2E0,7E0,3E0,2E0,3E0,1E0,1E0],"tree_param":{"num_deleted":"0","num_feature":"13","num_nodes":"95","size_leaf_vector":"0"}},{"base_weights":[1.7859962E0,1.728759E0,8.3854065E0,1.695839E0,1.2748482E1,1.1291702E1,-3.0730362E0,2.1032786E0,7.687082E-1,1.661712E1,2.2023823E0,2.4212592E0,-2.3004438E-1,8.785912E0,4.668183E-1,3.8086357E0,-5.050621E-1,2.3145473E0,8.706741E0,1.8597473E0,-1.9442834E0,1.0690123E1,-2.271782E0,3.91679E0,-2.0288242E-1,2.5186164E0,-1.6634391E-1,1.0265651E1,3.2063115E0,-2.001098E0,2.5866005E0,-3.1914575E0,3.322168E0,1.2741185E1,-8.0812645E-1,-2.6953456E0,5.1086574E0,-3.508856E0,1.6120543E-1],"categories":[],"categories_nodes":[],"categories_segments":[],"categories_sizes":[],"default_left":[1,1,1,1,0,1,0,1,1,0,1,1,1,1,1,0,0,1,1,1,1,1,0,1,1,0,0,0,0,0,0,0,0,0,0,0,0,0,0],"id":11,"left_children":[1,3,5,7,-1,9,-1,11,13,-1,15,17,19,21,23,-1,-1,25,27,29,31,33,-1,35,37,-1,-1,-1,-1,-1,-1,-1,-1,-1,-1,-1,-1,-1,-1],"loss_changes":[2.604922E2,2.4066235E2,2.3450952E2,2.7111865E2,0E0,2.0542493E2,0E0,3.7227466E2,5.332081E2,0E0,1.4970122E1,2.7564185E2,2.2214241E2,1.9273505E2,4.9754114E2,0E0,0E0,2.206477E2,2.710785E1,8.375154E1,2.3392075E2,1.753819E2,0E0,2.8959717E2,2.1842897E2,0E0,0E0,0E0,0E0,0E0,0E0,0E0,0E0,0E0,0E0,0E0,0E0,0E0,0E0],"parents":[2147483647,0,0,1,1,2,2,3,3,5,5,7,7,8,8,10,10,11,11,12,12,13,13,14,14,17,17,18,18,19,19,20,20,21,21,23,23,24,24],"right_children":[2,4,6,8,-1,10,-1,12,14,-1,16,18,20,22,24,-1,-1,26,28,30,32,34,-1,36,38,-1,-1,-1,-1,-1,-1,-1,-1,-1,-1,-1,-1,-1,-1],"split_conditions":[6.45E1,1.2575606E2,2.1774137E0,9.9145E3,3.8245447E0,7.5030655E1,-9.219109E-1,5.5378357E2,5.9488667E1,4.9851365E0,1.9961346E4,9.491E3,6.5E0,1.291222E6,1.221004E2,1.1425908E0,-1.5151864E-1,1.3831504E3,1.6195447E0,5.7705835E2,8.0352936E1,4.1343258E4,-6.815346E-1,6.5686134E1,1.08735E4,7.5558496E-1,-4.9903177E-2,3.0796955E0,9.618935E-1,-6.003294E-1,7.759802E-1,-9.574373E-1,9.9665046E-1,3.8223557E0,-2.4243794E-1,-8.086037E-1,1.5325973E0,-1.0526569E0,4.836163E-2],"split_indices":[2,12,7,4,0,12,0,6,12,0,1,4,4,3,10,0,0,8,7,6,12,1,0,12,4,0,0,0,0,0,0,0,0,0,0,0,0,0,0],"split_type":[0,0,0,0,0,0,0,0,0,0,0,0,0,0,0,0,0,0,0,0,0,0,0,0,0,0,0,0,0,0,0,0,0,0,0,0,0,0,0],"sum_hessian":[7.27E2,7.22E2,5E0,7.21E2,1E0,4E0,1E0,5E2,2.21E2,2E0,2E0,4.4E2,6E1,7E0,2.14E2,1E0,1E0,4.34E2,6E0,2.7E1,3.3E1,6E0,1E0,3.4E1,1.8E2,4.01E2,3.3E1,4E0,2E0,4E0,2.3E1,2.7E1,6E0,5E0,1E0,5E0,2.9E1,1.7E1,1.63E2],"tree_param":{"num_deleted":"0","num_feature":"13","num_nodes":"39","size_leaf_vector":"0"}},{"base_weights":[1.3550138E0,1.2924347E0,7.5355735E0,1.1143116E0,3.2124355E0,1.2375511E1,8.117428E-1,1.2772006E0,-1.2299302E0,-2.2707798E-1,5.2097087E0,-2.6120796E0,2.8237102E0,3.6588156E0,1.1263942E0,9.818855E0,-1.7267787E0,9.521694E0,-1.1030083E0,2.3448732E0,7.4172006E0,2.2141385E0,1.2172986E1,-1.577384E-1,1.4746453E0,1.0913793E0,-3.1748357E0,2.412468E0,-2.904395E0,4.4594636E0,-4.044954E0,9.737659E0,1.3851874E0,9.281846E-1,7.6319084E0,1.9660526E1,5.385969E0,-1.0349121E0,1.8546788E0,-6.4264374E0,1.5591581E0,1.4216027E-1,4.8408685E0,-4.442458E0,-4.4886932E-1,4.0140405E0,-1.5948334E0,-4.010773E0,1.1408386E0,5.1752977E0,-2.423191E0,-4.5122204E0,-1.087944E0,6.0320153E0,1.4290791E1,2.2693138E0,1.5476418E-1],"categories":[],"categories_nodes":[],"categories_segments":[],"categories_sizes":[],"default_left":[1,1,1,1,1,0,1,1,1,1,1,0,0,1,1,0,1,0,1,1,1,1,1,1,1,1,1,1,1,1,1,1,1,0,0,0,0,0,0,0,0,0,0,0,0,0,0,0,0,0,0,0,0,0,0,0,0],"id":12,"left_children":[1,3,5,7,9,-1,11,13,15,17,19,-1,-1,21,23,-1,25,-1,27,29,31,33,35,37,39,41,43,45,47,49,51,53,55,-1,-1,-1,-1,-1,-1,-1,-1,-1,-1,-1,-1,-1,-1,-1,-1,-1,-1,-1,-1,-1,-1,-1,-1],"loss_changes":[2.6835156E2,2.402638E2,2.1775467E2,2.5130157E2,4.1336188E2,0E0,3.493023E1,2.1568646E2,2.5300665E2,2.0690515E2,2.2292358E2,0E0,0E0,4.1585547E2,2.5826733E2,0E0,1.748608E2,0E0,1.4632687E2,2.612519E2,2.8044922E2,2.1586028E2,1.4819934E2,2.2080913E2,3.131751E2,5.269812E1,9.4759796E1,5.7745598E1,7.170902E1,8.151651E1,1.9995117E0,1.6688208E2,7.2637396E0,0E0,0E0,0E0,0E0,0E0,0E0,0E0,0E0,0E0,0E0,0E0,0E0,0E0,0E0,0E0,0E0,0E0,0E0,0E0,0E0,0E0,0E0,0E0,0E0],"parents":[2147483647,0,0,1,1,2,2,3,3,4,4,6,6,7,7,8,8,9,9,10,10,13,13,14,14,16,16,18,18,19,19,20,20,21,21,22,22,23,23,24,24,25,25,26,26,27,27,28,28,29,29,30,30,31,31,32,32],"right_children":[2,4,6,8,10,-1,12,14,16,18,20,-1,-1,22,24,-1,26,-1,28,30,32,34,36,38,40,42,44,46,48,50,52,54,56,-1,-1,-1,-1,-1,-1,-1,-1,-1,-1,-1,-1,-1,-1,-1,-1,-1,-1,-1,-1,-1,-1,-1,-1],"split_conditions":[6.2E1,8.6457825E1,4.168845E2,8.374347E0,2.1092722E2,3.7126534E0,1.3979887E4,2.3341641E2,3.3572227E1,8.684662E1,4.163E3,-7.8362393E-1,8.471131E-1,9.779066E2,8.7E1,2.9456568E0,2.065E2,2.8565083E0,5.675E3,8.056241E2,1.4965E4,2.1993352E2,1.3851106E2,1.2291507E2,2.4506882E2,8.389142E1,3.1652275E-2,2.2797512E-2,9.477869E1,1.4127732E3,2.8459404E3,5.501958E3,4.5E0,2.784554E-1,2.2895727E0,5.898158E0,1.6157908E0,-3.1047365E-1,5.5640364E-1,-1.9279313E0,4.6774745E-1,4.264808E-2,1.4522606E0,-1.3327374E0,-1.346608E-1,1.2042122E0,-4.7845003E-1,-1.203232E0,3.422516E-1,1.5525894E0,-7.269573E-1,-1.3536662E0,-3.2638323E-1,1.8096046E0,4.287237E0,6.807942E-1,4.6429254E-2],"split_indices":[2,12,10,7,10,0,1,6,10,12,4,0,0,8,4,0,4,0,4,1,4,6,10,11,6,12,5,5,12,8,1,1,2,0,0,0,0,0,0,0,0,0,0,0,0,0,0,0,0,0,0,0,0,0,0,0,0],"split_type":[0,0,0,0,0,0,0,0,0,0,0,0,0,0,0,0,0,0,0,0,0,0,0,0,0,0,0,0,0,0,0,0,0,0,0,0,0,0,0,0,0,0,0,0,0,0,0,0,0,0,0,0,0,0,0,0,0],"sum_hessian":[7.18E2,7.12E2,6E0,6.53E2,5.9E1,3E0,3E0,6.11E2,4.2E1,2.2E1,3.7E1,1E0,2E0,3.5E1,5.76E2,1E0,4.1E1,1E0,2.1E1,1.7E1,2E1,3.1E1,4E0,1.23E2,4.53E2,1.4E1,2.7E1,7E0,1.4E1,1.3E1,4E0,1.4E1,6E0,2.6E1,5E0,1E0,3E0,8.6E1,3.7E1,4E0,4.49E2,1.2E1,2E0,1.8E1,9E0,5E0,2E0,1.1E1,3E0,1.2E1,1E0,3E0,1E0,9E0,5E0,3E0,3E0],"tree_param":{"num_deleted":"0","num_feature":"13","num_nodes":"57","size_leaf_vector":"0"}},{"base_weights":[7.6869917E-1,5.7037826E0,6.826307E-1,3.183863E0,1.6711449E1,-6.898187E-1,8.92474E-1,-5.0872344E-1,5.366587E0,-1.3847111E0,3.3302684E0,7.057629E0,8.189371E-1,-1.7294254E0,2.1870422E0,8.5768385E0,2.3671188E0,-6.7507786E-1,-6.2846365E0,7.176284E0,-4.512787E-1,-3.2808685E-1,8.343263E0,-2.8131217E-1,1.1366032E0,2.6969585E0,5.2388E-1,5.6009597E-1,-2.834421E0,-6.912379E0,-3.1747818E-1,1.3939667E0,7.9076753E0,2.468272E0,-1.8358408E0,9.3703E0,1.6040382E0,1.3669301E0,-1.5788546E0,6.9176435E0,8.748153E-1,-2.3708684E0,1.6642854E0,1.8025589E-1,-3.5607846E0,-4.1386895E0,3.5025597E-1,-3.5232058E0,2.4154215E0,1.5413535E0,-2.8785942E0,8.805316E0,2.1540637E0,1.0877098E0,-2.1135795E0],"categories":[],"categories_nodes":[],"categories_segments":[],"categories_sizes":[],"default_left":[1,1,1,1,0,1,1,1,1,1,1,1,1,0,0,0,1,1,1,1,1,0,1,1,1,0,0,1,1,0,0,0,0,0,1,0,0,1,1,1,1,0,0,0,0,0,0,0,0,0,0,0,0,0,0],"id":13,"left_children":[1,3,5,7,-1,9,11,13,15,17,19,21,23,-1,-1,-1,25,27,29,31,33,-1,35,37,39,-1,-1,41,43,-1,-1,-1,-1,-1,45,-1,-1,47,49,51,53,-1,-1,-1,-1,-1,-1,-1,-1,-1,-1,-1,-1,-1,-1],"loss_changes":[2.968329E2,2.7965427E2,2.013511E2,9.138897E1,0E0,2.644096E2,2.6850665E2,2.0235958E1,4.710092E1,2.739294E2,2.0685294E2,6.920462E1,2.096773E2,0E0,0E0,0E0,1.6269855E0,1.9095618E2,3.5263855E1,1.8580933E1,3.686975E1,0E0,2.649826E1,2.9087787E2,6.976823E2,0E0,0E0,1.5281744E2,5.757541E1,0E0,0E0,0E0,0E0,0E0,3.1655106E1,0E0,0E0,3.1614594E2,3.1265167E2,1.6087445E2,2.8605E2,0E0,0E0,0E0,0E0,0E0,0E0,0E0,0E0,0E0,0E0,0E0,0E0,0E0,0E0],"parents":[2147483647,0,0,1,1,2,2,3,3,5,5,6,6,7,7,8,8,9,9,10,10,11,11,12,12,16,16,17,17,18,18,19,19,20,20,22,22,23,23,24,24,27,27,28,28,34,34,37,37,38,38,39,39,40,40],"right_children":[2,4,6,8,-1,10,12,14,16,18,20,22,24,-1,-1,-1,26,28,30,32,34,-1,36,38,40,-1,-1,42,44,-1,-1,-1,-1,-1,46,-1,-1,48,50,52,54,-1,-1,-1,-1,-1,-1,-1,-1,-1,-1,-1,-1,-1,-1],"split_conditions":[1.1496072E2,1.0263777E2,6.471274E1,6.4633606E1,5.013435E0,1.1673545E4,6.50011E1,4E0,1.2175929E2,1.2000002E2,3E0,4.152807E2,5.248602E2,-5.188277E-1,6.561127E-1,2.5730517E0,1.2532562E2,3.508145E3,4.391414E3,1.2510865E4,1.5572725E4,-9.842606E-2,1.1E1,2.1617978E2,5.632982E2,8.090876E-1,1.57164E-1,1.3855234E2,5.974695E2,-2.0737138E0,-9.524346E-2,4.1819003E-1,2.3723028E0,7.404816E-1,4.4016773E4,2.8110902E0,4.8121148E-1,3.1037402E2,1.73983E2,9E0,1.4074512E2,-7.1126056E-1,4.9928564E-1,5.407677E-2,-1.0682354E0,-1.241607E0,1.050768E-1,-1.0569618E0,7.246265E-1,4.6240607E-1,-8.6357826E-1,2.641595E0,6.4621913E-1,3.2631296E-1,-6.3407385E-1],"split_indices":[6,6,12,12,0,1,12,2,11,11,2,6,8,0,0,0,11,1,1,1,1,0,2,8,8,0,0,10,8,0,0,0,0,0,1,0,0,6,10,2,11,0,0,0,0,0,0,0,0,0,0,0,0,0,0],"split_type":[0,0,0,0,0,0,0,0,0,0,0,0,0,0,0,0,0,0,0,0,0,0,0,0,0,0,0,0,0,0,0,0,0,0,0,0,0,0,0,0,0,0,0,0,0,0,0,0,0,0,0,0,0,0,0],"sum_hessian":[7.07E2,1.1E1,6.96E2,1E1,1E0,9.2E1,6.04E2,4E0,6E0,7.9E1,1.3E1,6E0,5.98E2,3E0,1E0,2E0,4E0,7E1,9E0,6E0,7E0,1E0,5E0,1.34E2,4.64E2,3E0,1E0,4.5E1,2.5E1,8E0,1E0,1E0,5E0,2E0,5E0,4E0,1E0,5.9E1,7.5E1,1.9E1,4.45E2,1.2E1,3.3E1,5E0,2E1,2E0,3E0,1E1,4.9E1,2.2E1,5.3E1,1.3E1,6E0,4.16E2,2.9E1],"tree_param":{"num_deleted":"0","num_feature":"13","num_nodes":"55","size_leaf_vector":"0"}},{"base_weights":[5.6010294E-1,3.8418841E0,4.8948333E-1,-4.5072132E-1,8.812108E0,4.140543E-1,3.7117674E0,1.4654547E0,-3.212305E0,1.39637575E1,3.958696E0,2.9934094E0,3.125847E-1,5.399142E0,7.709803E-1,-1.0053082E0,2.1606688E0,5.2833652E0,-6.6999054E-1,5.0000286E0,-7.171844E-1,2.643624E-1,4.2397966E0,3.4869668E0,7.3956623E0,1.8801613E0,-5.309458E-1,4.4529724E-1,2.4781876E0,6.643781E0,6.0105896E-1,7.249433E0,-3.3211836E-1,-1.8393826E0,4.6912994E0,4.8040247E-1,-6.8873507E-1,1.0646011E1,3.3005652E-1,3.7351646E0,9.988899E-1,2.687205E0,-2.7048492E-1,-1.1173859E0,8.111633E0,-1.3638465E0,2.4132614E0,-8.0491066E-2,-2.705413E0,2.115115E-1,1.9279752E0,-1.9768511E0,5.489744E-1,3.010767E0,-3.354243E0],"categories":[],"categories_nodes":[],"categories_segments":[],"categories_sizes":[],"default_left":[1,1,1,1,1,1,1,1,0,0,1,1,1,1,1,0,1,1,0,1,1,1,1,1,0,1,0,0,0,0,0,1,1,1,0,1,1,0,1,0,0,0,0,0,0,0,0,0,0,0,0,0,0,0,0],"id":14,"left_children":[1,3,5,7,9,11,13,15,-1,-1,17,19,21,23,25,-1,27,29,-1,31,33,35,37,39,-1,41,-1,-1,-1,-1,-1,43,45,47,-1,49,51,-1,53,-1,-1,-1,-1,-1,-1,-1,-1,-1,-1,-1,-1,-1,-1,-1,-1],"loss_changes":[1.6475351E2,3.2399994E2,1.6981602E2,5.2332615E1,1.19743286E2,1.7965533E2,7.52327E1,1.2478394E1,0E0,0E0,3.4197197E1,1.9717542E2,1.2481636E2,1.238855E1,1.1106766E1,0E0,1.6197834E0,2.1486237E1,0E0,2.0630829E2,6.9323006E1,1.3581784E2,1.9685928E2,5.917282E-1,0E0,7.669512E0,0E0,0E0,0E0,0E0,0E0,9.563037E1,2.0286232E1,1.3491524E1,0E0,2.0861368E2,1.9559148E2,0E0,6.9358086E1,0E0,0E0,0E0,0E0,0E0,0E0,0E0,0E0,0E0,0E0,0E0,0E0,0E0,0E0,0E0,0E0],"parents":[2147483647,0,0,1,1,2,2,3,3,4,4,5,5,6,6,7,7,10,10,11,11,12,12,13,13,14,14,16,16,17,17,19,19,20,20,21,21,22,22,23,23,25,25,31,31,32,32,33,33,35,35,36,36,38,38],"right_children":[2,4,6,8,10,12,14,16,-1,-1,18,20,22,24,26,-1,28,30,-1,32,34,36,38,40,-1,42,-1,-1,-1,-1,-1,44,46,48,-1,50,52,-1,54,-1,-1,-1,-1,-1,-1,-1,-1,-1,-1,-1,-1,-1,-1,-1,-1],"split_conditions":[1.3834079E2,1.49446E5,1.55914955E1,4.688531E4,2.48634E5,6.0018665E1,3.0326372E3,3.96925E2,-9.6369153E-1,4.1891274E0,3.0906648E3,2.1805112E0,6.2E1,2.5475598E2,7.92695E4,-3.0159247E-1,1.2310847E3,7.4552444E1,-2.0099717E-1,1.35E1,1.20007225E2,9.5E0,8.15E1,5.436663E2,2.2186987E0,1.0489342E4,-1.5928374E-1,1.3358918E-1,7.434563E-1,1.9931344E0,1.803177E-1,3.1824146E1,6.192466E3,4.8647734E4,1.4073899E0,6.3981116E2,7.29291E1,3.1938035E0,1.1657216E2,1.1205494E0,2.99667E-1,8.061616E-1,-8.114548E-2,-3.3521578E-1,2.43349E0,-4.0915397E-1,7.2397846E-1,-2.414732E-2,-8.11624E-1,6.345345E-2,5.7839257E-1,-5.9305537E-1,1.6469233E-1,9.0323013E-1,-1.0062729E0],"split_indices":[6,3,7,3,3,12,1,1,0,0,1,7,2,10,3,0,1,12,0,2,11,2,2,1,0,1,0,0,0,0,0,12,0,3,0,10,12,0,11,0,0,0,0,0,0,0,0,0,0,0,0,0,0,0,0],"split_type":[0,0,0,0,0,0,0,0,0,0,0,0,0,0,0,0,0,0,0,0,0,0,0,0,0,0,0,0,0,0,0,0,0,0,0,0,0,0,0,0,0,0,0,0,0,0,0,0,0,0,0,0,0,0,0],"sum_hessian":[7.18E2,1.4E1,7.04E2,8E0,6E0,6.89E2,1.5E1,5E0,3E0,2E0,4E0,2.5E1,6.64E2,9E0,6E0,1E0,4E0,3E0,1E0,1.6E1,9E0,6.57E2,7E0,6E0,3E0,3E0,3E0,1E0,3E0,2E0,1E0,1.1E1,5E0,8E0,1E0,5.36E2,1.21E2,2E0,5E0,5E0,1E0,2E0,1E0,1E0,1E1,4E0,1E0,3E0,5E0,4.53E2,8.3E1,5.9E1,6.2E1,3E0,2E0],"tree_param":{"num_deleted":"0","num_feature":"13","num_nodes":"55","size_leaf_vector":"0"}},{"base_weights":[4.8209062E-1,5.9745306E-1,-1.432868E0,3.967921E-2,1.0594618E0,7.6864344E-1,-6.403058E0,2.518513E-1,-1.316536E1,2.6179202E0,7.164021E-1,-1.6012903E0,3.990964E0,-1.0159503E1,-3.2728896E-1,-1.4690019E-1,2.8813586E0,-2.1043661E1,-5.93487E0,3.9430919E0,-7.596466E-1,1.2888743E-1,1.9980271E0,-2.8448312E0,3.4623108E0,9.473257E-1,7.3839874E0,-4.9475274E0,-1.7196953E1,1.4398918E0,-2.5744336E0,2.7409425E-1,-4.124505E0,3.316059E0,-3.7302017E0,2.7859044E0,1.1771951E1,-2.8180168E0,1.5805252E0,-4.56776E0,4.04529E-1,2.74795E0,-1.7367796E0,-4.8093796E-1,-3.9786842E0,5.0427094E0,-6.3944244E-1,2.4906342E0,-1.2186413E0,8.305964E0,1.3870506E0,7.8240967E-1,-6.249997E0,2.2034035E0,4.509201E-1,-6.511743E-1,1.5227994E0,-1.8087323E0,-9.108903E0,4.5026627E0,2.7097955E-1,3.556501E0,-1.1263418E0,1.3174039E1,2.3807564E0,-3.082222E0,-1.0860621E0,2.24081E0,2.9895782E-2,-1.5063345E0,-7.3781295E0,5.217881E0,4.9599882E-2,3.2324302E0,-1.5408808E0,-6.9395533E0,1.7319655E0,1.5305506E0,-1.8693199E0,-5.064214E0,-1.0843353E0,5.39402E-1,2.8435917E0,-3.07209E-1,-1.4200491E0],"categories":[],"categories_nodes":[],"categories_segments":[],"categories_sizes":[],"default_left":[1,1,1,1,1,1,1,1,1,1,1,1,1,1,1,1,1,0,0,1,1,1,1,1,1,1,1,1,0,1,0,1,1,1,0,1,1,1,1,1,1,1,1,1,1,0,0,1,1,0,0,0,0,0,0,0,0,0,0,0,0,0,0,0,0,0,0,0,0,0,0,0,0,0,0,0,0,0,0,0,0,0,0,0,0],"id":15,"left_children":[1,3,5,7,9,11,13,15,17,19,21,23,25,27,29,31,33,-1,-1,35,37,39,41,43,45,47,49,51,-1,53,-1,55,57,59,-1,61,63,65,67,69,71,73,75,77,79,-1,-1,81,83,-1,-1,-1,-1,-1,-1,-1,-1,-1,-1,-1,-1,-1,-1,-1,-1,-1,-1,-1,-1,-1,-1,-1,-1,-1,-1,-1,-1,-1,-1,-1,-1,-1,-1,-1,-1],"loss_changes":[1.6300716E2,1.7854153E2,4.6448273E2,8.858641E2,2.007547E2,2.3549127E2,2.933777E2,3.2651297E2,1.599284E2,3.0735358E2,2.3467018E2,1.23192E2,1.2725774E2,2.0834973E2,2.7533571E1,4.5493347E2,1.3020563E2,0E0,0E0,4.111178E2,1.0079274E2,2.801849E2,2.7925275E2,3.8291107E1,2.915414E1,2.977723E1,2.1653442E1,4.9668457E1,0E0,2.0268068E0,0E0,2.8521695E2,2.8363553E2,1.3969864E2,0E0,1.3665543E2,4.7639526E1,1.6860199E0,1.0171576E1,9.2130905E1,3.4825458E2,1.7536475E2,3.188197E2,1.9617376E1,2.5927734E1,0E0,0E0,1.9096718E0,2.9802608E-1,0E0,0E0,0E0,0E0,0E0,0E0,0E0,0E0,0E0,0E0,0E0,0E0,0E0,0E0,0E0,0E0,0E0,0E0,0E0,0E0,0E0,0E0,0E0,0E0,0E0,0E0,0E0,0E0,0E0,0E0,0E0,0E0,0E0,0E0,0E0,0E0],"parents":[2147483647,0,0,1,1,2,2,3,3,4,4,5,5,6,6,7,7,8,8,9,9,10,10,11,11,12,12,13,13,14,14,15,15,16,16,19,19,20,20,21,21,22,22,23,23,24,24,25,25,26,26,27,27,29,29,31,31,32,32,33,33,35,35,36,36,37,37,38,38,39,39,40,40,41,41,42,42,43,43,44,44,47,47,48,48],"right_children":[2,4,6,8,10,12,14,16,18,20,22,24,26,28,30,32,34,-1,-1,36,38,40,42,44,46,48,50,52,-1,54,-1,56,58,60,-1,62,64,66,68,70,72,74,76,78,80,-1,-1,82,84,-1,-1,-1,-1,-1,-1,-1,-1,-1,-1,-1,-1,-1,-1,-1,-1,-1,-1,-1,-1,-1,-1,-1,-1,-1,-1,-1,-1,-1,-1,-1,-1,-1,-1,-1,-1],"split_conditions":[1.4041089E2,2.71647E3,1.72E5,2.5995664E3,4.077435E3,1.5227518E2,1.02020667E3,8.35128E1,2.6698755E3,4.9806683E2,3.5927355E-2,1.3454978E3,4.340655E2,5E-1,1.3501884E4,8.120584E1,1.0538E4,-6.3130984E0,-1.780461E0,1.3397646E3,1.4127314E0,4.3315356E3,5.1266396E-1,4.6809286E2,1E0,1.669296E2,2.1085E4,4.469442E2,-5.159086E0,1.1038915E-1,-7.723301E-1,1.7365E3,1.0849523E3,1.06345E2,-1.1190605E0,1.3174132E3,4.038655E3,1.3771658E0,7.92695E4,2.4296701E2,4.8592393E3,3.26145E4,6.613965E-1,1.5E0,1.780303E-2,1.5128129E0,-1.9183274E-1,5.2129E2,2.9855E3,2.4917893E0,4.161152E-1,2.3472291E-1,-1.8749992E0,6.6102105E-1,1.3527603E-1,-1.953523E-1,4.5683983E-1,-5.426197E-1,-2.732671E0,1.3507988E0,8.1293866E-2,1.0669503E0,-3.3790255E-1,3.9522119E0,7.1422696E-1,-9.2466664E-1,-3.2581863E-1,6.72243E-1,8.968735E-3,-4.519004E-1,-2.213439E0,1.5653645E0,1.4879965E-2,9.697291E-1,-4.6226427E-1,-2.081866E0,5.1958966E-1,4.591652E-1,-5.60796E-1,-1.5192643E0,-3.253006E-1,1.618206E-1,8.5307753E-1,-9.2162706E-2,-4.2601475E-1],"split_indices":[11,1,3,1,1,11,8,12,1,6,5,8,6,2,1,12,4,0,0,8,7,1,5,8,2,11,4,8,0,5,0,4,8,1,0,8,1,7,3,10,1,4,5,2,5,0,0,1,4,0,0,0,0,0,0,0,0,0,0,0,0,0,0,0,0,0,0,0,0,0,0,0,0,0,0,0,0,0,0,0,0,0,0,0,0],"split_type":[0,0,0,0,0,0,0,0,0,0,0,0,0,0,0,0,0,0,0,0,0,0,0,0,0,0,0,0,0,0,0,0,0,0,0,0,0,0,0,0,0,0,0,0,0,0,0,0,0,0,0,0,0,0,0,0,0,0,0,0,0,0,0,0,0,0,0,0,0,0,0,0,0,0,0,0,0,0,0,0,0,0,0,0,0],"sum_hessian":[7.33E2,6.92E2,4.1E1,3.14E2,3.78E2,2.9E1,1.2E1,3.1E2,4E0,6.7E1,3.11E2,1.7E1,1.2E1,7E0,5E0,2.7E2,4E1,1E0,3E0,4.8E1,1.9E1,2.14E2,9.7E1,1.4E1,3E0,7E0,5E0,5E0,2E0,3E0,2E0,2.45E2,2.5E1,3.8E1,2E0,4.3E1,5E0,1E1,9E0,1.1E1,2.03E2,8.1E1,1.6E1,5E0,9E0,2E0,1E0,4E0,3E0,4E0,1E0,1E0,4E0,1E0,2E0,1.41E2,1.04E2,1.8E1,7E0,2.7E1,1.1E1,3.6E1,7E0,4E0,1E0,8E0,2E0,6E0,3E0,6E0,5E0,1.3E1,1.9E2,7.3E1,8E0,6E0,1E1,2E0,3E0,6E0,3E0,1E0,3E0,1E0,2E0],"tree_param":{"num_deleted":"0","num_feature":"13","num_nodes":"85","size_leaf_vector":"0"}},{"base_weights":[9.127448E-2,-2.6139754E-3,5.1831183E0,2.6942812E-2,-1.0420074E1,3.1169403E0,9.052784E0,-2.3416835E-1,8.829077E-1,4.0977607E0,6.212692E-1,4.0099476E-2,-2.050309E0,3.439332E0,2.1774602E-1,1.091657E0,-3.9494705E-1,-1.8027666E-1,2.4858115E0,-4.880604E0,-9.22305E-1,4.054245E0,-4.2661843E0,-6.880879E0,5.513996E-1,-1.7674571E0,1.8443124E-1,4.1962066E0,-8.681946E-1,2.3570366E0,-5.3855867E0,-1.5071446E0,3.8126564E0,5.5578475E0,1.9796392E0,-5.4026413E0,-9.9663544E-1,-8.648614E0,-2.230273E0,-8.685737E-1,2.3104646E0],"categories":[],"categories_nodes":[],"categories_segments":[],"categories_sizes":[],"default_left":[1,1,1,1,0,1,0,1,1,0,1,1,1,1,1,0,0,1,1,1,1,1,1,1,1,0,0,0,0,0,0,0,0,0,0,0,0,0,0,0,0],"id":16,"left_children":[1,3,5,7,-1,9,-1,11,13,-1,15,17,19,21,23,-1,-1,25,27,29,31,33,35,37,39,-1,-1,-1,-1,-1,-1,-1,-1,-1,-1,-1,-1,-1,-1,-1,-1],"loss_changes":[3.4326447E2,2.1766284E2,7.572342E1,1.5777565E2,0E0,2.1932243E1,0E0,2.6955914E2,2.7982294E2,0E0,2.3432097E0,2.5430609E2,2.2217203E2,1.7839572E2,3.1643372E2,0E0,0E0,2.5097116E2,2.2737347E2,8.579178E1,1.4974426E2,8.881769E1,5.7626457E0,3.0037476E1,3.1923062E2,0E0,0E0,0E0,0E0,0E0,0E0,0E0,0E0,0E0,0E0,0E0,0E0,0E0,0E0,0E0,0E0],"parents":[2147483647,0,0,1,1,2,2,3,3,5,5,7,7,8,8,10,10,11,11,12,12,13,13,14,14,17,17,18,18,19,19,20,20,21,21,22,22,23,23,24,24],"right_children":[2,4,6,8,-1,10,-1,12,14,-1,16,18,20,22,24,-1,-1,26,28,30,32,34,36,38,40,-1,-1,-1,-1,-1,-1,-1,-1,-1,-1,-1,-1,-1,-1,-1,-1],"split_conditions":[1.5581924E2,1.550947E2,1.5472543E0,1.587875E5,-3.1260226E0,1.30965E4,2.7158353E0,1.184391E4,3.4462134E2,1.2293283E0,3.3315E4,8.624755E3,1.63355E4,2.8640336E-1,3.9640308E2,3.2749712E-1,-1.1848412E-1,5.390393E2,9E0,1.1881982E2,1.3482697E3,2.2372954E0,1.858075E4,8E0,1.3402548E0,-5.3023714E-1,5.5329375E-2,1.258862E0,-2.6045838E-1,7.07111E-1,-1.615676E0,-4.521434E-1,1.1437969E0,1.6673543E0,5.938918E-1,-1.6207925E0,-2.9899064E-1,-2.5945842E0,-6.690819E-1,-2.6057214E-1,6.9313943E-1],"split_indices":[11,11,7,3,0,4,0,1,8,0,4,1,4,5,8,0,0,8,2,8,8,7,1,2,7,0,0,0,0,0,0,0,0,0,0,0,0,0,0,0,0],"split_type":[0,0,0,0,0,0,0,0,0,0,0,0,0,0,0,0,0,0,0,0,0,0,0,0,0,0,0,0,0,0,0,0,0,0,0,0,0,0,0,0,0],"sum_hessian":[7.17E2,7.05E2,1.2E1,7.04E2,1E0,9E0,3E0,5.4E2,1.64E2,6E0,3E0,4.7E2,7E1,3.3E1,1.31E2,2E0,1E0,4.32E2,3.8E1,1.9E1,5.1E1,3.1E1,2E0,5E0,1.26E2,8E1,3.52E2,2.5E1,1.3E1,1E0,1.8E1,4.6E1,5E0,1.7E1,1.4E1,1E0,1E0,3E0,2E0,7E1,5.6E1],"tree_param":{"num_deleted":"0","num_feature":"13","num_nodes":"41","size_leaf_vector":"0"}},{"base_weights":[3.3891442E-1,5.7986436E0,3.005289E-1,-1.5563087E0,8.026459E0,7.478457E-1,-2.363492E-1,3.550369E0,5.0645155E-1,-5.9079E0,-2.0907687E-2,-2.268233E0,4.756571E0,-1.838984E0,8.1080514E-1,-2.2778873E0,-6.864805E0,8.8291705E-1,-9.476266E-1,-3.2143493E0,1.2311745E0,2.409131E0,8.922942E0,-1.1162966E-1,-3.5610225E0,6.783494E-1,5.9249E0,-3.1860113E-2,2.2001245E0,6.958445E0,-1.0945337E0,-3.6090298E0,-8.178139E-1,6.476384E0,7.8446007E-1,6.76871E-1,1.1182266E1,-1.6351177E0,4.2235246E0,-6.8464506E-1,-4.197544E0,4.874849E-1,3.4692256E0,-1.2317276E0,8.515731E0,-1.8915709E0,8.4212315E-1,5.1887703E0,5.8787495E-1,8.5823555E0,1.8553123E0,-6.2715516E0,-9.1586065E-1],"categories":[],"categories_nodes":[],"categories_segments":[],"categories_sizes":[],"default_left":[1,1,1,0,0,1,1,1,1,1,1,1,1,1,1,0,0,1,1,1,0,1,1,1,1,1,1,1,1,1,1,0,0,0,0,0,0,0,0,0,0,0,0,0,0,0,0,0,0,0,0,0,0],"id":17,"left_children":[1,3,5,-1,-1,7,9,11,13,15,17,19,21,23,25,-1,-1,27,29,31,-1,33,35,37,39,41,43,45,47,49,51,-1,-1,-1,-1,-1,-1,-1,-1,-1,-1,-1,-1,-1,-1,-1,-1,-1,-1,-1,-1,-1,-1],"loss_changes":[1.4998923E2,9.441904E1,1.7308807E2,0E0,0E0,2.6407138E2,4.0065555E2,2.2835962E2,2.6061557E2,2.6045746E1,2.6635318E2,2.3822506E1,2.3279144E2,1.24534454E2,2.1410083E2,0E0,0E0,1.9406721E2,1.8996506E2,1.777813E0,0E0,1.13862595E2,1.6010596E2,1.522062E2,3.5574585E1,1.661027E2,1.5882193E2,1.5762714E2,3.149669E2,8.938141E0,1.3763008E2,0E0,0E0,0E0,0E0,0E0,0E0,0E0,0E0,0E0,0E0,0E0,0E0,0E0,0E0,0E0,0E0,0E0,0E0,0E0,0E0,0E0,0E0],"parents":[2147483647,0,0,1,1,2,2,5,5,6,6,7,7,8,8,9,9,10,10,11,11,12,12,13,13,14,14,17,17,18,18,19,19,21,21,22,22,23,23,24,24,25,25,26,26,27,27,28,28,29,29,30,30],"right_children":[2,4,6,-1,-1,8,10,12,14,16,18,20,22,24,26,-1,-1,28,30,32,-1,34,36,38,40,42,44,46,48,50,52,-1,-1,-1,-1,-1,-1,-1,-1,-1,-1,-1,-1,-1,-1,-1,-1,-1,-1,-1,-1,-1,-1],"split_conditions":[5.1380493E1,3.7800592E2,4.3697437E2,-4.6689263E-1,2.4079378E0,6.220065E1,4.4124307E2,2.3649689E2,6.6042114E1,5.333963E3,1.2000227E2,4.5E0,6.0513813E1,9.7805E3,1.3931606E3,-6.8336624E-1,-2.0594416E0,7.233178E1,4.4355542E2,3.3095E3,3.6935234E-1,9.980327E1,1.8115192E2,2.5E0,1.06066925E2,4.2727472E2,1.1776739E2,4.6932782E2,4.7358667E2,1.1680313E4,4.4446393E2,-1.082709E0,-2.4534418E-1,1.9429153E0,2.3533803E-1,2.0306131E-1,3.35468E0,-4.9053532E-1,1.2670574E0,-2.0539352E-1,-1.2592633E0,1.4624548E-1,1.0407678E0,-3.6951828E-1,2.5547194E0,-5.674713E-1,2.5263697E-1,1.5566312E0,1.7636248E-1,2.5747068E0,5.565937E-1,-1.8814656E0,-2.7475822E-1],"split_indices":[12,6,6,0,0,12,6,6,12,1,11,2,12,4,8,0,0,12,6,4,0,11,10,2,11,6,11,6,6,1,6,0,0,0,0,0,0,0,0,0,0,0,0,0,0,0,0,0,0,0,0,0,0],"split_type":[0,0,0,0,0,0,0,0,0,0,0,0,0,0,0,0,0,0,0,0,0,0,0,0,0,0,0,0,0,0,0,0,0,0,0,0,0,0,0,0,0,0,0,0,0,0,0,0,0,0,0,0,0],"sum_hessian":[7.23E2,4E0,7.19E2,1E0,3E0,3.92E2,3.27E2,3E1,3.62E2,1.1E1,3.16E2,5E0,2.5E1,4.1E1,3.21E2,3E0,8E0,1.6E2,1.56E2,4E0,1E0,1.7E1,8E0,2.1E1,2E1,3.14E2,7E0,9.5E1,6.5E1,2E0,1.54E2,3E0,1E0,4E0,1.3E1,2E0,6E0,1.6E1,5E0,4E0,1.6E1,2.95E2,1.9E1,2E0,5E0,3E1,6.5E1,2.2E1,4.3E1,1E0,1E0,4E0,1.5E2],"tree_param":{"num_deleted":"0","num_feature":"13","num_nodes":"53","size_leaf_vector":"0"}},{"base_weights":[1.0429081E-1,-9.368964E-2,1.1867182E0,3.2000463E-2,-1.9236536E0,1.586631E0,-2.484024E0,-5.104992E-2,6.5290875E0,6.461329E-1,-3.4496179E0,-1.8849674E-1,2.6664379E0,-4.63526E0,8.121618E-2,-7.830848E-1,2.8589976E-1,1.7156982E-1,9.037781E0,-1.2885041E0,2.5000033E0,1.2812607E0,-4.4598565E0,6.3944805E-1,-3.946459E0,2.735594E-1,4.009252E0,-5.3095307E0,-6.319542E-1,6.92836E-1,-1.4884415E0,-2.9915398E-1,-2.0740662E0,-1.8186482E0,5.4185385E-1,3.215065E-1,-6.4151764E-2,-2.8876558E-1,-2.8584797E0,4.783731E0,-9.796572E-1,-9.1639966E-1,3.051834E0,-3.3339298E0,-9.728799E0,-5.5432653E-1,5.904859E0,-5.090277E0,-7.246094E-1,2.5392463E0,-1.6646034E0,5.506512E0,-3.025471E-1,7.897072E-1,1.5267563E-1,-1.121589E0,7.6360446E-1,-3.2282505E0,1.5613257E0,-9.793587E-1,-1.7695116E1,3.5867436E0,3.1709486E-1,9.121895E-2,-3.8300627E-1,1.626461E0,-2.390517E0,3.136673E-1,-1.6882668E0,2.2564964E0,-3.7955134E0,9.4358675E-2,-5.775261E0,6.534375E0,1.3786392E0,-1.8850708E-1,-8.98407E-1,3.5450854E0,-1.3246866E0,-4.359703E0,1.268297E0,6.3614645E0,-1.4273033E0,-3.332513E0,2.7778435E0],"categories":[],"categories_nodes":[],"categories_segments":[],"categories_sizes":[],"default_left":[1,1,1,1,1,1,1,1,1,1,1,1,1,1,1,1,1,1,0,1,1,1,1,1,1,1,1,0,0,1,0,1,1,1,1,0,0,1,0,0,1,1,0,1,0,1,1,0,1,1,1,1,1,0,0,0,0,0,0,0,0,0,0,0,0,0,0,0,0,0,0,0,0,0,0,0,0,0,0,0,0,0,0,0,0],"id":18,"left_children":[1,3,5,7,9,11,13,15,17,19,21,23,25,27,29,31,33,35,-1,37,39,41,43,45,47,49,51,-1,-1,53,-1,55,57,59,61,-1,-1,63,-1,-1,65,67,-1,69,-1,71,73,-1,75,77,79,81,83,-1,-1,-1,-1,-1,-1,-1,-1,-1,-1,-1,-1,-1,-1,-1,-1,-1,-1,-1,-1,-1,-1,-1,-1,-1,-1,-1,-1,-1,-1,-1,-1],"loss_changes":[1.4969221E2,1.3599648E2,1.624827E2,2.992637E2,1.5124222E2,1.8834853E2,6.1079285E1,1.3539297E2,1.10092834E2,5.701976E1,1.2041785E2,1.20756195E2,1.9490796E2,1.2840485E1,6.7914476E0,1.0746054E2,2.0352449E2,1.2665513E-1,0E0,1.173109E1,6.8259186E1,2.2252293E1,8.6213776E1,2.0441606E2,2.2108002E1,1.05226036E2,2.534455E2,0E0,0E0,1.4106083E-1,0E0,1.1186076E2,2.0224826E2,5.289932E2,2.2880972E2,0E0,0E0,2.4979746E-1,0E0,0E0,1.859555E1,3.3778987E0,0E0,5.501265E1,0E0,9.1987E1,8.087418E0,0E0,1.1016381E-1,4.744757E1,1.0828735E2,1.8099408E2,1.11925476E2,0E0,0E0,0E0,0E0,0E0,0E0,0E0,0E0,0E0,0E0,0E0,0E0,0E0,0E0,0E0,0E0,0E0,0E0,0E0,0E0,0E0,0E0,0E0,0E0,0E0,0E0,0E0,0E0,0E0,0E0,0E0,0E0],"parents":[2147483647,0,0,1,1,2,2,3,3,4,4,5,5,6,6,7,7,8,8,9,9,10,10,11,11,12,12,13,13,14,14,15,15,16,16,17,17,19,19,20,20,21,21,22,22,23,23,24,24,25,25,26,26,29,29,31,31,32,32,33,33,34,34,37,37,40,40,41,41,43,43,45,45,46,46,48,48,49,49,50,50,51,51,52,52],"right_children":[2,4,6,8,10,12,14,16,18,20,22,24,26,28,30,32,34,36,-1,38,40,42,44,46,48,50,52,-1,-1,54,-1,56,58,60,62,-1,-1,64,-1,-1,66,68,-1,70,-1,72,74,-1,76,78,80,82,84,-1,-1,-1,-1,-1,-1,-1,-1,-1,-1,-1,-1,-1,-1,-1,-1,-1,-1,-1,-1,-1,-1,-1,-1,-1,-1,-1,-1,-1,-1,-1,-1],"split_conditions":[1.0430087E-1,6.4127326E-2,2.8474E4,5.4983106E-2,7.1229225E1,3.2725E3,6E0,6.940703E1,6.5442085E1,9.149398E2,2.939451E2,2.8445E3,6.30016E2,1.105401E0,3.85E1,6.674754E1,3.21086E2,7.778951E3,2.7113342E0,3.2794116E2,1.5281763E0,8.238906E3,5.2174445E2,1.5485E3,2.8492886E3,2.4474443E-1,5.596691E2,-1.5928593E0,-1.8958627E-1,4.5871184E4,-4.4653246E-1,2.8594E3,5.068329E2,3.1400012E2,4.47357E2,9.645195E-2,-1.924553E-2,9.378139E1,-8.5754395E-1,1.4351194E0,2.7399258E3,6.316043E2,9.155503E-1,3.035E2,-2.9186397E0,1.3583333E0,5E0,-1.5270833E0,3.3021348E3,2.1414323E0,7.865904E1,1.35E1,9.6418E4,2.3691216E-1,4.580269E-2,-3.3647668E-1,2.2908135E-1,-9.6847516E-1,4.683977E-1,-2.9380763E-1,-5.308535E0,1.0760231E0,9.512846E-2,2.7365686E-2,-1.14901885E-1,4.879383E-1,-7.171551E-1,9.410019E-2,-5.0648004E-1,6.7694896E-1,-1.1386541E0,2.8307604E-2,-1.7325784E0,1.9603126E0,4.1359177E-1,-5.6552127E-2,-2.695221E-1,1.0635257E0,-3.97406E-1,-1.3079109E0,3.804891E-1,1.9084394E0,-4.28191E-1,-9.9975395E-1,8.333531E-1],"split_indices":[5,5,4,5,12,4,2,12,12,1,8,4,8,5,2,12,8,1,0,1,7,1,6,4,1,5,6,0,0,1,0,1,6,8,8,0,0,11,0,0,1,1,0,4,0,5,2,0,1,7,12,2,3,0,0,0,0,0,0,0,0,0,0,0,0,0,0,0,0,0,0,0,0,0,0,0,0,0,0,0,0,0,0,0,0],"split_type":[0,0,0,0,0,0,0,0,0,0,0,0,0,0,0,0,0,0,0,0,0,0,0,0,0,0,0,0,0,0,0,0,0,0,0,0,0,0,0,0,0,0,0,0,0,0,0,0,0,0,0,0,0,0,0,0,0,0,0,0,0,0,0,0,0,0,0,0,0,0,0,0,0,0,0,0,0,0,0,0,0,0,0,0,0],"sum_hessian":[6.97E2,5.9E2,1.07E2,5.53E2,3.7E1,9.7E1,1E1,5.47E2,6E0,1.4E1,2.3E1,3.7E1,6E1,5E0,5E0,1.72E2,3.75E2,2E0,4E0,7E0,7E0,4E0,1.9E1,3.1E1,6E0,2.2E1,3.8E1,4E0,1E0,4E0,1E0,1.26E2,4.6E1,4E1,3.35E2,1E0,1E0,5E0,2E0,4E0,3E0,2E0,2E0,1.7E1,2E0,2.6E1,5E0,4E0,2E0,1E1,1.2E1,2.8E1,1E1,3E0,1E0,7.1E1,5.5E1,3.5E1,1.1E1,3.9E1,1E0,2.2E1,3.13E2,1E0,4E0,1E0,2E0,1E0,1E0,1E0,1.6E1,2.4E1,2E0,4E0,1E0,1E0,1E0,8E0,2E0,6E0,6E0,2.5E1,3E0,5E0,5E0],"tree_param":{"num_deleted":"0","num_feature":"13","num_nodes":"85","size_leaf_vector":"0"}},{"base_weights":[1.9552377E-1,4.1142374E-1,-6.48579E-1,6.3195336E-1,-6.225639E-1,-1.6123387E0,8.248595E-1,4.879793E-1,7.1627703E0,5.0423155E0,-1.1031711E0,-3.6347203E0,4.926502E-1,-6.552855E-3,4.3778534E0,1.2681235E0,1.8808082E-1,1.2853275E1,-1.0983894E0,-3.64748E-1,8.359503E0,-3.1226084E0,6.959972E-1,-6.1529183E0,-2.4194236E0,3.0408888E0,-2.7172804E0,2.0361717E0,-1.8133264E0,5.6960487E0,6.4699936E-1,8.267916E-1,1.4632383E1,1.1456215E-1,8.2124405E0,1.47099285E1,1.7850037E0,-2.0291493E0,1.9850032E-1,5.018616E-1,-8.20905E-1,2.4038277E0,9.247465E0,-4.2346835E0,-1.4499195E-1,-1.93087E0,1.8769652E0,-2.5497196E0,-8.536602E0,-1.8733468E0,-9.673904E0,3.4902089E0,-3.871399E0,2.7875195E0,-3.8526874E0,4.3318863E0,-8.620522E-1,-4.0160666E0,6.9834197E-1,7.9264193E0,1.4840736E0,-5.480211E-1,2.1666582E0,1.6972876E1,3.8054543E0,4.733997E-1,-1.4441776E0,1.0609402E1,1.709259E0,-1.0440521E0,-1.8730545E-1,-4.8157544E0,-1.337494E-1,2.9141831E0,-1.8284234E0,-3.004837E-2,-6.106668E0,3.4590557E0,-1.4436296E0,1.0318121E0,-4.188695E0,-8.4078217E-1,-9.515893E0,-2.697947E0,2.012146E0,4.022361E-1,5.0090556E0,-4.937487E0,2.85554E0,5.718274E0,-2.1954982E0,1.361159E0,-2.9415882E0,-8.05358E0,-8.7816113E-1,-1.1613312E0,1.372377E0,2.4794006E-1,1.8134714E0],"categories":[],"categories_nodes":[],"categories_segments":[],"categories_sizes":[],"default_left":[1,1,1,1,1,1,1,1,1,1,1,1,1,1,1,1,1,1,1,1,1,1,1,1,1,1,1,1,1,1,0,1,1,1,1,0,0,0,0,0,1,0,0,1,1,1,1,1,1,1,0,1,0,0,1,1,1,1,1,0,1,0,0,0,0,0,0,0,0,0,0,0,0,0,0,0,0,0,0,0,0,0,0,0,0,0,0,0,0,0,0,0,0,0,0,0,0,0,0],"id":19,"left_children":[1,3,5,7,9,11,13,15,17,19,21,23,25,27,29,31,33,35,37,39,41,43,45,47,49,51,53,55,57,59,-1,61,63,65,67,-1,-1,-1,-1,-1,69,-1,-1,71,73,75,77,79,81,83,-1,85,-1,-1,87,89,91,93,95,-1,97,-1,-1,-1,-1,-1,-1,-1,-1,-1,-1,-1,-1,-1,-1,-1,-1,-1,-1,-1,-1,-1,-1,-1,-1,-1,-1,-1,-1,-1,-1,-1,-1,-1,-1,-1,-1,-1,-1],"loss_changes":[1.296585E2,1.2945552E2,2.0723584E2,4.3561005E2,2.7782074E2,3.7641464E2,1.7136086E2,1.0691704E2,4.8421967E2,1.4653906E2,3.4007095E2,1.2282959E2,3.6816837E2,1.8084778E2,5.041263E1,7.369576E2,1.9491933E2,9.70423E1,6.438252E0,1.993221E0,4.212738E0,1.4508466E2,1.5873645E2,9.8478455E1,1.0864557E2,9.115776E1,1.3574321E2,1.567647E2,1.4665096E2,6.3390717E1,0E0,2.296035E2,3.677179E1,1.85264E2,2.862941E1,0E0,0E0,0E0,0E0,0E0,2.2860098E-1,0E0,0E0,7.56098E1,7.2277214E1,1.2681566E2,1.8886545E2,4.5412228E1,5.2290833E1,1.04752E2,0E0,1.1054895E2,0E0,0E0,1.3780957E2,1.301978E2,5.4859695E1,1.7029832E2,1.7889088E1,0E0,1.1790867E0,0E0,0E0,0E0,0E0,0E0,0E0,0E0,0E0,0E0,0E0,0E0,0E0,0E0,0E0,0E0,0E0,0E0,0E0,0E0,0E0,0E0,0E0,0E0,0E0,0E0,0E0,0E0,0E0,0E0,0E0,0E0,0E0,0E0,0E0,0E0,0E0,0E0,0E0],"parents":[2147483647,0,0,1,1,2,2,3,3,4,4,5,5,6,6,7,7,8,8,9,9,10,10,11,11,12,12,13,13,14,14,15,15,16,16,17,17,18,18,19,19,20,20,21,21,22,22,23,23,24,24,25,25,26,26,27,27,28,28,29,29,31,31,32,32,33,33,34,34,40,40,43,43,44,44,45,45,46,46,47,47,48,48,49,49,51,51,54,54,55,55,56,56,57,57,58,58,60,60],"right_children":[2,4,6,8,10,12,14,16,18,20,22,24,26,28,30,32,34,36,38,40,42,44,46,48,50,52,54,56,58,60,-1,62,64,66,68,-1,-1,-1,-1,-1,70,-1,-1,72,74,76,78,80,82,84,-1,86,-1,-1,88,90,92,94,96,-1,98,-1,-1,-1,-1,-1,-1,-1,-1,-1,-1,-1,-1,-1,-1,-1,-1,-1,-1,-1,-1,-1,-1,-1,-1,-1,-1,-1,-1,-1,-1,-1,-1,-1,-1,-1,-1,-1,-1],"split_conditions":[8.106899E1,3.0755222E0,1.5101799E0,2.740159E0,8.150319E1,3.111094E2,9.171936E1,8.143352E2,8.0569863E3,1.1277033E2,1.5E0,7.468956E2,1.5E0,2.4778928E2,5.865222E2,8.086717E2,6.65E1,1.3180293E3,1.7622082E4,5.364745E3,5.648554E2,2.1606827E-2,2.841147E2,1.42E2,2.5324193E-1,1.5855752E6,8.2680435E1,2.866293E0,5E-1,4.435E5,1.9409981E-1,4.291585E3,8.130276E2,7.000397E2,9.20545E3,4.4129786E0,5.355011E-1,-6.087448E-1,5.95501E-2,1.5055847E-1,1.2671586E4,7.211483E-1,2.7742395E0,1.4542426E1,5.437568E2,7.884277E1,1.4E1,8.323718E1,6.6308105E2,1.3889062E2,-2.9021714E0,3.889515E2,-1.1614197E0,8.3625585E-1,1.5364158E3,1.3398323E2,5.314919E2,6.254651E2,2.0536463E0,2.3779259E0,8.208906E0,-1.6440633E-1,6.499975E-1,5.0918627E0,1.1416364E0,1.4201991E-1,-4.3325332E-1,3.1828206E0,5.1277775E-1,-3.1321564E-1,-5.6191638E-2,-1.4447263E0,-4.012482E-2,8.74255E-1,-5.4852706E-1,-9.0145115E-3,-1.8320005E0,1.0377167E0,-4.330889E-1,3.0954364E-1,-1.2566085E0,-2.5223467E-1,-2.854768E0,-8.0938417E-1,6.0364383E-1,1.2067083E-1,1.5027168E0,-1.4812462E0,8.5666203E-1,1.7154824E0,-6.586495E-1,4.083477E-1,-8.824765E-1,-2.4160743E0,-2.6344836E-1,-3.4839937E-1,4.1171312E-1,7.438202E-2,5.4404145E-1],"split_indices":[12,7,7,7,10,10,12,8,1,11,2,1,2,10,6,8,2,8,1,1,1,5,10,4,5,3,12,7,2,3,0,1,8,10,1,0,0,0,0,0,1,0,0,7,8,12,2,12,8,11,0,6,0,0,10,11,1,8,7,0,7,0,0,0,0,0,0,0,0,0,0,0,0,0,0,0,0,0,0,0,0,0,0,0,0,0,0,0,0,0,0,0,0,0,0,0,0,0,0],"split_type":[0,0,0,0,0,0,0,0,0,0,0,0,0,0,0,0,0,0,0,0,0,0,0,0,0,0,0,0,0,0,0,0,0,0,0,0,0,0,0,0,0,0,0,0,0,0,0,0,0,0,0,0,0,0,0,0,0,0,0,0,0,0,0,0,0,0,0,0,0,0,0,0,0,0,0,0,0,0,0,0,0,0,0,0,0,0,0,0,0,0,0,0,0,0,0,0,0,0,0],"sum_hessian":[7.09E2,5.65E2,1.44E2,4.66E2,9.9E1,8.7E1,5.7E1,4.57E2,9E0,7E0,9.2E1,4.4E1,4.3E1,4.7E1,1E1,1.26E2,3.31E2,5E0,4E0,3E0,4E0,4.3E1,4.9E1,1.3E1,3.1E1,2.4E1,1.9E1,2.2E1,2.5E1,7E0,3E0,1.23E2,3E0,3.29E2,2E0,4E0,1E0,2E0,2E0,1E0,2E0,1E0,3E0,3.1E1,1.2E1,1.5E1,3.4E1,6E0,7E0,3E1,1E0,2.3E1,1E0,3E0,1.6E1,1.2E1,1E1,1.3E1,1.2E1,4E0,3E0,6.1E1,6.2E1,2E0,1E0,2.68E2,6.1E1,1E0,1E0,1E0,1E0,2.7E1,4E0,4E0,8E0,1.1E1,4E0,2.3E1,1.1E1,2E0,4E0,1E0,6E0,2.5E1,5E0,8E0,1.5E1,1.4E1,2E0,1E1,2E0,5E0,5E0,5E0,8E0,3E0,9E0,1E0,2E0],"tree_param":{"num_deleted":"0","num_feature":"13","num_nodes":"99","size_leaf_vector":"0"}},{"base_weights":[1.6492637E-2,1.984965E0,-8.417586E-2,9.879405E0,1.182831E0,-7.7249175E-1,2.3742577E-1,3.01164E-2,4.125311E0,-8.616314E-1,9.01799E0,6.5038896E0,8.16408E-2,-1.09422E0,2.916965E0,9.63353E0,1.1753159E0,-1.0254492E0,3.4234247E0,-2.336324E-1,8.027076E0,1.5476984E-1,-3.9232378E0,1.0917468E0,-2.5845397E0,5.766576E-1,8.479404E0,2.000061E0,5.6741714E-2,-7.3220396E-1,-4.671525E0,4.4959216E0,-2.0420265E0,9.063905E0,-1.3377762E-1,-2.5853095E0,2.3821987E-1,-6.5199223E0,-1.0612427E0,-8.70553E-1,2.4432373E0,-3.133775E0,-7.531992E-2,1.1251831E0,-1.0829849E0,-9.552498E-1,7.1248883E-1,-1.5736959E0,2.2027262E-1,-1.1276405E1,-2.7879739E0,1.04395546E-1,6.2316527E0,9.700974E0,2.302208E0,-3.8980477E0,3.0898335E0,3.3752487E0,1.4671609E-1,-7.64402E0,-1.5738144E0,1.0720545E0,-2.8407924E0],"categories":[],"categories_nodes":[],"categories_segments":[],"categories_sizes":[],"default_left":[1,1,1,0,1,1,1,1,1,1,0,1,1,1,1,0,1,1,1,0,1,1,1,1,1,1,0,0,1,1,1,1,0,1,0,1,1,1,1,0,0,0,0,0,0,0,0,0,0,0,0,0,0,0,0,0,0,0,0,0,0,0,0],"id":20,"left_children":[1,3,5,-1,7,9,11,13,15,17,-1,19,21,23,25,-1,27,29,31,-1,33,35,37,39,41,43,-1,-1,45,47,49,51,-1,53,-1,55,57,59,61,-1,-1,-1,-1,-1,-1,-1,-1,-1,-1,-1,-1,-1,-1,-1,-1,-1,-1,-1,-1,-1,-1,-1,-1],"loss_changes":[1.3848497E2,2.0361581E2,1.4739014E2,0E0,1.0841464E2,1.927869E2,4.4267328E2,8.109074E1,1.3492053E2,1.5162584E2,0E0,1.1476291E2,1.3064278E2,6.1461864E1,8.6235016E1,0E0,6.344283E0,2.1469513E2,5.607422E1,0E0,7.7365234E1,1.0054017E2,5.253437E1,2.3343204E1,1.4923645E1,6.6806936E0,0E0,0E0,3.3350468E0,1.526319E2,1.5517114E2,5.2707E1,0E0,1.2127686E1,0E0,1.0889402E2,1.2150105E2,1.0209366E1,2.2027027E1,0E0,0E0,0E0,0E0,0E0,0E0,0E0,0E0,0E0,0E0,0E0,0E0,0E0,0E0,0E0,0E0,0E0,0E0,0E0,0E0,0E0,0E0,0E0,0E0],"parents":[2147483647,0,0,1,1,2,2,4,4,5,5,6,6,7,7,8,8,9,9,11,11,12,12,13,13,14,14,16,16,17,17,18,18,20,20,21,21,22,22,23,23,24,24,25,25,28,28,29,29,30,30,31,31,33,33,35,35,36,36,37,37,38,38],"right_children":[2,4,6,-1,8,10,12,14,16,18,-1,20,22,24,26,-1,28,30,32,-1,34,36,38,40,42,44,-1,-1,46,48,50,52,-1,54,-1,56,58,60,62,-1,-1,-1,-1,-1,-1,-1,-1,-1,-1,-1,-1,-1,-1,-1,-1,-1,-1,-1,-1,-1,-1,-1,-1],"split_conditions":[2.303216E2,1.33542E2,3.7933423E2,2.9638216E0,7.327621E3,5.65E1,3.853683E2,8.940329E2,8.673185E3,1.3925549E3,2.7053971E0,7.5905E3,4.75E1,1.555877E2,4.27E3,2.890059E0,4.0073685E-2,1.3350564E3,3.7897357E2,-7.008972E-2,1.1130879E3,3.9160428E2,7.394013E1,8.3415967E2,1.3168944E2,4.666665E-1,2.5438213E0,6.000183E-1,1.7649633E4,8.0128235E2,1.3429011E3,1.1683005E2,-6.1260796E-1,5.152858E3,-4.0133286E-2,1.3515712E3,3.956474E2,6.6E1,1.9961346E4,-2.6116592E-1,7.329712E-1,-9.4013256E-1,-2.2595977E-2,3.3755493E-1,-3.248955E-1,-2.8657496E-1,2.1374665E-1,-4.7210878E-1,6.6081785E-2,-3.3829217E0,-8.363922E-1,3.1318665E-2,1.8694959E0,2.9102924E0,6.906624E-1,-1.1694144E0,9.269501E-1,1.0125747E0,4.4014826E-2,-2.2932062E0,-4.7214434E-1,3.2161635E-1,-8.5223776E-1],"split_indices":[6,10,6,0,1,2,6,8,1,8,0,4,2,6,4,0,5,8,6,0,8,6,12,1,11,5,0,0,1,8,8,11,0,0,0,8,6,2,1,0,0,0,0,0,0,0,0,0,0,0,0,0,0,0,0,0,0,0,0,0,0,0,0],"split_type":[0,0,0,0,0,0,0,0,0,0,0,0,0,0,0,0,0,0,0,0,0,0,0,0,0,0,0,0,0,0,0,0,0,0,0,0,0,0,0,0,0,0,0,0,0,0,0,0,0,0,0,0,0,0,0,0,0,0,0,0,0,0,0],"sum_hessian":[6.97E2,3.3E1,6.64E2,2E0,3.1E1,2.11E2,4.53E2,2.3E1,8E0,2.1E2,1E0,1E1,4.43E2,1.7E1,6E0,2E0,6E0,2.03E2,7E0,2E0,8E0,4.36E2,7E0,7E0,1E1,5E0,1E0,3E0,3E0,1.89E2,1.4E1,6E0,1E0,7E0,1E0,1.2E1,4.24E2,3E0,4E0,3E0,4E0,8E0,2E0,4E0,1E0,1E0,2E0,1E2,8.9E1,2E0,1.2E1,2E0,4E0,6E0,1E0,1E1,2E0,1.1E1,4.13E2,2E0,1E0,2E0,2E0],"tree_param":{"num_deleted":"0","num_feature":"13","num_nodes":"63","size_leaf_vector":"0"}},{"base_weights":[-6.829986E-2,3.703265E-1,-3.78873E-1,6.1200887E-1,-2.1444E0,-2.2170256E-1,-2.7218575E0,-7.2255105E-2,2.35063E0,-2.8741298E0,7.670555E-1,-1.1624138E0,6.4385526E-2,-5.6064606E-2,-6.9815197E0,-9.6269655E-1,7.075759E-1,5.748553E0,9.62473E-3,-1.7525382E0,-5.386019E0,1.025177E0,-2.6177597E-1,-2.450955E0,1.289926E0,1.7823706E0,-1.9159082E-1,-1.8805128E0,4.698714E0,-1.8827477E0,-8.020869E0,1.7609152E0,-1.4392077E0,3.9372249E0,-6.0665894E-2,2.024003E0,7.994374E0,-6.205181E-1,6.781254E0,-1.5103658E-2,-2.540908E0,-3.372179E0,5.375295E-1,-5.791415E-1,3.19519E0,-7.5863737E-1,3.5830123E0,5.0134385E-1,-9.6680313E-1,-4.5839796E0,-1.6964085E-1,-1.3436241E0,6.545204E0,8.052185E0,6.575725E-1,-3.088839E0,-1.6083713E-1,1.204247E1,1.1582594E0,-4.682256E0,2.867117E-1,-9.55565E-1,5.659426E0,1.1903925E1,4.0688887E0,1.5443621E0,-1.9606086E0,-6.196777E-1,1.5038834E0,-3.1145592E0,1.5978012E0,1.0752573E0,-4.1980076E0,1.986888E0,-5.9222007E0,-3.3868527E0,1.260233E0,4.756567E0,-1.1911529E0,-2.181288E0,3.0919814E0,5.6056437E0,3.9302748E-1,2.4905577E-1,6.052221E0,5.6788306E0,-1.1222957E0,-1.2339973E0,-5.112976E0,7.9605705E-1,-2.366389E0],"categories":[],"categories_nodes":[],"categories_segments":[],"categories_sizes":[],"default_left":[1,1,1,1,1,1,1,1,1,1,1,1,1,1,1,1,1,1,1,1,0,0,0,1,1,1,1,1,1,0,0,1,1,1,1,1,1,1,0,1,1,1,1,1,1,1,1,1,1,1,1,0,0,0,0,0,0,0,0,0,0,0,0,0,0,0,0,0,0,0,0,0,0,0,0,0,0,0,0,0,0,0,0,0,0,0,0,0,0,0,0],"id":21,"left_children":[1,3,5,7,9,11,13,15,17,19,21,23,25,27,29,31,33,35,37,39,-1,-1,-1,41,43,45,47,49,51,-1,-1,53,55,57,59,61,63,65,-1,67,69,71,73,75,77,79,81,83,85,87,89,-1,-1,-1,-1,-1,-1,-1,-1,-1,-1,-1,-1,-1,-1,-1,-1,-1,-1,-1,-1,-1,-1,-1,-1,-1,-1,-1,-1,-1,-1,-1,-1,-1,-1,-1,-1,-1,-1,-1,-1],"loss_changes":[9.6588005E1,1.799953E2,1.5221945E2,3.2019266E2,5.7443604E1,1.05034096E2,2.948484E2,1.353936E2,6.0449084E2,4.972441E1,1.8617477E0,2.9071613E2,1.3227054E2,1.5630838E2,3.789279E1,1.20636986E2,2.5827863E2,2.4312415E2,2.004942E2,2.187748E1,0E0,0E0,0E0,1.6699649E2,1.1580462E2,1.8116058E2,1.4122363E2,5.9351086E1,6.45799E1,0E0,0E0,9.188507E1,1.6399272E2,4.3653555E2,1.3780458E2,1.4622383E2,2.4315515E2,1.2777672E2,0E0,6.441964E0,3.109237E1,1.7346362E2,1.522037E2,9.206358E1,1.1524556E2,9.9871956E1,1.4619656E2,1.9315106E2,1.3450833E2,2.5512466E0,2.0976336E1,0E0,0E0,0E0,0E0,0E0,0E0,0E0,0E0,0E0,0E0,0E0,0E0,0E0,0E0,0E0,0E0,0E0,0E0,0E0,0E0,0E0,0E0,0E0,0E0,0E0,0E0,0E0,0E0,0E0,0E0,0E0,0E0,0E0,0E0,0E0,0E0,0E0,0E0,0E0,0E0],"parents":[2147483647,0,0,1,1,2,2,3,3,4,4,5,5,6,6,7,7,8,8,9,9,10,10,11,11,12,12,13,13,14,14,15,15,16,16,17,17,18,18,19,19,23,23,24,24,25,25,26,26,27,27,28,28,31,31,32,32,33,33,34,34,35,35,36,36,37,37,39,39,40,40,41,41,42,42,43,43,44,44,45,45,46,46,47,47,48,48,49,49,50,50],"right_children":[2,4,6,8,10,12,14,16,18,20,22,24,26,28,30,32,34,36,38,40,-1,-1,-1,42,44,46,48,50,52,-1,-1,54,56,58,60,62,64,66,-1,68,70,72,74,76,78,80,82,84,86,88,90,-1,-1,-1,-1,-1,-1,-1,-1,-1,-1,-1,-1,-1,-1,-1,-1,-1,-1,-1,-1,-1,-1,-1,-1,-1,-1,-1,-1,-1,-1,-1,-1,-1,-1,-1,-1,-1,-1,-1,-1],"split_conditions":[1.7745569E3,1.1395E4,1.4002464E2,2.1065E3,1.3647343E2,4.308E3,4.492473E2,4.240537E2,4.4105E3,1.2110652E3,3E0,1.2268606E2,4.02106E3,1.718569E2,5.482596E2,1.4032248E2,4.4755835E2,1.1962004E2,1.45E1,3.676848E2,-1.6158059E0,3.075531E-1,-7.853279E-2,1.3396917E3,1.0484116E3,6.1850793E2,2.9040405E2,1.4804085E2,5.42037E3,-5.6482434E-1,-2.406261E0,1.8048557E2,2.9185965E2,9.102256E2,4.5495425E2,4.761905E-3,7.54527E1,1.2000113E2,2.0343761E0,2.9666446E2,4.714273E2,4.2095966E2,4.5E0,1.5E0,4.5153683E2,3.412306E2,4.978894E2,2.7684717E2,5.583864E1,2.236E3,4.220901E2,-4.0308726E-1,1.9635613E0,2.4156556E0,1.9727176E-1,-9.266518E-1,-4.825114E-2,3.6127412E0,3.4747782E-1,-1.4046769E0,8.601351E-2,-2.866695E-1,1.6978279E0,3.5711777E0,1.2206666E0,4.6330863E-1,-5.881826E-1,-1.8590333E-1,4.5116502E-1,-9.343678E-1,4.7934037E-1,3.225772E-1,-1.2594023E0,5.960664E-1,-1.7766603E0,-1.0160558E0,3.7806994E-1,1.4269701E0,-3.5734588E-1,-6.543864E-1,9.275945E-1,1.6816932E0,1.1790825E-1,7.471673E-2,1.8156663E0,1.7036493E0,-3.3668873E-1,-3.701992E-1,-1.5338929E0,2.3881713E-1,-7.099167E-1],"split_indices":[1,4,11,4,11,4,6,6,4,8,2,11,1,11,8,10,6,11,2,10,0,0,0,8,8,8,10,11,1,0,0,6,10,8,6,5,12,11,0,10,6,8,2,2,10,10,6,10,12,4,6,0,0,0,0,0,0,0,0,0,0,0,0,0,0,0,0,0,0,0,0,0,0,0,0,0,0,0,0,0,0,0,0,0,0,0,0,0,0,0,0],"split_type":[0,0,0,0,0,0,0,0,0,0,0,0,0,0,0,0,0,0,0,0,0,0,0,0,0,0,0,0,0,0,0,0,0,0,0,0,0,0,0,0,0,0,0,0,0,0,0,0,0,0,0,0,0,0,0,0,0,0,0,0,0,0,0,0,0,0,0,0,0,0,0,0,0,0,0,0,0,0,0,0,0,0,0,0,0,0,0,0,0,0,0],"sum_hessian":[7.07E2,2.93E2,4.14E2,2.68E2,2.5E1,3.89E2,2.5E1,1.93E2,7.5E1,2E1,5E0,9E1,2.99E2,1.6E1,9E0,9E1,1.03E2,3E1,4.5E1,1.5E1,5E0,4E0,1E0,5.9E1,3.1E1,3.8E1,2.61E2,1.2E1,4E0,2E0,7E0,1.3E1,7.7E1,1.9E1,8.4E1,1.2E1,1.8E1,4.2E1,3E0,5E0,1E1,4.5E1,1.4E1,1.6E1,1.5E1,1.6E1,2.2E1,1.38E2,1.23E2,4E0,8E0,1E0,3E0,1E0,1.2E1,3.3E1,4.4E1,4E0,1.5E1,5E0,7.9E1,7E0,5E0,8E0,1E1,1.6E1,2.6E1,4E0,1E0,9E0,1E0,7E0,3.8E1,1.2E1,2E0,6E0,1E1,1.1E1,4E0,1.2E1,4E0,1.3E1,9E0,1.33E2,5E0,2E0,1.21E2,1E0,3E0,6E0,2E0],"tree_param":{"num_deleted":"0","num_feature":"13","num_nodes":"91","size_leaf_vector":"0"}},{"base_weights":[2.93319E-2,5.333108E-1,-2.2596498E-1,2.6310196E0,2.0326202E-1,-5.050864E0,-1.5205137E-1,1.5106874E0,1.2957336E1,-5.2643576E0,3.9456892E-1,-1.0669531E0,-6.431038E0,-4.778327E-1,6.610858E-1,7.6672816E-1,5.077138E0,-5.7850747E0,-1.0700264E0,4.2220654E0,2.3303485E-1,1.8883133E-1,-1.7892609E0,-1.0045382E0,4.2407355E-1,9.418997E-1,-3.809267E0,-4.7070723E-2,1.4676323E0,6.02746E0,6.379242E-1,2.5670059E0,6.12483E0,1.2558725E-1,5.2516747E0,-1.7459965E0,1.1078137E-1,-1.0947595E0,1.1783185E0,-2.9855304E0,1.1650099E0,-5.426114E-1,-9.072823E0,7.9556483E-1,-3.1210442E0,2.5886111E0,3.0332184E-1,5.553079E-2,6.648102E0,-3.3762758E0,-1.2837386E0,2.9112346E0,-7.5260085E-1,5.035507E0,-1.8935858E0,2.138152E0,-8.560889E-1,-3.5767376E0,2.808571E-1,1.556051E0,-1.4495707E0,7.3430824E-1,-2.0643005E0],"categories":[],"categories_nodes":[],"categories_segments":[],"categories_sizes":[],"default_left":[1,1,1,1,1,1,1,1,0,1,1,1,0,1,1,1,1,0,0,1,1,0,0,1,1,1,1,1,1,0,0,0,0,1,0,1,1,1,1,1,1,1,0,0,0,0,0,0,0,0,0,0,0,0,0,0,0,0,0,0,0,0,0],"id":22,"left_children":[1,3,5,7,9,11,13,15,-1,17,19,21,-1,23,25,27,29,-1,-1,31,33,-1,-1,35,37,39,41,43,45,-1,-1,-1,-1,47,-1,49,51,53,55,57,59,61,-1,-1,-1,-1,-1,-1,-1,-1,-1,-1,-1,-1,-1,-1,-1,-1,-1,-1,-1,-1,-1],"loss_changes":[9.031414E1,1.6285892E2,1.6541959E2,3.5063055E2,2.165058E2,3.1627792E1,1.22172134E2,7.5706E1,0E0,9.098251E0,1.22052055E2,3.059057E0,0E0,1.567138E2,1.6929245E2,1.4899352E1,1.7248367E1,0E0,0E0,9.471039E0,1.0287468E2,0E0,0E0,1.7220169E2,1.4104977E2,1.1300938E2,1.3263075E2,3.61561E1,1.748716E1,0E0,0E0,0E0,0E0,8.59933E1,0E0,8.9866974E1,2.0529138E2,2.1031293E2,1.6195123E2,1.4522339E1,1.2392221E2,1.3174282E1,0E0,0E0,0E0,0E0,0E0,0E0,0E0,0E0,0E0,0E0,0E0,0E0,0E0,0E0,0E0,0E0,0E0,0E0,0E0,0E0,0E0],"parents":[2147483647,0,0,1,1,2,2,3,3,4,4,5,5,6,6,7,7,9,9,10,10,11,11,13,13,14,14,15,15,16,16,19,19,20,20,23,23,24,24,25,25,26,26,27,27,28,28,33,33,35,35,36,36,37,37,38,38,39,39,40,40,41,41],"right_children":[2,4,6,8,10,12,14,16,-1,18,20,22,-1,24,26,28,30,-1,-1,32,34,-1,-1,36,38,40,42,44,46,-1,-1,-1,-1,48,-1,50,52,54,56,58,60,62,-1,-1,-1,-1,-1,-1,-1,-1,-1,-1,-1,-1,-1,-1,-1,-1,-1,-1,-1,-1,-1],"split_conditions":[4.6309E2,4.7262885E2,6.7149976E2,9.434719E0,4.939175E2,7.0959274E1,3.5998374E-2,7.827244E5,3.887201E0,3.28E5,1.002182E2,5.27815E2,-1.9293114E0,3.5606317E2,1.3830966E2,7.697698E1,4.3753476E2,-1.7355225E0,-3.2100794E-1,5E0,4.3474072E2,5.66494E-2,-5.367783E-1,4.4062518E2,7.0250336E1,1.0033872E2,4.8704034E2,7.210173E1,2.6390005E2,1.8082381E0,1.9137727E-1,7.701018E-1,1.837449E0,5.4E1,1.5755025E0,3.512E3,4.6302246E2,5.63555E1,5.66E3,3.5E0,1.35E1,4.06678E5,-2.7218468E0,2.3866946E-1,-9.363133E-1,7.765834E-1,9.0996556E-2,1.6659237E-2,1.9944307E0,-1.0128828E0,-3.851216E-1,8.733704E-1,-2.2578026E-1,1.5106522E0,-5.680758E-1,6.414456E-1,-2.5682667E-1,-1.0730213E0,8.4257126E-2,4.6681532E-1,-4.3487123E-1,2.2029248E-1,-6.192902E-1],"split_indices":[1,8,1,1,8,12,5,3,0,3,11,1,0,10,11,12,8,0,0,2,1,0,0,6,12,11,6,12,10,0,0,0,0,2,0,4,6,12,3,2,2,3,0,0,0,0,0,0,0,0,0,0,0,0,0,0,0,0,0,0,0,0,0],"split_type":[0,0,0,0,0,0,0,0,0,0,0,0,0,0,0,0,0,0,0,0,0,0,0,0,0,0,0,0,0,0,0,0,0,0,0,0,0,0,0,0,0,0,0,0,0,0,0,0,0,0,0,0,0,0,0,0,0,0,0,0,0,0,0],"sum_hessian":[7E2,2.35E2,4.65E2,3.1E1,2.04E2,6E0,4.59E2,2.9E1,2E0,6E0,1.98E2,2E0,4E0,3.28E2,1.31E2,2.5E1,4E0,5E0,1E0,7E0,1.91E2,1E0,1E0,2.07E2,1.21E2,1.24E2,7E0,1.2E1,1.3E1,3E0,1E0,5E0,2E0,1.88E2,3E0,1.24E2,8.3E1,4E1,8.1E1,6E0,1.18E2,5E0,2E0,1E1,2E0,6E0,7E0,1.87E2,1E0,2.6E1,9.8E1,1.9E1,6.4E1,4E0,3.6E1,5.5E1,2.6E1,5E0,1E0,1.03E2,1.5E1,3E0,2E0],"tree_param":{"num_deleted":"0","num_feature":"13","num_nodes":"63","size_leaf_vector":"0"}},{"base_weights":[-3.9489195E-2,-8.6566314E-2,2.2465718E0,3.0713882E-2,-1.3428028E0,3.9800324E0,-3.0820885E0,2.8005323E-1,-6.8497235E-1,-1.9906517E0,1.0528781E0,5.0487123E0,8.4766483E-1,-5.509033E0,-4.3676248E-1,3.651593E-1,-2.687469E0,-5.824272E0,-5.505282E-1,-2.4785392E0,6.3663197E-1,-9.7564004E-2,4.9202065E0,4.8101425E-1,5.632524E0,2.1477458E0,-1.526289E0,4.0100098E-2,-6.9524384E-1,5.5302036E-1,-1.0227296E0,-4.2254925E0,-1.888593E-1,-2.074852E-1,-7.6273727E0,-6.562054E-1,3.6820946E0,-1.9490154E0,-5.0660853E0,-6.033074E-1,4.658104E0,1.1144714E0,-1.7749008E0,6.1385326E0,1.2982368E0,3.4048244E-1,3.2383125E0,-1.5825055E0,3.719228E0,1.3392156E0,-1.2877007E0,1.9346909E-1,-1.2884749E0,-1.0779868E-1,-2.5113974E0,-7.217123E0,-5.0933963E-1,-5.4356385E-2,-1.3171234E0,1.2998351E-1,2.383794E0,-4.1211777E0,1.1630096E0],"categories":[],"categories_nodes":[],"categories_segments":[],"categories_sizes":[],"default_left":[1,1,1,1,1,1,1,1,1,1,1,1,1,0,1,1,1,1,1,1,1,1,0,0,1,0,0,0,0,1,1,0,1,0,0,1,0,1,1,1,0,1,1,0,0,0,0,0,0,0,0,0,0,0,0,0,0,0,0,0,0,0,0],"id":23,"left_children":[1,3,5,7,9,11,13,15,17,19,21,23,25,-1,27,29,31,33,35,37,39,41,-1,-1,43,-1,-1,-1,-1,45,47,-1,49,-1,-1,51,-1,53,55,57,-1,59,61,-1,-1,-1,-1,-1,-1,-1,-1,-1,-1,-1,-1,-1,-1,-1,-1,-1,-1,-1,-1],"loss_changes":[7.466832E1,1.0007944E2,1.4158514E2,1.11186935E2,9.211418E1,3.2542862E1,2.3274101E1,1.1766138E2,1.0803631E2,6.054161E1,5.8318825E1,1.8624084E1,1.562341E1,0E0,3.976596E-1,1.17894226E2,4.9159927E1,3.8927963E1,7.308829E1,4.3562653E1,4.2701324E1,2.4340984E1,0E0,0E0,7.383026E0,0E0,0E0,0E0,0E0,2.2547578E2,1.4922511E2,0E0,1.179918E1,0E0,0E0,8.351889E1,0E0,3.4935165E1,5.5134415E1,2.6713562E0,0E0,8.437574E0,3.9258728E1,0E0,0E0,0E0,0E0,0E0,0E0,0E0,0E0,0E0,0E0,0E0,0E0,0E0,0E0,0E0,0E0,0E0,0E0,0E0,0E0],"parents":[2147483647,0,0,1,1,2,2,3,3,4,4,5,5,6,6,7,7,8,8,9,9,10,10,11,11,12,12,14,14,15,15,16,16,17,17,18,18,19,19,20,20,21,21,24,24,29,29,30,30,32,32,35,35,37,37,38,38,39,39,41,41,42,42],"right_children":[2,4,6,8,10,12,14,16,18,20,22,24,26,-1,28,30,32,34,36,38,40,42,-1,-1,44,-1,-1,-1,-1,46,48,-1,50,-1,-1,52,-1,54,56,58,-1,60,62,-1,-1,-1,-1,-1,-1,-1,-1,-1,-1,-1,-1,-1,-1,-1,-1,-1,-1,-1,-1],"split_conditions":[1.0424948E0,5.817267E2,1.7431417E0,2.745478E-2,3.9885077E0,1.1329653E3,1.9899129E4,2.3864066E4,2.9295143E-2,1.4477153E-1,6.878264E2,3.445849E2,1.411883E0,-1.6527101E0,2.977704E4,1.3620338E3,3.6216287E2,4.442703E3,5.607945E2,3.1022844E5,1.3251941E3,7.909282E1,1.476062E0,1.4430428E-1,1.6450582E0,6.4432377E-1,-4.5788673E-1,1.203003E-2,-2.0857316E-1,1.339189E3,1.3180838E2,-1.2676477E0,2.9586E4,-6.2245563E-2,-2.2882118E0,4.075314E2,1.1046284E0,7.770468E2,1.0683334E3,1.21305E3,1.3974313E0,7.7538734E1,1.2205188E2,1.8415599E0,3.8947108E-1,1.0214474E-1,9.714938E-1,-4.7475165E-1,1.1157684E0,4.0176472E-1,-3.8631022E-1,5.804073E-2,-3.865425E-1,-3.2339606E-2,-7.534192E-1,-2.165137E0,-1.528019E-1,-1.6306916E-2,-3.9513704E-1,3.8995057E-2,7.1513826E-1,-1.2363534E0,3.489029E-1],"split_indices":[5,6,5,5,7,8,1,1,5,5,6,6,5,0,1,8,10,1,6,3,8,12,0,0,5,0,0,0,0,8,11,0,4,0,0,6,0,8,8,8,0,12,11,0,0,0,0,0,0,0,0,0,0,0,0,0,0,0,0,0,0,0,0],"split_type":[0,0,0,0,0,0,0,0,0,0,0,0,0,0,0,0,0,0,0,0,0,0,0,0,0,0,0,0,0,0,0,0,0,0,0,0,0,0,0,0,0,0,0,0,0,0,0,0,0,0,0,0,0,0,0,0,0,0,0,0,0,0,0],"sum_hessian":[6.91E2,6.78E2,1.3E1,6.21E2,5.7E1,1E1,3E0,4.61E2,1.6E2,4.5E1,1.2E1,7E0,3E0,1E0,2E0,4.49E2,1.2E1,3E0,1.57E2,3.8E1,7E0,1E1,2E0,1E0,6E0,2E0,1E0,1E0,1E0,3.96E2,5.3E1,7E0,5E0,1E0,2E0,1.54E2,3E0,3.3E1,5E0,6E0,1E0,6E0,4E0,5E0,1E0,3.68E2,2.8E1,4.8E1,5E0,2E0,3E0,6.6E1,8.8E1,8E0,2.5E1,3E0,2E0,4E0,2E0,4E0,2E0,2E0,2E0],"tree_param":{"num_deleted":"0","num_feature":"13","num_nodes":"63","size_leaf_vector":"0"}},{"base_weights":[4.6907123E-2,3.1245607E-1,-7.068857E-1,1.1736081E-1,1.4213641E0,-4.2558293E0,-4.872986E-1,6.3486505E-1,-4.2117822E-1,3.7199934E0,5.54844E-1,7.1758527E-1,-5.4407644E0,-1.6096096E0,3.0392215E-1,5.255098E-1,6.846094E0,-3.1772137E0,-6.435595E-2,8.84143E0,1.6936045E0,-2.9654393E-1,3.65575E0,1.0826492E0,-6.2713623E-3,-6.215599E0,3.7895584E-1,-1.3038125E0,-8.514134E0,2.0710254E0,-2.3199958E-1,8.157847E-1,-9.855269E-1,-2.0376995E0,-1.1234256E1,4.211558E-1,-1.2770257E0,1.0533414E1,1.9075394E-1,-1.973985E-1,5.1933427E0,7.76437E-2,-8.941681E0,4.492926E0,-3.1951828E0,-6.6782827E0,-1.4884071E0,-4.3696847E0,-8.5924846E-1,-4.2643866E-1,4.0637784E0,-1.3998386E0,7.8528315E-1,9.4322324E-1,-3.3769734E0,-1.4724962E0,1.3814076E0,-5.2682323E0,-9.102839E-1,-1.4428513E1,-2.4228706E0,9.694132E-1,-9.931901E-1,-2.8879986E0,2.1924086E-1,1.3595276E0,-1.9809126E0,-9.201355E-1,6.6000657E0,8.842412E-1,-1.8867819E0,6.0984945E0,1.0254319E0,-6.1197205E0,1.1702932E0,2.93529E-1,-1.7960284E0,-2.2590752E0,4.3544853E-1,4.87072E-1,5.9967184E0,-7.3616904E-1,-4.9273267E0,2.4510012E0,-4.159734E-1],"categories":[],"categories_nodes":[],"categories_segments":[],"categories_sizes":[],"default_left":[1,1,1,1,1,1,1,1,1,1,1,1,1,1,1,1,0,1,1,1,1,1,1,0,0,1,0,1,0,1,1,1,1,1,1,1,1,0,0,1,1,1,0,1,0,0,0,1,1,1,1,1,1,0,0,0,0,0,0,0,0,0,0,0,0,0,0,0,0,0,0,0,0,0,0,0,0,0,0,0,0,0,0,0,0],"id":24,"left_children":[1,3,5,7,9,11,13,15,17,19,21,23,25,27,29,31,-1,33,35,37,39,41,43,-1,-1,45,-1,47,-1,49,51,53,55,57,59,61,63,-1,-1,65,67,69,-1,71,-1,-1,-1,73,75,77,79,81,83,-1,-1,-1,-1,-1,-1,-1,-1,-1,-1,-1,-1,-1,-1,-1,-1,-1,-1,-1,-1,-1,-1,-1,-1,-1,-1,-1,-1,-1,-1,-1,-1],"loss_changes":[1.4674449E2,1.1709093E2,1.4677286E2,1.2902505E2,1.5927245E2,6.872914E1,1.6121643E2,1.5670074E2,2.2303069E2,2.1334256E2,1.5948853E2,7.995516E-1,4.29393E1,1.4725293E2,1.01812584E2,1.0300151E2,0E0,2.158169E2,1.19468445E2,8.5811554E1,1.1353142E2,1.5596962E2,8.891643E1,0E0,0E0,7.5575867E0,0E0,9.574267E1,0E0,1.261537E2,9.970514E1,1.0791177E2,4.5833836E1,8.261608E1,4.9479065E1,1.1339953E2,1.4043896E2,0E0,0E0,3.60147E1,5.767276E1,7.613991E1,0E0,6.0553986E1,0E0,0E0,0E0,9.4418274E1,7.07206E1,1.9938023E1,9.386897E1,8.767503E1,9.10625E1,0E0,0E0,0E0,0E0,0E0,0E0,0E0,0E0,0E0,0E0,0E0,0E0,0E0,0E0,0E0,0E0,0E0,0E0,0E0,0E0,0E0,0E0,0E0,0E0,0E0,0E0,0E0,0E0,0E0,0E0,0E0,0E0],"parents":[2147483647,0,0,1,1,2,2,3,3,4,4,5,5,6,6,7,7,8,8,9,9,10,10,11,11,12,12,13,13,14,14,15,15,17,17,18,18,19,19,20,20,21,21,22,22,25,25,27,27,29,29,30,30,31,31,32,32,33,33,34,34,35,35,36,36,39,39,40,40,41,41,43,43,47,47,48,48,49,49,50,50,51,51,52,52],"right_children":[2,4,6,8,10,12,14,16,18,20,22,24,26,28,30,32,-1,34,36,38,40,42,44,-1,-1,46,-1,48,-1,50,52,54,56,58,60,62,64,-1,-1,66,68,70,-1,72,-1,-1,-1,74,76,78,80,82,84,-1,-1,-1,-1,-1,-1,-1,-1,-1,-1,-1,-1,-1,-1,-1,-1,-1,-1,-1,-1,-1,-1,-1,-1,-1,-1,-1,-1,-1,-1,-1,-1],"split_conditions":[1.2743562E2,1.23621475E2,1.2814407E2,1.16029785E2,1.2426142E2,3.298835E3,1.2333425E3,1.1595877E2,1.1719787E2,7.145863E1,2.12058E5,1.25568E3,2.54095E4,1.0527819E3,3.3855E3,1.3619766E3,2.0538282E0,1.1714581E2,4.2699527E2,1.19853E5,3.946833E2,1.82257E5,1.711899E3,3.2479477E-1,-1.8814087E-3,3.4661884E0,1.13686755E-1,1.2940002E2,-2.5542405E0,4.2947546E2,7.7180293E3,9.406098E1,7.3464615E1,1.16553375E2,3.2108594E3,1.9999926E0,4.3590088E2,3.1600244E0,5.7226185E-2,1.9201228E3,3.2799316E2,1.730873E-2,-2.6825044E0,8.017316E1,-9.5855486E-1,-2.003485E0,-4.4652215E-1,2.113234E5,3.043352E2,2.0688113E3,7.867848E1,1.0475E4,1.1421371E4,2.8296697E-1,-1.013092E0,-4.4174886E-1,4.144223E-1,-1.5804697E0,-2.7308518E-1,-4.328554E0,-7.2686124E-1,2.9082397E-1,-2.9795703E-1,-8.663996E-1,6.577226E-2,4.0785828E-1,-5.942738E-1,-2.7604067E-1,1.9800198E0,2.6527238E-1,-5.660346E-1,1.8295485E0,3.076296E-1,-1.8359162E0,3.51088E-1,8.80587E-2,-5.388085E-1,-6.777226E-1,1.3063456E-1,1.461216E-1,1.7990156E0,-2.2085072E-1,-1.478198E0,7.3530036E-1,-1.24792024E-1],"split_indices":[11,11,11,11,11,1,1,11,11,12,3,1,4,1,4,8,0,11,10,3,10,3,0,0,0,7,0,11,0,6,1,12,12,11,1,7,6,0,0,1,6,5,0,12,0,0,0,3,10,1,12,4,1,0,0,0,0,0,0,0,0,0,0,0,0,0,0,0,0,0,0,0,0,0,0,0,0,0,0,0,0,0,0,0,0],"split_type":[0,0,0,0,0,0,0,0,0,0,0,0,0,0,0,0,0,0,0,0,0,0,0,0,0,0,0,0,0,0,0,0,0,0,0,0,0,0,0,0,0,0,0,0,0,0,0,0,0,0,0,0,0,0,0,0,0,0,0,0,0,0,0,0,0,0,0,0,0,0,0,0,0,0,0,0,0,0,0,0,0,0,0,0,0],"sum_hessian":[7.31E2,5.41E2,1.9E2,4.61E2,8E1,1E1,1.8E2,2.35E2,2.26E2,2.1E1,5.9E1,2E0,8E0,7.4E1,1.06E2,2.32E2,3E0,2.5E1,2.01E2,5E0,1.6E1,4.7E1,1.2E1,1E0,1E0,7E0,1E0,7.2E1,2E0,2.4E1,8.2E1,1.95E2,3.7E1,2.3E1,2E0,1.44E2,5.7E1,4E0,1E0,1.1E1,5E0,4.6E1,1E0,1.1E1,1E0,6E0,1E0,8E0,6.4E1,1.1E1,1.3E1,3.8E1,4.4E1,1.9E2,5E0,3.1E1,6E0,5E0,1.8E1,1E0,1E0,1.04E2,4E1,2.7E1,3E1,6E0,5E0,1E0,4E0,3.3E1,1.3E1,7E0,4E0,6E0,2E0,2.9E1,3.5E1,3E0,8E0,5E0,8E0,3.3E1,5E0,1.8E1,2.6E1],"tree_param":{"num_deleted":"0","num_feature":"13","num_nodes":"85","size_leaf_vector":"0"}},{"base_weights":[3.9127655E-3,-1.5434371E-1,7.0473343E-1,-2.3683265E-1,1.6409681E0,6.3751154E0,3.3911607E-1,-7.6501036E-1,4.4358857E-2,5.202083E0,-5.5033314E-1,9.589581E0,-2.1788533E0,2.2016997E0,-6.871691E-1,-9.9343276E-1,1.8668308E0,3.3149602E0,-5.5978116E-2,6.617422E0,-3.0618158E-1,6.986316E-1,-2.9565403E0,1.6001364E0,1.4335243E1,-4.842918E0,-4.271899E-2,-4.0052706E-1,-1.92789E0,3.2091727E0,-3.1749073E-1,-1.0461264E0,5.0811334E0,-2.3993633E0,9.671553E-2,8.023532E0,3.205429E0,-5.7613373E-2,-4.01659E-1,2.336935E0,-2.0623803E0,-4.5907345E0,2.0789845E-1,5.7341065E0,6.630581E-1,-1.16467085E1,-2.0368855E0,1.1528158E0,-1.2702765E0,-1.1037732E0,8.929103E-1,2.4169338E0,-2.2992907E0,4.4714737E-1,3.4663815E0,-2.0569656E0,2.6874645E0,-1.539121E0,2.1642876E-1,-3.894329E-1,5.9182763E0,-3.1031547E0,3.0923665E0,1.7310283E-1,-3.5400412E0,-1.9855118E-1,4.406273E0,3.050925E0,1.2997691E-1,-2.7775335E0,3.9911652E-1,-5.180403E0,-1.4108639E0,-5.951309E-1,9.069786E-1,9.106445E0,1.8894142E0,-1.2746952E0,1.6441674E0,-2.74509E0,2.9455313E-1,-1.8018575E0,2.0300312E0,-1.480548E0,3.044613E0],"categories":[],"categories_nodes":[],"categories_segments":[],"categories_sizes":[],"default_left":[1,1,1,1,1,1,1,1,1,1,1,0,0,1,1,1,1,1,1,1,1,1,1,1,0,1,1,1,1,1,1,1,1,1,1,0,1,0,0,1,1,1,1,1,1,0,1,1,1,0,0,0,0,0,0,0,0,0,0,0,0,0,0,0,0,0,0,0,0,0,0,0,0,0,0,0,0,0,0,0,0,0,0,0,0],"id":25,"left_children":[1,3,5,7,9,11,13,15,17,19,21,-1,-1,23,25,27,29,31,33,35,37,39,41,43,-1,45,47,49,51,53,55,57,59,61,63,-1,65,-1,-1,67,69,71,73,75,77,-1,79,81,83,-1,-1,-1,-1,-1,-1,-1,-1,-1,-1,-1,-1,-1,-1,-1,-1,-1,-1,-1,-1,-1,-1,-1,-1,-1,-1,-1,-1,-1,-1,-1,-1,-1,-1,-1,-1],"loss_changes":[8.0074455E1,8.7615616E1,2.735724E2,8.3798706E1,2.0575327E2,2.4086572E2,2.4236722E2,1.1968417E2,1.2127743E2,7.9986755E1,5.315509E1,0E0,0E0,3.0552094E2,2.1940327E2,9.950995E1,4.7932587E1,9.004229E1,1.2868945E2,1.2662201E1,4.805699E-2,5.910015E1,3.1982243E1,1.6664752E2,0E0,1.8628516E2,1.0713072E2,1.0286131E2,1.1851419E2,5.554184E0,4.211733E1,2.8228416E0,3.894191E1,9.462679E1,9.450987E1,0E0,1.7225468E1,0E0,0E0,1.2209415E1,9.910297E0,1.914444E-1,2.2239165E0,8.651898E1,7.243828E1,0E0,1.5668789E1,9.9557556E1,3.717043E1,0E0,0E0,0E0,0E0,0E0,0E0,0E0,0E0,0E0,0E0,0E0,0E0,0E0,0E0,0E0,0E0,0E0,0E0,0E0,0E0,0E0,0E0,0E0,0E0,0E0,0E0,0E0,0E0,0E0,0E0,0E0,0E0,0E0,0E0,0E0,0E0],"parents":[2147483647,0,0,1,1,2,2,3,3,4,4,5,5,6,6,7,7,8,8,9,9,10,10,13,13,14,14,15,15,16,16,17,17,18,18,19,19,20,20,21,21,22,22,23,23,25,25,26,26,27,27,28,28,29,29,30,30,31,31,32,32,33,33,34,34,36,36,39,39,40,40,41,41,42,42,43,43,44,44,46,46,47,47,48,48],"right_children":[2,4,6,8,10,12,14,16,18,20,22,-1,-1,24,26,28,30,32,34,36,38,40,42,44,-1,46,48,50,52,54,56,58,60,62,64,-1,66,-1,-1,68,70,72,74,76,78,-1,80,82,84,-1,-1,-1,-1,-1,-1,-1,-1,-1,-1,-1,-1,-1,-1,-1,-1,-1,-1,-1,-1,-1,-1,-1,-1,-1,-1,-1,-1,-1,-1,-1,-1,-1,-1,-1,-1],"split_conditions":[6.3981116E2,2.05E1,6.505047E2,3.7727933E2,1.0472934E4,1.2625E4,2.36E3,6.9976826E0,5.896817E1,2.6546702E0,7.965236E1,2.8768742E0,-6.53656E-1,2.202E3,3.481E3,3.3672073E2,1.2129903E2,1.3719112E2,6.1206207E1,4.4E1,4.87215E3,3.5943988E2,1.2521502E2,5.320683E2,4.3005733E0,7.4700696E2,1.2057018E2,3.0874396E2,2.4294153E2,1.5460248E3,7.984316E2,4.7615146E3,9.434719E0,8.245836E3,6.088488E2,2.4070597E0,7.5525E3,-1.7284013E-2,-1.2049771E-1,2.4500516E4,1.978358E4,3.4167625E4,1.23809E4,3.2450001E0,9.913141E2,-3.4940126E0,2.865897E3,6.333135E1,6.24292E2,-3.31132E-1,2.678731E-1,7.2508013E-1,-6.897872E-1,1.3414422E-1,1.0399145E0,-6.170897E-1,8.0623937E-1,-4.6173632E-1,6.492863E-2,-1.1682988E-1,1.775483E0,-9.309464E-1,9.2771E-1,5.193085E-2,-1.0620124E0,-5.9565354E-2,1.3218819E0,9.1527754E-1,3.8993075E-2,-8.332601E-1,1.1973496E-1,-1.554121E0,-4.2325917E-1,-1.7853928E-1,2.720936E-1,2.7319336E0,5.6682426E-1,-3.8240856E-1,4.9325025E-1,-8.2352704E-1,8.836594E-2,-5.4055727E-1,6.090094E-1,-4.4416443E-1,9.133839E-1],"split_indices":[10,2,10,6,1,4,4,7,12,7,12,0,0,4,4,6,11,10,12,2,1,10,11,8,0,10,11,6,8,1,8,1,1,1,10,0,4,0,0,1,1,1,0,7,8,0,1,12,6,0,0,0,0,0,0,0,0,0,0,0,0,0,0,0,0,0,0,0,0,0,0,0,0,0,0,0,0,0,0,0,0,0,0,0,0],"split_type":[0,0,0,0,0,0,0,0,0,0,0,0,0,0,0,0,0,0,0,0,0,0,0,0,0,0,0,0,0,0,0,0,0,0,0,0,0,0,0,0,0,0,0,0,0,0,0,0,0,0,0,0,0,0,0,0,0,0,0,0,0,0,0,0,0,0,0,0,0,0,0,0,0,0,0,0,0,0,0,0,0,0,0,0,0],"sum_hessian":[7.2E2,5.88E2,1.32E2,5.63E2,2.5E1,7E0,1.25E2,1.95E2,3.68E2,9E0,1.6E1,5E0,2E0,4.4E1,8.1E1,1.8E2,1.5E1,1E1,3.58E2,7E0,2E0,1.1E1,5E0,4.3E1,1E0,1E1,7.1E1,1.11E2,6.9E1,9E0,6E0,3E0,7E0,2.1E1,3.37E2,4E0,3E0,1E0,1E0,7E0,4E0,3E0,2E0,7E0,3.6E1,2E0,8E0,3.6E1,3.5E1,7.2E1,3.9E1,5E0,6.4E1,1E0,8E0,4E0,2E0,2E0,1E0,1E0,6E0,1.9E1,2E0,3.31E2,6E0,1E0,2E0,5E0,2E0,3E0,1E0,2E0,1E0,1E0,1E0,3E0,4E0,1.2E1,2.4E1,6E0,2E0,8E0,2.8E1,3.4E1,1E0],"tree_param":{"num_deleted":"0","num_feature":"13","num_nodes":"85","size_leaf_vector":"0"}},{"base_weights":[-8.114482E-3,-1.9941665E-1,5.2463007E-1,1.5121674E-2,-1.4412463E0,4.9299307E0,3.58695E-1,1.4889023E-1,-9.82337E-1,-2.9365854E0,-6.668869E-1,5.271151E0,1.4413033E0,1.8437752E0,8.896817E-2,8.705383E-2,4.2980323E0,-2.1347947E0,-2.124731E-2,-4.248067E0,1.5838538E-1,-2.8424202E-2,-4.3344946E0,8.227825E-2,3.7252162E0,-5.82427E-1,6.8125963E-1,3.6650429E0,5.1235393E-2,5.5467963E0,2.286951E0,-2.5036495E0,3.35886E0,1.8770905E0,-6.5314126E-1,-4.8754525E0,7.2313946E-1,3.44796E0,-1.2740587E0,1.9335034E0,-1.3128449E0,-5.8113494E0,6.404623E-2,2.0136294E0,-1.2778953E0,-8.937813E-1,5.6621933E0,3.020696E0,-8.787131E-1,2.048561E0,-1.6692932E-1,4.9355187E0,-7.31926E-2,-2.1976562E0,1.0832873E-1,-2.9654562E0,1.7174835E0,1.4371796E0,-1.4297582E0,-5.257533E0,6.189194E-1,-4.827652E-1,1.5674744E0,1.32687E0,-1.9286919E0,3.898875E-2,4.5335875E0,-4.600516E0,-4.3622527E-1,-7.5066833E0,-3.0870113E0,5.5903244E-1,-4.629631E-1,4.436447E0,1.5721282E-1,-7.7060616E-1,-2.921749E0,3.1915793E-1,-1.8087934E0,8.037358E0,1.6795563E0,1.3872367E0,-1.1884724E0,1.3682951E0,4.379792E0,6.149273E0,-4.0212697E-1],"categories":[],"categories_nodes":[],"categories_segments":[],"categories_sizes":[],"default_left":[1,1,1,1,1,1,1,1,1,1,1,0,0,1,1,1,1,1,1,1,1,1,1,1,1,1,1,1,1,0,0,1,0,0,1,1,1,0,1,1,1,1,1,1,1,1,1,0,1,1,1,0,0,0,0,0,0,0,0,0,0,0,0,0,0,0,0,0,0,0,0,0,0,0,0,0,0,0,0,0,0,0,0,0,0,0,0],"id":26,"left_children":[1,3,5,7,9,11,13,15,17,19,21,-1,-1,23,25,27,29,31,33,35,37,39,41,43,45,47,49,51,53,-1,-1,55,-1,-1,57,59,61,-1,63,65,67,69,71,73,75,77,79,-1,81,83,85,-1,-1,-1,-1,-1,-1,-1,-1,-1,-1,-1,-1,-1,-1,-1,-1,-1,-1,-1,-1,-1,-1,-1,-1,-1,-1,-1,-1,-1,-1,-1,-1,-1,-1,-1,-1],"loss_changes":[7.521612E1,1.4468787E2,1.4077548E2,6.205713E1,9.0675995E1,7.3542786E-1,7.554292E1,1.0481871E2,6.0873486E1,1.1026578E2,1.2632487E2,0E0,0E0,9.5803925E1,6.442031E1,5.171619E1,2.3829422E0,5.9068413E1,3.8411995E1,6.2783997E1,4.680209E1,1.2097559E2,5.2340225E1,4.4604774E1,1.3031725E2,8.378851E1,1.00078735E2,1.9358597E1,5.1853554E1,0E0,0E0,5.1877472E1,0E0,0E0,4.1015907E1,3.8941986E1,3.8112845E0,0E0,1.4477702E1,9.341528E1,8.157222E1,4.5387726E0,1.0413984E0,3.0786846E1,6.087574E0,6.1265607E0,8.109506E1,0E0,5.1483524E1,4.634044E1,8.269281E1,0E0,0E0,0E0,0E0,0E0,0E0,0E0,0E0,0E0,0E0,0E0,0E0,0E0,0E0,0E0,0E0,0E0,0E0,0E0,0E0,0E0,0E0,0E0,0E0,0E0,0E0,0E0,0E0,0E0,0E0,0E0,0E0,0E0,0E0,0E0,0E0],"parents":[2147483647,0,0,1,1,2,2,3,3,4,4,5,5,6,6,7,7,8,8,9,9,10,10,13,13,14,14,15,15,16,16,17,17,18,18,19,19,20,20,21,21,22,22,23,23,24,24,25,25,26,26,27,27,28,28,31,31,34,34,35,35,36,36,38,38,39,39,40,40,41,41,42,42,43,43,44,44,45,45,46,46,48,48,49,49,50,50],"right_children":[2,4,6,8,10,12,14,16,18,20,22,-1,-1,24,26,28,30,32,34,36,38,40,42,44,46,48,50,52,54,-1,-1,56,-1,-1,58,60,62,-1,64,66,68,70,72,74,76,78,80,-1,82,84,86,-1,-1,-1,-1,-1,-1,-1,-1,-1,-1,-1,-1,-1,-1,-1,-1,-1,-1,-1,-1,-1,-1,-1,-1,-1,-1,-1,-1,-1,-1,-1,-1,-1,-1,-1,-1],"split_conditions":[8.605123E3,5.602626E3,8.908705E3,8.638E3,7.7865E3,2.8153215E-2,1.23413025E2,8.227E3,1.0295782E0,1.2951936E3,8.436613E3,1.5813454E0,4.32391E-1,1.46E4,3.5644946E2,9.2416565E1,8.3905E3,5.4E1,7.7926953E2,1.7361858E-1,6.025927E3,3.8455756E2,1.1780679E2,1.1748212E2,7.506638E1,6.147727E1,5.784934E2,3.698799E3,9.902326E1,1.664039E0,6.8608534E-1,4.714273E2,1.007658E0,5.6312716E-1,1.2608228E0,8.372125E3,6.8652446E3,1.0343881E0,1.1338549E2,8.47011E2,4.0182623E2,8.506193E3,8.522821E3,1.0401018E4,1.4E1,3.0742184E4,2.622641E4,9.062088E-1,2.579227E2,5.234252E2,3.58982E2,1.4806557E0,-2.195778E-2,-6.592969E-1,3.249862E-2,-8.8963693E-1,5.152451E-1,4.311539E-1,-4.2892748E-1,-1.57726E0,1.8567581E-1,-1.4482957E-1,4.7024232E-1,3.98061E-1,-5.7860756E-1,1.16966255E-2,1.3600763E0,-1.3801548E0,-1.3086759E-1,-2.252005E0,-9.261034E-1,1.6770974E-1,-1.3888894E-1,1.3309342E0,4.7163848E-2,-2.3118186E-1,-8.7652475E-1,9.574738E-2,-5.4263806E-1,2.4112077E0,5.038669E-1,4.1617104E-1,-3.5654172E-1,4.1048855E-1,1.3139377E0,1.844782E0,-1.20638095E-1],"split_indices":[1,1,1,4,4,5,10,4,7,8,1,0,0,4,10,11,4,2,8,5,1,6,11,11,10,12,8,1,11,0,0,6,0,0,7,1,1,0,11,8,6,1,1,1,2,1,1,0,6,8,10,0,0,0,0,0,0,0,0,0,0,0,0,0,0,0,0,0,0,0,0,0,0,0,0,0,0,0,0,0,0,0,0,0,0,0,0],"split_type":[0,0,0,0,0,0,0,0,0,0,0,0,0,0,0,0,0,0,0,0,0,0,0,0,0,0,0,0,0,0,0,0,0,0,0,0,0,0,0,0,0,0,0,0,0,0,0,0,0,0,0,0,0,0,0,0,0,0,0,0,0,0,0,0,0,0,0,0,0,0,0,0,0,0,0,0,0,0,0,0,0,0,0,0,0,0,0],"sum_hessian":[7.36E2,5.42E2,1.94E2,4.63E2,7.9E1,6E0,1.88E2,4.09E2,5.4E1,2.6E1,5.3E1,5E0,1E0,2.8E1,1.6E2,4.04E2,5E0,2.4E1,3E1,1.8E1,8E0,4.6E1,7E0,1.5E1,1.3E1,7.5E1,8.5E1,3E0,4.01E2,2E0,3E0,2.3E1,1E0,7E0,2.3E1,1.6E1,2E0,2E0,6E0,1.8E1,2.8E1,5E0,2E0,6E0,9E0,4E0,9E0,5E0,7E1,3.2E1,5.3E1,2E0,1E0,9E0,3.92E2,2.1E1,2E0,6E0,1.7E1,1.5E1,1E0,1E0,1E0,1E0,5E0,1.1E1,7E0,5E0,2.3E1,2E0,3E0,1E0,1E0,2E0,4E0,8E0,1E0,2E0,2E0,5E0,4E0,8E0,6.2E1,2.6E1,6E0,1E0,5.2E1],"tree_param":{"num_deleted":"0","num_feature":"13","num_nodes":"87","size_leaf_vector":"0"}},{"base_weights":[1.0070717E-1,1.1907166E-1,-6.487404E0,2.6540005E0,8.284356E-2,3.481113E-1,6.0258064E0,-1.3105986E-1,5.066739E-1,-2.18536E0,1.1345831E0,4.9300188E-1,-4.386984E-1,1.594301E0,1.0138592E-1,1.6087387E0,-6.180973E-1,8.8446444E-1,-1.1013794E0,-3.6299582E0,-2.4381164E-1,7.7553576E-1,3.356808E0,-4.907316E0,2.1864136E-1,4.7058105E-1,1.7756329E0,3.5110648E0,6.255334E-1,-3.0225837E-1,-3.021202E0,-2.439298E0,-1.1935591E1,-1.0043851E0,1.5324093E-1,4.7598686E0,3.7761036E-1,4.6365476E0,-4.0200868E-1,-9.243855E-2,1.3016672E0],"categories":[],"categories_nodes":[],"categories_segments":[],"categories_sizes":[],"default_left":[1,1,0,1,1,1,0,1,1,0,1,1,1,1,1,1,0,1,1,1,1,1,1,0,1,0,0,0,0,0,0,0,0,0,0,0,0,0,0,0,0],"id":27,"left_children":[1,3,-1,5,7,9,-1,11,13,-1,15,17,19,21,23,25,-1,27,29,31,33,35,37,-1,39,-1,-1,-1,-1,-1,-1,-1,-1,-1,-1,-1,-1,-1,-1,-1,-1],"loss_changes":[8.70364E1,6.516713E1,0E0,7.5652466E1,6.379951E1,1.6427E1,0E0,9.006547E1,1.03867676E2,0E0,5.980616E0,9.771591E1,1.9440234E2,8.975377E1,1.02675415E2,1.14180565E-1,0E0,8.281725E1,4.6646103E1,1.488909E2,8.984424E1,6.954865E1,9.807004E1,0E0,5.7394608E1,0E0,0E0,0E0,0E0,0E0,0E0,0E0,0E0,0E0,0E0,0E0,0E0,0E0,0E0,0E0,0E0],"parents":[2147483647,0,0,1,1,3,3,4,4,5,5,7,7,8,8,10,10,11,11,12,12,13,13,14,14,15,15,17,17,18,18,19,19,20,20,21,21,22,22,24,24],"right_children":[2,4,-1,6,8,10,-1,12,14,-1,16,18,20,22,24,26,-1,28,30,32,34,36,38,-1,40,-1,-1,-1,-1,-1,-1,-1,-1,-1,-1,-1,-1,-1,-1,-1,-1],"split_conditions":[2.155E2,1.3025E2,-1.9462212E0,9.517063E1,3.8802316E2,2.45E1,1.807742E0,1.1602484E2,4.844198E2,-6.55608E-1,1.2761861E2,3.0291888E2,1.1719214E2,1.2861847E3,4.9636716E2,3.96925E2,-1.854292E-1,1.5669058E2,1.0009114E4,1.1714581E2,1.469689E3,5.9256996E1,1.3238804E4,-1.4721949E0,1.2456707E4,1.4117432E-1,5.3268987E-1,1.0533195E0,1.8766002E-1,-9.0677515E-2,-9.063607E-1,-7.317894E-1,-3.5806773E0,-3.0131555E-1,4.597228E-2,1.4279606E0,1.1328311E-1,1.3909643E0,-1.2060261E-1,-2.7731566E-2,3.905002E-1],"split_indices":[2,6,0,6,10,6,0,11,10,0,11,10,11,8,10,1,0,8,1,11,1,12,4,0,1,0,0,0,0,0,0,0,0,0,0,0,0,0,0,0,0],"split_type":[0,0,0,0,0,0,0,0,0,0,0,0,0,0,0,0,0,0,0,0,0,0,0,0,0,0,0,0,0,0,0,0,0,0,0,0,0,0,0,0,0],"sum_hessian":[7.12E2,7.11E2,1E0,9E0,7.02E2,6E0,3E0,4.67E2,2.35E2,1E0,5E0,1.54E2,3.13E2,6.3E1,1.72E2,4E0,1E0,1.24E2,3E1,1.7E1,2.96E2,4.4E1,1.9E1,3E0,1.69E2,1E0,3E0,1E1,1.14E2,2.2E1,8E0,1.6E1,1E0,1.01E2,1.95E2,3E0,4.1E1,1.4E1,5E0,1.32E2,3.7E1],"tree_param":{"num_deleted":"0","num_feature":"13","num_nodes":"41","size_leaf_vector":"0"}},{"base_weights":[-8.446646E-2,-4.9081853E-1,2.4552396E-1,-5.986985E-1,1.4862388E0,1.6476867E0,1.05790116E-1,1.1315624E-1,-8.9912415E-1,2.6455421E0,-1.0800743E0,9.986166E-1,1.2182571E1,4.4700292E-1,-6.064484E-1,-8.4220475E-1,1.8467472E0,-4.3752933E0,-7.789703E-1,3.1754007E0,7.91975E-1,-1.7437311E0,-3.1231308E-1,3.810834E0,2.4225023E-2,1.5183505E0,2.0780737E-2,1.0758394E0,-1.300182E0,-1.7820326E0,6.417885E-1,-6.199666E-1,3.2858202E0,-3.7396748E-2,-6.1029725E0,-2.6972253E0,-5.515598E-1,3.5256958E0,1.8651962E-1,1.0662256E0,-1.5388489E-2,4.884773E0,-2.390339E0,-1.1478958E0,9.018016E-1,2.2673779E0,-1.6397146E0,-1.8797555E0,3.3119005E-1,1.2783726E-1,3.4330611E0,-2.0756733E0,2.4215238E-1,-2.1635308E0,1.0922616E0,-1.4093791E0,1.4038099E0,2.1353607E0,-4.1904087E0,2.3336353E0,8.221051E0,-3.7402725E-1,3.1793213E-1,-6.703968E0,-1.8494949E0,-4.3972716E0,1.5739125E0,4.1987735E-1,-8.8523966E-1,6.321564E-1,3.8487506E0,7.536242E0,2.7449093E0,-1.4475007E0,1.0738792E0,-3.5604224E-1,3.7402663E0,1.3898647E0,4.4291387E0,-2.927242E-1,-3.3869145E0,-4.2380605E0,-2.5015004E-2,6.5663795E0,7.617433E-2,1.0438232E0,-3.0994198E0,4.499823E0,-5.559909E-1,-3.2498282E-1,-3.5821059E0,1.2782959E0,-1.1314316E0],"categories":[],"categories_nodes":[],"categories_segments":[],"categories_sizes":[],"default_left":[1,1,1,1,1,1,1,1,1,1,1,1,0,1,1,1,1,1,1,1,1,0,0,1,1,1,1,1,1,1,1,1,1,1,1,1,1,1,0,0,0,1,0,1,1,1,1,1,1,1,1,1,1,0,0,0,0,0,0,0,0,0,0,0,0,0,0,0,0,0,0,0,0,0,0,0,0,0,0,0,0,0,0,0,0,0,0,0,0,0,0,0,0],"id":28,"left_children":[1,3,5,7,9,11,13,15,17,19,21,23,-1,25,27,29,31,33,35,37,39,-1,-1,41,43,45,47,49,51,53,55,57,59,61,63,65,67,69,-1,-1,-1,71,-1,73,75,77,79,81,83,85,87,89,91,-1,-1,-1,-1,-1,-1,-1,-1,-1,-1,-1,-1,-1,-1,-1,-1,-1,-1,-1,-1,-1,-1,-1,-1,-1,-1,-1,-1,-1,-1,-1,-1,-1,-1,-1,-1,-1,-1,-1,-1],"loss_changes":[9.666695E1,6.978083E1,7.780567E1,6.575658E1,5.3434685E1,2.3399792E2,8.848912E1,1.5392622E2,8.68096E1,9.270699E0,2.5125895E0,9.58147E1,0E0,1.1229994E2,1.3911183E2,8.482559E1,1.19179886E2,5.2233215E1,9.0120895E1,8.765305E0,9.0208745E-1,0E0,0E0,7.16134E1,2.880807E1,1.6930124E2,1.0504267E2,7.7773926E1,1.0097226E2,4.2935036E1,3.9491306E1,1.3683861E2,7.949936E1,4.777589E-1,3.826599E-1,1.6666582E2,6.1635857E1,5.045166E0,0E0,0E0,0E0,2.4703964E1,0E0,9.542299E0,5.845722E1,1.0197162E2,3.1957031E1,1.0924507E2,2.4278072E2,8.009443E1,4.505555E1,1.465245E2,4.2719975E1,0E0,0E0,0E0,0E0,0E0,0E0,0E0,0E0,0E0,0E0,0E0,0E0,0E0,0E0,0E0,0E0,0E0,0E0,0E0,0E0,0E0,0E0,0E0,0E0,0E0,0E0,0E0,0E0,0E0,0E0,0E0,0E0,0E0,0E0,0E0,0E0,0E0,0E0,0E0,0E0],"parents":[2147483647,0,0,1,1,2,2,3,3,4,4,5,5,6,6,7,7,8,8,9,9,10,10,11,11,13,13,14,14,15,15,16,16,17,17,18,18,19,19,20,20,23,23,24,24,25,25,26,26,27,27,28,28,29,29,30,30,31,31,32,32,33,33,34,34,35,35,36,36,37,37,41,41,43,43,44,44,45,45,46,46,47,47,48,48,49,49,50,50,51,51,52,52],"right_children":[2,4,6,8,10,12,14,16,18,20,22,24,-1,26,28,30,32,34,36,38,40,-1,-1,42,44,46,48,50,52,54,56,58,60,62,64,66,68,70,-1,-1,-1,72,-1,74,76,78,80,82,84,86,88,90,92,-1,-1,-1,-1,-1,-1,-1,-1,-1,-1,-1,-1,-1,-1,-1,-1,-1,-1,-1,-1,-1,-1,-1,-1,-1,-1,-1,-1,-1,-1,-1,-1,-1,-1,-1,-1,-1,-1,-1,-1],"split_conditions":[2.469393E2,1.3931399E3,2.6797797E2,1.14403336E2,5.415475E2,2.6715155E2,1.6354406E0,1.106964E2,1.1489143E2,1.2954718E2,4.9944813E-3,3.119792E2,3.6547716E0,1.471E3,3.5409088E2,2.92775E4,3.898203E2,4.2701788E2,2.5733496E2,1.412076E3,5.2111865E3,-5.231194E-1,-9.369393E-2,2.579227E2,1.2060265E2,1.3821938E3,3.0765E3,5E0,5.342604E2,5.493788E2,5.9045383E1,3.0082928E2,7.634625E1,3.8308655E2,1.2308391E4,2.2157425E2,3.6129114E2,8.896429E1,5.595589E-2,3.198677E-1,-4.616547E-3,5.523652E2,-7.171017E-1,8.9326196E2,2.0192905E3,5E0,7.590207E1,3.8516077E2,3.393E3,7.597688E2,2.641185E5,1.1867901E2,5.771386E2,-6.490593E-1,3.2767847E-1,-4.2281374E-1,4.21143E-1,6.4060825E-1,-1.2571226E0,7.0009065E-1,2.4663155E0,-1.1220818E-1,9.537964E-2,-2.0111904E0,-5.548485E-1,-1.3191816E0,4.7217378E-1,1.2596321E-1,-2.6557192E-1,1.8964691E-1,1.1546252E0,2.2608726E0,8.234728E-1,-4.3425024E-1,3.221638E-1,-1.0681268E-1,1.12208E0,4.1695943E-1,1.3287417E0,-8.781726E-2,-1.0160744E0,-1.2714182E0,-7.5045014E-3,1.969914E0,2.2852302E-2,