{"learner":{"attributes":{"best_iteration":"199","best_ntree_limit":"200","scikit_learn":"{\"n_estimators\": 100, \"objective\": \"reg:squarederror\", \"max_depth\": null, \"max_leaves\": null, \"max_bin\": null, \"grow_policy\": null, \"learning_rate\": null, \"verbosity\": null, \"booster\": null, \"tree_method\": null, \"gamma\": null, \"min_child_weight\": null, \"max_delta_step\": null, \"subsample\": 1.0, \"sampling_method\": null, \"colsample_bytree\": null, \"colsample_bylevel\": null, \"colsample_bynode\": null, \"reg_alpha\": null, \"reg_lambda\": null, \"scale_pos_weight\": null, \"base_score\": null, \"missing\": NaN, \"num_parallel_tree\": null, \"random_state\": null, \"n_jobs\": null, \"monotone_constraints\": null, \"interaction_constraints\": null, \"importance_type\": null, \"gpu_id\": null, \"validate_parameters\": null, \"predictor\": null, \"enable_categorical\": false, \"feature_types\": null, \"max_cat_to_onehot\": null, \"max_cat_threshold\": null, \"eval_metric\": null, \"early_stopping_rounds\": null, \"callbacks\": null, \"_estimator_type\": \"regressor\"}"},"feature_names":["distance_cycling","distance_walking","floors","active_calories","steps","heart_rate","sleep_minutes","awake_count","bed_time","active_minutes","wo_calories","systolic_hist","diastolic_hist"],"feature_types":["float","float","float","float","float","float","float","float","float","float","float","float","float"],"gradient_booster":{"model":{"gbtree_model_param":{"num_parallel_tree":"1","num_trees":"200","size_leaf_vector":"0"},"tree_info":[0,0,0,0,0,0,0,0,0,0,0,0,0,0,0,0,0,0,0,0,0,0,0,0,0,0,0,0,0,0,0,0,0,0,0,0,0,0,0,0,0,0,0,0,0,0,0,0,0,0,0,0,0,0,0,0,0,0,0,0,0,0,0,0,0,0,0,0,0,0,0,0,0,0,0,0,0,0,0,0,0,0,0,0,0,0,0,0,0,0,0,0,0,0,0,0,0,0,0,0,0,0,0,0,0,0,0,0,0,0,0,0,0,0,0,0,0,0,0,0,0,0,0,0,0,0,0,0,0,0,0,0,0,0,0,0,0,0,0,0,0,0,0,0,0,0,0,0,0,0,0,0,0,0,0,0,0,0,0,0,0,0,0,0,0,0,0,0,0,0,0,0,0,0,0,0,0,0,0,0,0,0,0,0,0,0,0,0,0,0,0,0,0,0,0,0,0,0,0,0],"trees":[{"base_weights":[1.1891719E2,1.0093E2,1.2179705E2],"categories":[],"categories_nodes":[],"categories_segments":[],"categories_sizes":[],"default_left":[1,0,0],"id":0,"left_children":[1,-1,-1],"loss_changes":[4.283E3,0E0,0E0],"parents":[2147483647,0,0],"right_children":[2,-1,-1],"split_conditions":[1.08404785E2,3.0279001E1,3.6539116E1],"split_indices":[11,0,0],"split_type":[0,0,0],"sum_hessian":[3.19E2,4.9E1,2.7E2],"tree_param":{"num_deleted":"0","num_feature":"13","num_nodes":"3","size_leaf_vector":"0"}},{"base_weights":[8.401859E1,7.6975E1,8.937632E1],"categories":[],"categories_nodes":[],"categories_segments":[],"categories_sizes":[],"default_left":[1,0,0],"id":1,"left_children":[1,-1,-1],"loss_changes":[4.8945E3,0E0,0E0],"parents":[2147483647,0,0],"right_children":[2,-1,-1],"split_conditions":[1.1887828E2,2.30925E1,2.6812897E1],"split_indices":[11,0,0],"split_type":[0,0,0],"sum_hessian":[3.11E2,1.41E2,1.7E2],"tree_param":{"num_deleted":"0","num_feature":"13","num_nodes":"3","size_leaf_vector":"0"}},{"base_weights":[5.9000458E1,5.338671E1,6.277923E1],"categories":[],"categories_nodes":[],"categories_segments":[],"categories_sizes":[],"default_left":[1,0,0],"id":2,"left_children":[1,-1,-1],"loss_changes":[3.20325E3,0E0,0E0],"parents":[2147483647,0,0],"right_children":[2,-1,-1],"split_conditions":[7.039591E1,1.6016014E1,1.8833769E1],"split_indices":[12,0,0],"split_type":[0,0,0],"sum_hessian":[3.08E2,1.3E2,1.78E2],"tree_param":{"num_deleted":"0","num_feature":"13","num_nodes":"3","size_leaf_vector":"0"}},{"base_weights":[4.1303677E1,3.8774303E1,4.8914116E1,2.1223427E1,3.9201332E1,4.929545E1,1.0157108E1],"categories":[],"categories_nodes":[],"categories_segments":[],"categories_sizes":[],"default_left":[1,1,1,0,0,0,0],"id":3,"left_children":[1,3,5,-1,-1,-1,-1],"loss_changes":[4.2633125E3,1.00421875E3,6.225156E2,0E0,0E0,0E0,0E0],"parents":[2147483647,0,0,1,1,2,2],"right_children":[2,4,6,-1,-1,-1,-1],"split_conditions":[1.2795441E2,5.5592007E1,2.3473695E4,6.367028E0,1.17604E1,1.4788635E1,3.0471327E0],"split_indices":[11,12,1,0,0,0,0],"split_type":[0,0,0,0,0,0,0],"sum_hessian":[3.19E2,2.44E2,7.5E1,7E0,2.37E2,7.4E1,1E0],"tree_param":{"num_deleted":"0","num_feature":"13","num_nodes":"7","size_leaf_vector":"0"}},{"base_weights":[2.9432156E1,2.7827127E1,3.758237E1,1.215676E1,2.8089808E1,3.877926E1,-8.737209E0,1.8386724E1,2.849835E1,3.925731E1,8.633541E0,1.0459862E0,1.974462E1,2.7925005E1,3.6361755E1,3.968303E1,1.0262791E1,2.797633E1,8.137108E0,2.7065634E1,3.28612E1],"categories":[],"categories_nodes":[],"categories_segments":[],"categories_sizes":[],"default_left":[1,1,1,0,1,1,0,1,1,1,0,0,0,1,0,0,0,1,0,0,0],"id":4,"left_children":[1,3,5,-1,7,9,-1,11,13,15,-1,-1,-1,17,-1,-1,-1,19,-1,-1,-1],"loss_changes":[2.9178125E3,7.163906E2,2.9444766E3,0E0,4.7498438E2,3.2397656E2,0E0,2.8545703E2,6.6609375E1,1.4820312E2,0E0,0E0,0E0,3.90625E0,0E0,0E0,0E0,1.20453125E2,0E0,0E0,0E0],"parents":[2147483647,0,0,1,1,2,2,4,4,5,5,7,7,8,8,9,9,13,13,17,17],"right_children":[2,4,6,-1,8,10,-1,12,14,16,-1,-1,-1,18,-1,-1,-1,20,-1,-1,-1],"split_conditions":[1.3117737E2,9.411546E1,6.590541E2,3.6470282E0,5.07407E1,2.1422318E4,-2.621163E0,3.5482837E2,8.469141E1,1.4632112E3,2.5900624E0,3.1379586E-1,5.923386E0,1.5343784E0,1.0908527E1,1.1904909E1,3.0788374E0,6.759259E-2,2.4411325E0,8.119691E0,9.85836E0],"split_indices":[11,11,6,0,10,1,0,6,12,10,0,0,0,5,0,0,0,5,0,0,0],"split_type":[0,0,0,0,0,0,0,0,0,0,0,0,0,0,0,0,0,0,0,0,0],"sum_hessian":[3.02E2,2.56E2,4.6E1,5E0,2.51E2,4.5E1,1E0,1.2E1,2.39E2,4.4E1,1E0,1E0,1.1E1,2.27E2,1.2E1,4.3E1,1E0,2.26E2,1E0,1.96E2,3E1],"tree_param":{"num_deleted":"0","num_feature":"13","num_nodes":"21","size_leaf_vector":"0"}},{"base_weights":[2.0216501E1,1.9699368E1,3.9934544E1,1.5503799E1,2.1066694E1,4.3153522E1,1.0310337E1,1.5699586E1,1.1619949E-1,1.9935808E1,2.499765E1,1.6191996E1,7.0920043E0,1.1046557E1,2.0228254E1,2.705991E1,1.7522518E1,1.6639515E1,6.777826E0,2.291275E0,1.1128975E1,1.2520226E1,4.4170356E0,2.3371853E1,1.9185709E1,1.7521229E1,1.1493579E1,-3.0138588E0,9.979212E0,1.9959543E1,2.7500912E1,1.948514E1,9.400622E0],"categories":[],"categories_nodes":[],"categories_segments":[],"categories_sizes":[],"default_left":[1,1,1,1,1,0,0,1,0,1,1,1,1,1,1,0,0,1,1,0,0,0,0,1,1,0,0,0,0,0,0,0,0],"id":5,"left_children":[1,3,5,7,9,-1,-1,11,-1,13,15,17,19,21,23,-1,-1,25,27,-1,-1,-1,-1,29,31,-1,-1,-1,-1,-1,-1,-1,-1],"loss_changes":[2.3947344E3,1.4288203E3,2.2259082E2,2.3617969E2,5.1521875E2,0E0,0E0,2.1576562E2,0E0,2.4967969E2,2.5037695E2,1.9477148E2,9.078287E1,2.2855469E1,1.25125E2,0E0,0E0,1.116875E2,1.8681075E2,0E0,0E0,0E0,0E0,5.8984375E-1,2.1823438E2,0E0,0E0,0E0,0E0,0E0,0E0,0E0,0E0],"parents":[2147483647,0,0,1,1,2,2,3,3,4,4,7,7,9,9,10,10,11,11,12,12,13,13,14,14,17,17,18,18,23,23,24,24],"right_children":[2,4,6,8,10,-1,-1,12,-1,14,16,18,20,22,24,-1,-1,26,28,-1,-1,-1,-1,30,32,-1,-1,-1,-1,-1,-1,-1,-1],"split_conditions":[1.525594E2,1.119137E2,4.4106375E2,1.9339436E3,1.10945E5,1.2946057E1,3.0931013E0,1.9769E4,3.485985E-2,4.8494778E1,1.0797926E6,1.11455894E2,3.44145E4,5.035624E-1,5.3052185E2,8.117973E0,5.256756E0,3.1666665E0,3.8171887E2,6.873825E-1,3.3386927E0,3.7560678E0,1.3251107E0,7.9399155E1,6.758546E0,5.2563686E0,3.4480739E0,-9.041577E-1,2.9937637E0,5.987863E0,8.250274E0,5.845542E0,2.8201869E0],"split_indices":[11,11,6,10,3,0,0,4,0,10,3,11,4,5,8,0,0,7,6,0,0,0,0,12,7,0,0,0,0,0,0,0,0],"split_type":[0,0,0,0,0,0,0,0,0,0,0,0,0,0,0,0,0,0,0,0,0,0,0,0,0,0,0,0,0,0,0,0,0],"sum_hessian":[3.11E2,3.05E2,6E0,7.8E1,2.27E2,5E0,1E0,7.7E1,1E0,1.81E2,4.6E1,7.2E1,5E0,7E0,1.74E2,3.4E1,1.2E1,6.8E1,4E0,3E0,2E0,5E0,2E0,3.8E1,1.36E2,5.6E1,1.2E1,1E0,3E0,2.4E1,1.4E1,1.31E2,5E0],"tree_param":{"num_deleted":"0","num_feature":"13","num_nodes":"33","size_leaf_vector":"0"}},{"base_weights":[1.4163267E1,1.1067246E1,1.516164E1,1.03809185E1,2.1683828E1,1.5444245E1,5.1415358E0,8.754498E0,1.2333478E1,8.983663E0,2.9892162E1,1.4399925E1,1.8431953E1,9.157645E0,-1.1485615E1,6.2757764E0,1.140651E1,1.2740493E1,-3.4550858E-1,1.4516273E1,-2.9221916E0,1.47506E1,2.15865E1,9.967992E0,2.1477814E0,6.5189056E0,9.877014E-2,-1.344256E0,1.2819447E1,1.4138865E1,7.5958896E0,3.0648941E1,1.4245858E1,1.1835526E1,2.2221468E1,2.1949884E1,5.8875656E0,6.954508E0,2.4933681E0,-2.561779E0,5.453949E-1,1.7585932E1,9.860992E0,1.5139198E1,8.614667E0,3.5248425E0,1.1803488E1,1.3146108E1,1.6618866E1,1.3299821E1,6.5885935E0,2.512919E1,2.3875656E0,2.2318327E1,6.1851997E0],"categories":[],"categories_nodes":[],"categories_segments":[],"categories_sizes":[],"default_left":[1,1,1,1,1,1,1,1,1,0,0,1,1,1,0,1,1,1,0,1,0,1,1,0,0,1,0,1,1,1,1,0,1,1,1,1,0,0,0,0,0,0,0,0,0,0,0,0,0,0,0,0,0,0,0],"id":6,"left_children":[1,3,5,7,9,11,13,15,17,-1,-1,19,21,23,-1,25,27,29,-1,31,-1,33,35,-1,-1,37,-1,39,41,43,45,-1,47,49,51,53,-1,-1,-1,-1,-1,-1,-1,-1,-1,-1,-1,-1,-1,-1,-1,-1,-1,-1,-1],"loss_changes":[8.1204297E2,3.6510547E2,5.9171484E2,1.3972949E2,1.4844775E2,4.5220703E2,6.393928E2,2.3080103E2,1.746997E2,0E0,0E0,3.9510938E2,3.3191602E2,1.8353943E1,0E0,3.840332E1,3.9556934E2,1.2281299E2,0E0,3.2245312E2,0E0,3.685625E2,3.0500977E1,0E0,0E0,2.6498169E1,0E0,8.299261E0,9.451221E1,2.2060547E0,1.1255859E2,0E0,2.3301172E2,8.908325E1,3.4370288E2,1.8783203E1,0E0,0E0,0E0,0E0,0E0,0E0,0E0,0E0,0E0,0E0,0E0,0E0,0E0,0E0,0E0,0E0,0E0,0E0,0E0],"parents":[2147483647,0,0,1,1,2,2,3,3,4,4,5,5,6,6,7,7,8,8,11,11,12,12,13,13,15,15,16,16,17,17,19,19,21,21,22,22,25,25,27,27,28,28,29,29,30,30,32,32,33,33,34,34,35,35],"right_children":[2,4,6,8,10,12,14,16,18,-1,-1,20,22,24,-1,26,28,30,-1,32,-1,34,36,-1,-1,38,-1,40,42,44,46,-1,48,50,52,54,-1,-1,-1,-1,-1,-1,-1,-1,-1,-1,-1,-1,-1,-1,-1,-1,-1,-1,-1],"split_conditions":[1.13435455E2,1.4332037E1,6.3749426E2,6.8301025E1,2.1362834E5,1.3097699E2,8.5E0,1.0868091E2,1.1304286E2,2.6950989E0,8.967649E0,1.3068065E2,1.3408718E0,1.411883E0,-3.4456847E0,1.9339436E3,3.782601E2,5.48854E2,-1.03652574E-1,1.13497475E2,-8.7665755E-1,1.353291E3,1.0483879E4,2.9903977E0,6.4433444E-1,5.597219E2,2.9631043E-2,5.5485054E3,6.0468113E1,3.0179186E0,1.918E4,9.194683E0,7.9804825E1,5.5E0,9.119319E2,9.721377E1,1.7662698E0,2.0863523E0,7.4801046E-1,-7.6853377E-1,1.6361848E-1,5.2757797E0,2.9582977E0,4.5417595E0,2.5844002E0,1.0574528E0,3.5410464E0,3.9438324E0,4.98566E0,3.9899464E0,1.9765781E0,7.5387573E0,7.1626973E-1,6.6954985E0,1.85556E0],"split_indices":[11,7,6,12,3,11,2,11,11,0,0,11,7,5,0,10,6,10,0,11,0,8,1,0,0,6,0,1,12,7,3,0,12,2,1,12,0,0,0,0,0,0,0,0,0,0,0,0,0,0,0,0,0,0,0],"split_type":[0,0,0,0,0,0,0,0,0,0,0,0,0,0,0,0,0,0,0,0,0,0,0,0,0,0,0,0,0,0,0,0,0,0,0,0,0,0,0,0,0,0,0,0,0,0,0,0,0,0,0,0,0,0,0],"sum_hessian":[3.16E2,8E1,2.36E2,7.7E1,3E0,2.29E2,7E0,4.5E1,3.2E1,2E0,1E0,1.74E2,5.5E1,6E0,1E0,2.5E1,2E1,3.1E1,1E0,1.73E2,1E0,2.8E1,2.7E1,5E0,1E0,2.4E1,1E0,2E0,1.8E1,2.3E1,8E0,1E0,1.72E2,2.2E1,6E0,2.6E1,1E0,2.1E1,3E0,1E0,1E0,5E0,1.3E1,1.8E1,5E0,5E0,3E0,1.22E2,5E1,1.6E1,6E0,5E0,1E0,2.5E1,1E0],"tree_param":{"num_deleted":"0","num_feature":"13","num_nodes":"55","size_leaf_vector":"0"}},{"base_weights":[1.05053425E1,1.00458145E1,2.4757792E1,1.0188918E1,-4.923172E-1,3.3967255E1,1.0596769E1,9.921169E0,1.690796E1,-9.762772E0,4.2659893E0,3.8900402E0,1.3771243E1,8.73164E0,1.1159484E1,2.2677446E1,6.602988E0,1.2112261E1,7.9379225E0,1.1683773E1,4.680803E0,6.175972E0,2.4742546E1,1.5037923E1,4.590055E0,8.142869E0,-3.486805E-1,1.0833994E0,1.1844711E1,7.028123E0,1.1621284E0],"categories":[],"categories_nodes":[],"categories_segments":[],"categories_sizes":[],"default_left":[1,1,1,1,1,0,1,1,1,0,0,0,0,1,1,1,0,1,1,1,1,0,0,0,0,0,0,0,0,0,0],"id":7,"left_children":[1,3,5,7,9,-1,11,13,15,-1,-1,-1,-1,17,19,21,-1,23,25,27,29,-1,-1,-1,-1,-1,-1,-1,-1,-1,-1],"loss_changes":[1.7816016E3,4.604453E2,8.137954E2,3.6835938E2,2.622062E2,0E0,5.288092E1,3.2825977E2,4.4480518E2,0E0,0E0,0E0,0E0,3.1170898E2,4.140547E2,5.165381E1,0E0,5.251758E2,2.1682666E2,2.0383203E2,9.094583E1,0E0,0E0,0E0,0E0,0E0,0E0,0E0,0E0,0E0,0E0],"parents":[2147483647,0,0,1,1,2,2,3,3,4,4,6,6,7,7,8,8,13,13,14,14,15,15,17,17,18,18,19,19,20,20],"right_children":[2,4,6,8,10,-1,12,14,16,-1,-1,-1,-1,18,20,22,-1,24,26,28,30,-1,-1,-1,-1,-1,-1,-1,-1,-1,-1],"split_conditions":[1.489953E2,1.4203888E2,1.2711667E3,2.432537E4,2.3415513E3,1.0190177E1,1.525594E2,7.372057E1,7.1311966E1,-2.9288316E0,1.2797968E0,1.1670121E0,4.131373E0,6.0078873E1,1.91665E4,3.6895525E-2,1.9808964E0,1.3268622E-2,7.351091E1,2.0166667E0,6.0562476E2,1.8527917E0,7.4227643E0,4.511377E0,1.3770165E0,2.4428608E0,-1.04604155E-1,3.2501984E-1,3.5534136E0,2.108437E0,3.4863853E-1],"split_indices":[11,11,8,1,1,0,11,12,12,0,0,0,0,12,4,5,0,5,12,8,10,0,0,0,0,0,0,0,0,0,0],"split_type":[0,0,0,0,0,0,0,0,0,0,0,0,0,0,0,0,0,0,0,0,0,0,0,0,0,0,0,0,0,0,0],"sum_hessian":[3.09E2,3.01E2,8E0,2.97E2,4E0,4E0,4E0,2.88E2,9E0,1E0,3E0,2E0,2E0,1.51E2,1.37E2,5E0,4E0,2.6E1,1.25E2,1.26E2,1.1E1,1E0,4E0,1.8E1,8E0,1.22E2,3E0,2E0,1.24E2,6E0,5E0],"tree_param":{"num_deleted":"0","num_feature":"13","num_nodes":"31","size_leaf_vector":"0"}},{"base_weights":[7.652689E0,7.329486E0,2.0549538E1,7.064286E0,1.4393399E1,2.2406752E1,4.703129E0,6.8203506E0,1.40310955E1,5.624536E0,1.9301886E1,6.210377E0,9.715422E0,1.7781961E1,4.8970222E0,5.626896E0,2.0911503E1,5.0330467E0,7.5226765E0,1.1248027E1,5.593822E0,7.406552E0,3.8430436E0,2.174309E1,7.0622735E0,1.4946096E1,9.318877E0,6.678599E0,-9.714839E-1],"categories":[],"categories_nodes":[],"categories_segments":[],"categories_sizes":[],"default_left":[1,1,1,1,1,0,0,1,1,0,1,1,1,0,0,0,0,1,1,1,1,0,0,0,0,0,0,0,0],"id":8,"left_children":[1,3,5,7,9,-1,-1,11,13,-1,15,17,19,-1,-1,-1,-1,21,23,25,27,-1,-1,-1,-1,-1,-1,-1,-1],"loss_changes":[1.1373887E3,4.659453E2,1.00629395E2,4.039414E2,3.2185425E2,0E0,0E0,4.4471582E2,2.2126758E2,0E0,1.44021E1,3.3139453E2,2.4028613E2,0E0,0E0,0E0,0E0,3.3589404E2,5.731748E2,1.032793E2,1.1331656E2,0E0,0E0,0E0,0E0,0E0,0E0,0E0,0E0],"parents":[2147483647,0,0,1,1,2,2,3,3,4,4,7,7,8,8,10,10,11,11,12,12,17,17,18,18,19,19,20,20],"right_children":[2,4,6,8,10,-1,-1,12,14,-1,16,18,20,-1,-1,-1,-1,22,24,26,28,-1,-1,-1,-1,-1,-1,-1,-1],"split_conditions":[1.525594E2,1.4017687E1,4.4106375E2,2.462823E4,2.0912833E5,6.722026E0,1.4109387E0,1.3097699E2,7.1311966E1,1.6873609E0,3.353865E2,1.12124E3,8.4833786E1,5.3345885E0,1.4691067E0,1.6880689E0,6.2734513E0,5.185127E2,5.716587E1,1.3433115E2,5E0,2.2219656E0,1.1529131E0,6.5229273E0,2.1186821E0,4.483829E0,2.7956634E0,2.0035799E0,-2.9144517E-1],"split_indices":[11,7,6,1,3,0,0,11,12,0,6,8,12,0,0,0,0,8,12,11,2,0,0,0,0,0,0,0,0],"split_type":[0,0,0,0,0,0,0,0,0,0,0,0,0,0,0,0,0,0,0,0,0,0,0,0,0,0,0,0,0],"sum_hessian":[3.08E2,3.02E2,6E0,2.93E2,9E0,5E0,1E0,2.85E2,8E0,4E0,5E0,2.38E2,4.7E1,5E0,3E0,1E0,4E0,1.28E2,1.1E2,3.3E1,1.4E1,4.1E1,8.7E1,2E0,1.08E2,9E0,2.4E1,1.2E1,2E0],"tree_param":{"num_deleted":"0","num_feature":"13","num_nodes":"29","size_leaf_vector":"0"}},{"base_weights":[5.4801226E0,5.175675E0,1.5087136E1,4.0410423E0,6.862859E0,5.890973E0,2.1265873E1,4.522243E0,-2.090755E0,5.942752E0,1.0691392E1,1.5122833E0,8.306005E0,9.469538E0,4.1204205E0,-5.0190496E0,2.6501465E0,5.59748E0,1.27435875E1,8.179962E-1,1.2840035E1,1.8242912E0,4.4413376E-1,5.92833E0,2.421141E1,3.722163E0,9.682243E0,-6.82769E0,8.741277E-1,4.2065034E0,-2.5658188E0,6.0611385E-1,6.044353E0,-5.7581586E-1,1.9391428E0,1.4824886E1,2.1868382E0,6.895201E0,-1.8701897E0,-1.3136253E0,4.0529127E0,1.0396914E1,1.6251068E0,-2.9461555E0,-9.002302E0,8.635292E-1,4.8263645E0,-9.043096E-1,2.7202206E0,9.5601E0,5.067905E0,-8.359337E-1,-2.779007E-2,5.980339E-1,2.3106804E0,1.6602493E1,2.1802902E0,-2.3339462E-1,3.0713806E0],"categories":[],"categories_nodes":[],"categories_segments":[],"categories_sizes":[],"default_left":[1,1,1,1,1,1,0,1,1,1,1,1,0,1,1,1,1,1,0,1,1,0,0,1,0,1,1,1,0,1,0,1,1,1,1,1,1,0,0,0,0,0,0,0,0,0,0,0,0,0,0,0,0,0,0,0,0,0,0],"id":9,"left_children":[1,3,5,7,9,11,-1,13,15,17,19,21,-1,23,25,27,29,31,-1,33,35,-1,-1,37,-1,39,41,43,-1,45,-1,47,49,51,53,55,57,-1,-1,-1,-1,-1,-1,-1,-1,-1,-1,-1,-1,-1,-1,-1,-1,-1,-1,-1,-1,-1,-1],"loss_changes":[8.286123E2,5.503955E2,3.8610938E2,5.494192E2,3.5918262E2,4.0312363E1,0E0,2.9893018E2,2.076598E2,1.6113379E2,4.5621387E2,1.8958426E-1,0E0,4.8291504E2,3.161521E2,1.0189603E2,5.9500546E1,2.104646E2,0E0,8.929928E0,3.4819067E2,0E0,0E0,9.58371E1,0E0,2.5516211E2,4.0685852E1,3.256363E1,0E0,6.1931915E0,0E0,3.1198689E1,2.5364966E2,4.0442324E-1,1.1295128E-1,3.0095874E2,9.280041E0,0E0,0E0,0E0,0E0,0E0,0E0,0E0,0E0,0E0,0E0,0E0,0E0,0E0,0E0,0E0,0E0,0E0,0E0,0E0,0E0,0E0,0E0],"parents":[2147483647,0,0,1,1,2,2,3,3,4,4,5,5,7,7,8,8,9,9,10,10,11,11,13,13,14,14,15,15,16,16,17,17,19,19,20,20,23,23,25,25,26,26,27,27,29,29,31,31,32,32,33,33,34,34,35,35,36,36],"right_children":[2,4,6,8,10,12,-1,14,16,18,20,22,-1,24,26,28,30,32,-1,34,36,-1,-1,38,-1,40,42,44,-1,46,-1,48,50,52,54,56,58,-1,-1,-1,-1,-1,-1,-1,-1,-1,-1,-1,-1,-1,-1,-1,-1,-1,-1,-1,-1,-1,-1],"split_conditions":[1.489953E2,2.8770457E3,9.882E3,1.7670415E3,1.3305056E3,1.525594E2,6.379762E0,2.6397052E2,2.03722E3,5.9328103E-1,1.2505049E2,9.119319E2,2.4918015E0,2.4806718E2,8.688446E1,2.0488787E-1,2.7991807E3,5.66904E1,3.8230765E0,7.983721E3,1.393891E6,5.472874E-1,1.3324013E-1,1.2577725E3,7.2634234E0,1.0034307E2,9.040376E5,1.3233068E0,2.6223832E-1,2.200055E3,-7.6974565E-1,5.5E0,1.343713E2,5.130546E3,1.1817295E4,1.3432849E2,1.12274E4,2.0685604E0,-5.610569E-1,-3.940876E-1,1.2158738E0,3.119074E0,4.8753205E-1,-8.838467E-1,-2.7006907E0,2.5905877E-1,1.4479094E0,-2.712929E-1,8.160662E-1,2.86803E0,1.5203716E0,-2.507801E-1,-8.337021E-3,1.7941017E-1,6.9320416E-1,4.980748E0,6.5408707E-1,-7.001839E-2,9.214142E-1],"split_indices":[11,1,4,1,8,11,0,6,1,5,10,1,0,6,12,5,1,10,0,1,3,0,0,8,0,11,3,7,0,1,0,2,10,1,1,11,1,0,0,0,0,0,0,0,0,0,0,0,0,0,0,0,0,0,0,0,0,0,0],"split_type":[0,0,0,0,0,0,0,0,0,0,0,0,0,0,0,0,0,0,0,0,0,0,0,0,0,0,0,0,0,0,0,0,0,0,0,0,0,0,0,0,0,0,0,0,0,0,0,0,0,0,0,0,0,0,0,0,0,0,0],"sum_hessian":[3.09E2,3.01E2,8E0,1.82E2,1.19E2,4E0,4E0,1.69E2,1.3E1,9.8E1,2.1E1,2E0,2E0,1.1E1,1.58E2,8E0,5E0,9.5E1,3E0,4E0,1.7E1,1E0,1E0,1E1,1E0,1.49E2,9E0,6E0,2E0,4E0,1E0,8E0,8.7E1,2E0,2E0,1.4E1,3E0,9E0,1E0,9E0,1.4E2,8E0,1E0,3E0,3E0,1E0,3E0,5E0,3E0,1.7E1,7E1,1E0,1E0,1E0,1E0,1.2E1,2E0,1E0,2E0],"tree_param":{"num_deleted":"0","num_feature":"13","num_nodes":"59","size_leaf_vector":"0"}},{"base_weights":[4.062833E0,3.785344E0,1.4446418E1,3.3949459E0,6.7057805E0,3.775139E-1,1.640233E1,3.0454247E0,7.7689734E0,9.201085E0,3.0115814E0,6.276429E0,2.7646549E0,1.4893402E1,4.4012704E0,5.495146E0,1.2070563E1,-3.5424975E-1,6.421694E0,8.901376E0,-3.378685E0,5.4166384E0,2.4600115E0,1.6142778E1,4.3232613E0,-3.4042892E0,5.863994E0,-4.0264893E-1,6.12519E0,5.376615E0,1.675275E1,9.6902466E-1,-3.3238068E0,1.7858245E0,1.0611107E1,2.2309677E1,5.392356E0,-5.0187836E0,-6.123581E-1,3.9644935E0,1.9407986E1,1.5416193E0,3.4336941E0,-4.0420113E0,-1.0644226E0,2.006017E0,6.3830795E0,1.3504105E0,6.5056753E0,6.16405E0,7.1971893E-1,-4.3372598E-1,1.6168702E0,5.1908493E-2,4.3607445E0],"categories":[],"categories_nodes":[],"categories_segments":[],"categories_sizes":[],"default_left":[1,1,1,1,1,0,0,1,1,1,1,1,1,1,1,1,1,1,1,1,1,1,1,0,0,1,1,0,1,1,0,1,0,1,0,0,0,0,0,0,0,0,0,0,0,0,0,0,0,0,0,0,0,0,0],"id":10,"left_children":[1,3,5,7,9,-1,-1,11,13,15,17,19,21,23,25,27,29,31,33,35,37,39,41,-1,-1,43,45,-1,47,49,-1,51,-1,53,-1,-1,-1,-1,-1,-1,-1,-1,-1,-1,-1,-1,-1,-1,-1,-1,-1,-1,-1,-1,-1],"loss_changes":[8.702217E2,3.3523584E2,2.1394824E2,4.028794E2,3.041438E2,0E0,0E0,2.1851172E2,4.1430933E2,1.5698694E2,1.8592067E2,5.3695807E2,1.8138123E2,9.447144E0,1.9122339E2,4.334088E1,2.5469226E2,3.85867E1,1.3642297E2,6.3249817E2,1.961195E1,4.1067633E2,1.896471E2,0E0,0E0,1.7414474E-1,1.3229492E1,0E0,9.382019E0,1.7565643E1,0E0,7.0626388E0,0E0,2.2097115E1,0E0,0E0,0E0,0E0,0E0,0E0,0E0,0E0,0E0,0E0,0E0,0E0,0E0,0E0,0E0,0E0,0E0,0E0,0E0,0E0,0E0],"parents":[2147483647,0,0,1,1,2,2,3,3,4,4,7,7,8,8,9,9,10,10,11,11,12,12,13,13,14,14,15,15,16,16,17,17,18,18,19,19,20,20,21,21,22,22,25,25,26,26,28,28,29,29,31,31,33,33],"right_children":[2,4,6,8,10,-1,-1,12,14,16,18,20,22,24,26,28,30,32,34,36,38,40,42,-1,-1,44,46,-1,48,50,-1,52,-1,54,-1,-1,-1,-1,-1,-1,-1,-1,-1,-1,-1,-1,-1,-1,-1,-1,-1,-1,-1,-1,-1],"split_conditions":[1.489953E2,1.24002784E-1,1.1057486E2,8.57833E1,2.8987053E-1,1.1325417E-1,4.920699E0,2.5223544E2,1.2058365E2,1.1554769E3,6.1422765E-1,1.8558998E-2,6.010267E1,7.5E0,1.34899E2,3.0624524E2,1.9861111E-1,9.7000616E2,1.1640915E2,1.6798062E2,5.6149277E3,1.1928265E1,1.1547537E3,4.8428335E0,1.2969785E0,4.718679E3,7.885929E1,-1.2079468E-1,6.3166666E0,1.15E1,5.0258255E0,2.0166667E0,-9.971421E-1,1.3620662E4,3.1833322E0,6.6929035E0,1.6177069E0,-1.5056351E0,-1.8370743E-1,1.1893481E0,5.822396E0,4.6248582E-1,1.0301083E0,-1.2126034E0,-3.193268E-1,6.018051E-1,1.9149239E0,4.0512314E-1,1.9517027E0,1.8492151E0,2.159157E-1,-1.301178E-1,4.8506108E-1,1.5572549E-2,1.3082234E0],"split_indices":[11,5,10,12,5,0,0,6,11,8,5,5,12,2,8,6,5,8,11,10,1,7,8,0,0,1,10,0,8,2,0,8,0,1,0,0,0,0,0,0,0,0,0,0,0,0,0,0,0,0,0,0,0,0,0],"split_type":[0,0,0,0,0,0,0,0,0,0,0,0,0,0,0,0,0,0,0,0,0,0,0,0,0,0,0,0,0,0,0,0,0,0,0,0,0,0,0,0,0,0,0,0,0,0,0,0,0,0,0,0,0,0,0],"sum_hessian":[3.2E2,3.13E2,7E0,2.78E2,3.5E1,1E0,6E0,2.59E2,1.9E1,2E1,1.5E1,1.9E1,2.4E2,5E0,1.4E1,1E1,1E1,8E0,7E0,1.5E1,4E0,2.3E1,2.17E2,4E0,1E0,2E0,1.2E1,1E0,9E0,5E0,5E0,6E0,2E0,4E0,3E0,2E0,1.3E1,2E0,2E0,2.2E1,1E0,1.13E2,1.04E2,1E0,1E0,2E0,1E1,1E0,8E0,4E0,1E0,2E0,4E0,3E0,1E0],"tree_param":{"num_deleted":"0","num_feature":"13","num_nodes":"55","size_leaf_vector":"0"}},{"base_weights":[2.6913037E0,2.4930232E0,8.469731E0,4.1935296E0,1.9301183E0,3.767055E0,1.4581982E1,6.452735E0,2.6289713E0,8.288746E-1,2.7497718E0,6.741047E0,-1.4870071E-1,4.4603777E0,1.3678769E1,1.6983008E0,5.4358044E0,1.0090233E1,6.3340396E-1,-1.5828339E0,3.2772236E0,4.082006E-1,-9.097023E-1,3.2714942E0,1.6496788E1,1.8808136E0,1.5662198E1,4.8960418E-1,4.074894E0,6.3508263E0,-1.8572083E0,2.916602E-1,5.083228E0,3.8247147E0,-2.7089732E0,1.5323194E0,5.1176944E0,4.563289E0,-2.5499847E0,2.2442393E0,-1.5982704E0,2.921041E-1,4.8022413E0,1.0432582E1,4.0263147E0,7.093171E-1,-3.6852841E0,-3.4225464E-1,6.0445175E0,-3.7283013E0,5.165901E-1,2.4704497E0,-3.0417793E0,7.8029475E0,3.2068799E0],"categories":[],"categories_nodes":[],"categories_segments":[],"categories_sizes":[],"default_left":[1,1,1,1,1,1,0,1,1,1,1,0,1,1,1,1,1,0,1,1,1,0,0,1,0,0,0,1,1,1,0,1,1,0,1,1,1,0,0,0,0,0,0,0,0,0,0,0,0,0,0,0,0,0,0],"id":11,"left_children":[1,3,5,7,9,11,-1,13,15,17,19,-1,21,23,25,27,29,-1,31,33,35,-1,-1,37,-1,-1,-1,39,41,43,-1,45,47,-1,49,51,53,-1,-1,-1,-1,-1,-1,-1,-1,-1,-1,-1,-1,-1,-1,-1,-1,-1,-1],"loss_changes":[3.386504E2,2.8385913E2,2.3250818E2,2.4813538E2,2.0623029E2,8.252039E1,0E0,3.7089294E2,1.1093121E2,1.7464114E2,3.0683893E2,0E0,2.0665522E0,3.0377805E2,1.109447E2,1.0141781E2,8.5200745E1,0E0,1.4906668E2,1.0170584E2,3.7110864E2,0E0,0E0,1.9212009E2,0E0,0E0,0E0,9.517335E1,3.161409E1,5.2876007E1,0E0,1.5708688E2,3.8576996E1,0E0,4.46688E1,2.7356274E2,2.6744507E2,0E0,0E0,0E0,0E0,0E0,0E0,0E0,0E0,0E0,0E0,0E0,0E0,0E0,0E0,0E0,0E0,0E0,0E0],"parents":[2147483647,0,0,1,1,2,2,3,3,4,4,5,5,7,7,8,8,9,9,10,10,12,12,13,13,14,14,15,15,16,16,18,18,19,19,20,20,23,23,27,27,28,28,29,29,31,31,32,32,34,34,35,35,36,36],"right_children":[2,4,6,8,10,12,-1,14,16,18,20,-1,22,24,26,28,30,-1,32,34,36,-1,-1,38,-1,-1,-1,40,42,44,-1,46,48,-1,50,52,54,-1,-1,-1,-1,-1,-1,-1,-1,-1,-1,-1,-1,-1,-1,-1,-1,-1,-1],"split_conditions":[1.4845294E2,5.6859656E2,4.5E0,2.2593677E2,1.1236573E3,4.0071164E2,4.3745947E0,4.901244E2,1.2205939E4,1.6372375E2,1.06007614E2,2.022314E0,1.5E0,2.2259148E2,1E0,4.3989996E4,1.3600397E2,3.02707E0,1.2737021E-1,1.0000485E2,3.1805E3,1.2246018E-1,-2.729107E-1,4.6413577E2,4.9490366E0,5.642441E-1,4.6986594E0,3.727968E2,2.7289288E2,1.3152308E4,-5.571625E-1,4.7960605E-2,3.1216168E2,1.1474144E0,5.261998E2,1.05E1,6.8935E3,1.3689868E0,-7.6499546E-1,6.7327183E-1,-4.7948113E-1,8.763123E-2,1.4406724E0,3.1297748E0,1.2078944E0,2.1279514E-1,-1.1055853E0,-1.026764E-1,1.8133553E0,-1.1184905E0,1.5497704E-1,7.4113494E-1,-9.125338E-1,2.3408844E0,9.6206397E-1],"split_indices":[11,8,2,10,8,6,0,8,1,6,11,0,2,10,2,3,11,0,5,11,4,0,0,8,0,0,0,10,10,1,0,5,6,0,6,2,4,0,0,0,0,0,0,0,0,0,0,0,0,0,0,0,0,0,0],"split_type":[0,0,0,0,0,0,0,0,0,0,0,0,0,0,0,0,0,0,0,0,0,0,0,0,0,0,0,0,0,0,0,0,0,0,0,0,0,0,0,0,0,0,0,0,0,0,0,0,0,0,0,0,0,0,0],"sum_hessian":[3.13E2,3.04E2,9E0,7.4E1,2.3E2,6E0,3E0,2.9E1,4.5E1,9.9E1,1.31E2,3E0,3E0,2.4E1,5E0,3.5E1,1E1,1E0,9.8E1,1.4E1,1.17E2,2E0,1E0,2.3E1,1E0,1E0,4E0,2.4E1,1.1E1,9E0,1E0,9.2E1,6E0,2E0,1.2E1,6.1E1,5.6E1,1.9E1,4E0,1.3E1,1.1E1,2E0,9E0,2E0,7E0,8.4E1,8E0,1E0,5E0,9E0,3E0,5.1E1,1E1,2.2E1,3.4E1],"tree_param":{"num_deleted":"0","num_feature":"13","num_nodes":"55","size_leaf_vector":"0"}},{"base_weights":[2.0802848E0,1.9796398E0,9.787949E0,-1.0291934E0,2.1479602E0,3.4460754E0,1.4406784E1,-2.554929E0,4.9496136E0,3.5678198E0,1.6552151E0,4.191742E-2,-3.5030477E0,6.7895966E0,-2.851677E-1,5.489997E0,1.6523871E0,6.236896E0,1.4637403E0,8.758278E-1,-3.8551712E-1,-4.1470613E0,-1.3392582E0,3.7869759E0,2.4663927E1,-1.1003642E0,3.2828345E0,1.888986E0,1.1199537E1,3.569722E-1,2.337445E0,-5.136439E-1,-5.683899E-4,1.402227E1,3.1131544E0,-2.3118463E0,3.1120434E0,8.067356E0,2.308012E0,-3.598887E-1,3.1033955E0,-8.287013E-2,3.3069072E0,2.1079361E0,1.0968163E1],"categories":[],"categories_nodes":[],"categories_segments":[],"categories_sizes":[],"default_left":[1,1,1,1,1,0,0,1,1,1,1,1,1,0,0,1,1,1,1,0,1,0,0,1,0,1,1,1,0,1,1,0,0,0,0,0,0,0,0,0,0,0,0,0,0],"id":12,"left_children":[1,3,5,7,9,-1,-1,11,13,15,17,19,21,-1,-1,23,25,27,29,-1,31,-1,-1,33,-1,35,37,39,-1,41,43,-1,-1,-1,-1,-1,-1,-1,-1,-1,-1,-1,-1,-1,-1],"loss_changes":[2.3661694E2,1.6781921E2,6.752139E1,1.7684334E2,2.1097949E2,0E0,0E0,3.7078606E1,4.0463814E1,2.8179065E2,1.9439886E2,2.119857E0,9.774643E0,0E0,0E0,1.1800894E3,1.8762921E2,1.7303833E2,2.15771E2,0E0,1.9699699E-1,0E0,0E0,2.1152661E2,0E0,8.8846664E1,1.02645996E2,1.7503208E1,0E0,1.3002466E2,2.2448322E2,0E0,0E0,0E0,0E0,0E0,0E0,0E0,0E0,0E0,0E0,0E0,0E0,0E0,0E0],"parents":[2147483647,0,0,1,1,2,2,3,3,4,4,7,7,8,8,9,9,10,10,11,11,12,12,15,15,16,16,17,17,18,18,20,20,23,23,25,25,26,26,27,27,29,29,30,30],"right_children":[2,4,6,8,10,-1,-1,12,14,16,18,20,22,-1,-1,24,26,28,30,-1,32,-1,-1,34,-1,36,38,40,-1,42,44,-1,-1,-1,-1,-1,-1,-1,-1,-1,-1,-1,-1,-1,-1],"split_conditions":[8.7849084E2,1.0034307E2,1.243E3,1.8615096E0,5.545516E2,1.0338227E0,4.3220353E0,5.6142746E1,3.7222224E-1,1.19998215E2,2.1879254E2,9.4246796E1,6.1069756E1,2.036879E0,-8.555031E-2,1.1983804E2,1.1737015E0,4.4823175E2,1.1749756E3,2.6274836E-1,6.5E0,-1.2441185E0,-4.0177748E-1,6.1119354E1,7.3991785E0,4.3989996E4,2.798517E2,5E-1,3.3598614E0,8.6967856E-2,2.4718074E4,-1.5409318E-1,-1.7051697E-4,4.2066813E0,9.339464E-1,-6.935539E-1,9.3361306E-1,2.420207E0,6.924036E-1,-1.0796662E-1,9.3101865E-1,-2.4861041E-2,9.9207217E-1,6.3238084E-1,3.290449E0],"split_indices":[6,11,0,7,8,0,0,10,5,11,6,11,12,0,0,11,7,10,8,0,2,0,0,12,0,3,6,2,0,5,1,0,0,0,0,0,0,0,0,0,0,0,0,0,0],"split_type":[0,0,0,0,0,0,0,0,0,0,0,0,0,0,0,0,0,0,0,0,0,0,0,0,0,0,0,0,0,0,0,0,0,0,0,0,0,0,0,0,0,0,0,0,0],"sum_hessian":[3.29E2,3.26E2,3E0,1.7E1,3.09E2,2E0,1E0,1.4E1,3E0,7.8E1,2.31E2,4E0,1E1,2E0,1E0,3.8E1,4E1,8E0,2.23E2,1E0,3E0,7E0,3E0,3.6E1,2E0,1.5E1,2.5E1,5E0,3E0,9.9E1,1.24E2,2E0,1E0,1E0,3.5E1,1.2E1,3E0,3E0,2.2E1,2E0,3E0,8.7E1,1.2E1,1.22E2,2E0],"tree_param":{"num_deleted":"0","num_feature":"13","num_nodes":"45","size_leaf_vector":"0"}},{"base_weights":[1.9491996E0,8.566893E0,1.8501753E0,1.5127323E1,1.3376414E0,1.7543598E0,8.190527E0,1.9691162E0,3.7345886E-2,2.3822114E0,8.245212E-1,2.7568588E0,1.2245766E1,1.8630785E0,5.441012E0,1.3851291E0,-2.5216737E0,2.3795156E0,-7.3165774E-1,1.4783615E0,1.0840886E1,1.0489889E0,5.7011347E0,-4.9817405E0,-7.2693354E-1,2.0263054E0,7.8927817E0,2.995186E-1,-4.046969E0,4.9571443E0,-2.3729983E-1,1.356871E1,6.760885E0,5.1514342E-2,2.517596E0,1.8623352E0,1.0198756E1,1.288996E0,-3.4038482E0],"categories":[],"categories_nodes":[],"categories_segments":[],"categories_sizes":[],"default_left":[1,1,1,0,1,1,1,0,0,1,1,0,0,1,1,1,1,1,1,1,1,1,1,0,1,0,0,0,0,0,0,0,0,0,0,0,0,0,0],"id":13,"left_children":[1,3,5,-1,7,9,11,-1,-1,13,15,-1,-1,17,19,21,23,25,27,29,31,33,35,-1,37,-1,-1,-1,-1,-1,-1,-1,-1,-1,-1,-1,-1,-1,-1],"loss_changes":[1.741903E2,1.6947308E2,1.5998438E2,0E0,2.3897734E0,1.6383527E2,5.4379425E1,0E0,0E0,2.582221E2,2.2109766E2,0E0,0E0,1.9738364E2,4.975208E2,1.3909782E2,7.143667E1,2.2158246E2,8.667891E1,9.070253E1,1.9558838E1,1.3757074E2,1.0186476E2,0E0,6.3748737E1,0E0,0E0,0E0,0E0,0E0,0E0,0E0,0E0,0E0,0E0,0E0,0E0,0E0,0E0],"parents":[2147483647,0,0,1,1,2,2,4,4,5,5,6,6,9,9,10,10,13,13,14,14,15,15,16,16,17,17,18,18,19,19,20,20,21,21,22,22,24,24],"right_children":[2,4,6,-1,8,10,12,-1,-1,14,16,-1,-1,18,20,22,24,26,28,30,32,34,36,-1,38,-1,-1,-1,-1,-1,-1,-1,-1,-1,-1,-1,-1,-1,-1],"split_conditions":[9.2416565E1,2.8E4,8.047749E2,4.538197E0,4.7615146E3,4.4161456E2,1.243E3,5.907349E-1,1.1203766E-2,1.3515656E3,1.3831111E3,8.2705766E-1,3.67373E0,1.251733E3,6.9831924E1,1.4446733E1,1.3941587E3,1.1971538E3,1.2893E2,5.9938805E1,7.832889E1,1.3032145E3,2.205E5,-1.4945222E0,7.961067E1,6.078917E-1,2.3678346E0,8.985558E-2,-1.2140907E0,1.4871433E0,-7.1189955E-2,4.0706134E0,2.0282655E0,1.54543035E-2,7.552788E-1,5.5870056E-1,3.059627E0,3.866988E-1,-1.0211545E0],"split_indices":[11,3,6,0,1,6,0,0,0,8,8,0,0,8,12,7,8,8,11,12,12,8,3,0,12,0,0,0,0,0,0,0,0,0,0,0,0,0,0],"split_type":[0,0,0,0,0,0,0,0,0,0,0,0,0,0,0,0,0,0,0,0,0,0,0,0,0,0,0,0,0,0,0,0,0,0,0,0,0,0,0],"sum_hessian":[2.89E2,3E0,2.86E2,1E0,2E0,2.83E2,3E0,1E0,1E0,1.68E2,1.15E2,2E0,1E0,1.45E2,2.3E1,9.9E1,1.6E1,1.21E2,2.4E1,1.4E1,9E0,9.3E1,6E0,6E0,1E1,1.15E2,6E0,1.9E1,5E0,4E0,1E1,4E0,5E0,5.6E1,3.7E1,4E0,2E0,6E0,4E0],"tree_param":{"num_deleted":"0","num_feature":"13","num_nodes":"39","size_leaf_vector":"0"}},{"base_weights":[1.1179428E0,2.3637543E0,6.941636E-1,6.047844E-1,4.4572387E0,1.0287846E-1,2.2505202E0,2.6516995E-1,7.4342957E0,6.314971E0,1.2195708E0,5.3765506E-1,-1.8218724E0,3.1376846E0,-1.7814026E0,-8.2632333E-1,2.0904918E0,2.0215082E0,8.623984E0,1.0389114E1,-2.8494146E-1,-1.8400449E0,8.672686E-1,-8.377953E-2,-4.566871E0,5.3658423E0,1.5774035E0,-3.7349825E0,1.7006058E0,-1.4541397E0,5.908805E-1,1.1477381E0,3.935002E0,2.9278675E-1,5.3813553E0,1.6662174E1,4.917008E0,-2.4111583E0,1.3453388E0,-2.9105842E0,1.0509491E-1,1.4757867E-1,2.2679422E0,-1.8610791E0,1.879628E0,-5.4464393E0,-1.1268616E-1,2.2681947E0,7.5000615E0,2.227999E0,-1.0644368E0,-4.970473E0,-1.9007364E-2,-1.3189125E0,2.7852135E0,-3.290086E-1,-2.667729E0,1.0687761E0,-1.6161423E0,1.7258362E0,-1.1618347E0,-7.601757E-1,1.2725525E0,6.896492E0,1.1755409E0,1.9523355E1,4.0393143E0,6.0266275E0,1.4685173E0,-6.814804E-1,-3.105627E0,1.9342499E0,6.0514224E-1,-3.7236533E-1,-4.9637055E0,8.0643463E-1,-2.0514717E0,9.986192E-1,-1.6911079E0,2.9053771E0,-7.246485E-1,-3.0046616E0,8.913555E-1,-2.2040813E-1,2.432188E0,-6.0193863E0,-1.449585E-1,7.4272156E-3,-1.7645645E-1,5.6714983E0,-9.459241E-1,1.1863009E1,3.8357115E0,1.0286586E0,8.567205E0,-2.0950108E0,2.322464E-1,-7.683525E-1,-5.6572266E0,8.266449E-3,-3.6777496E-2],"categories":[],"categories_nodes":[],"categories_segments":[],"categories_sizes":[],"default_left":[1,1,1,1,1,1,1,1,0,1,1,1,1,1,1,1,1,1,1,0,1,1,1,1,1,1,1,1,1,1,1,1,0,1,1,1,1,1,1,1,1,1,1,1,1,1,1,1,1,1,1,1,1,0,0,0,0,0,0,0,0,0,0,0,0,0,0,0,0,0,0,0,0,0,0,0,0,0,0,0,0,0,0,0,0,0,0,0,0,0,0,0,0,0,0,0,0,0,0,0,0],"id":14,"left_children":[1,3,5,7,9,11,13,15,-1,17,19,21,23,25,27,29,31,33,35,-1,37,39,41,43,45,47,49,51,53,55,57,59,-1,61,63,65,67,69,71,73,75,77,79,81,83,85,87,89,91,93,95,97,99,-1,-1,-1,-1,-1,-1,-1,-1,-1,-1,-1,-1,-1,-1,-1,-1,-1,-1,-1,-1,-1,-1,-1,-1,-1,-1,-1,-1,-1,-1,-1,-1,-1,-1,-1,-1,-1,-1,-1,-1,-1,-1,-1,-1,-1,-1,-1,-1],"loss_changes":[1.593836E2,2.8084723E2,2.1050586E2,9.776288E1,2.0281372E2,1.4073126E2,2.3093912E2,8.5405136E1,0E0,2.0066705E2,1.9609996E2,1.0896576E2,1.4752034E2,1.7231659E2,8.798031E1,2.4882303E1,2.330635E1,5.0698563E1,3.3523535E2,0E0,4.8306107E1,3.570581E1,1.21639435E2,7.32894E1,4.639937E1,1.2182068E2,5.7372185E1,3.663394E1,2.0048416E1,2.5065784E1,1.1219833E1,1.8027054E1,0E0,8.18896E0,1.1010048E1,6.5604126E1,3.3241425E1,5.0908165E0,2.316784E0,5.5475685E1,1.2241778E1,1.2843732E2,8.031622E1,3.7302223E1,1.2140038E1,2.9502106E1,2.4289578E-2,1.1475102E2,1.4634534E2,1.8886177E2,9.840855E0,1.296817E1,1.757997E-3,0E0,0E0,0E0,0E0,0E0,0E0,0E0,0E0,0E0,0E0,0E0,0E0,0E0,0E0,0E0,0E0,0E0,0E0,0E0,0E0,0E0,0E0,0E0,0E0,0E0,0E0,0E0,0E0,0E0,0E0,0E0,0E0,0E0,0E0,0E0,0E0,0E0,0E0,0E0,0E0,0E0,0E0,0E0,0E0,0E0,0E0,0E0,0E0],"parents":[2147483647,0,0,1,1,2,2,3,3,4,4,5,5,6,6,7,7,9,9,10,10,11,11,12,12,13,13,14,14,15,15,16,16,17,17,18,18,20,20,21,21,22,22,23,23,24,24,25,25,26,26,27,27,28,28,29,29,30,30,31,31,33,33,34,34,35,35,36,36,37,37,38,38,39,39,40,40,41,41,42,42,43,43,44,44,45,45,46,46,47,47,48,48,49,49,50,50,51,51,52,52],"right_children":[2,4,6,8,10,12,14,16,-1,18,20,22,24,26,28,30,32,34,36,-1,38,40,42,44,46,48,50,52,54,56,58,60,-1,62,64,66,68,70,72,74,76,78,80,82,84,86,88,90,92,94,96,98,100,-1,-1,-1,-1,-1,-1,-1,-1,-1,-1,-1,-1,-1,-1,-1,-1,-1,-1,-1,-1,-1,-1,-1,-1,-1,-1,-1,-1,-1,-1,-1,-1,-1,-1,-1,-1,-1,-1,-1,-1,-1,-1,-1,-1,-1,-1,-1,-1],"split_conditions":[5.545516E2,3.0851065E2,1.3381051E3,1.310678E0,3.6849787E0,1.2434E4,1.05E1,4.261667E2,2.2302887E0,5E-1,3.240923E2,6.3159847E1,7.569441E1,4.2302005E2,1.1625855E0,7.411811E3,2.501255E5,1.0018123E4,3E0,3.1167345E0,7.5405846E0,2.6160881E3,4.5E0,4.180401E2,1.4E1,6.9831924E1,8.006764E1,6.8965517E-3,1.15E1,1.1265E3,1.4291586E2,2.4144166E5,1.1805006E0,2.33785E2,1.3527359E4,1.0250802E3,8.284176E1,7.8903E2,5.5E0,1.05437614E2,1.2753577E3,4.5604074E2,1.3189443E3,1.1685057E2,1.11264366E2,3.2908914E4,9.20545E3,2.8827145E2,7.990864E1,1.2683255E2,2E0,1.15E1,3.2125E3,-3.9567378E-1,8.355641E-1,-9.870259E-2,-8.003187E-1,3.2063285E-1,-4.848427E-1,5.1775086E-1,-3.4855044E-1,-2.2805272E-1,3.8176575E-1,2.0689478E0,3.526623E-1,5.857007E0,1.2117944E0,1.8079883E0,4.405552E-1,-2.0444413E-1,-9.3168813E-1,5.80275E-1,1.8154268E-1,-1.117096E-1,-1.4891117E0,2.419304E-1,-6.1544156E-1,2.9958576E-1,-5.073324E-1,8.716132E-1,-2.1739455E-1,-9.013985E-1,2.6740667E-1,-6.612244E-2,7.2965646E-1,-1.8058159E0,-4.348755E-2,2.2281648E-3,-5.2936938E-2,1.7014495E0,-2.8377724E-1,3.558903E0,1.1507134E0,3.085976E-1,2.5701618E0,-6.2850326E-1,6.9673926E-2,-2.3050576E-1,-1.697168E0,2.4799348E-3,-1.1033249E-2],"split_indices":[8,8,8,5,7,4,2,6,0,2,8,12,12,6,7,1,3,1,2,0,7,1,2,6,2,12,12,5,2,4,11,3,0,1,1,1,12,1,2,11,8,6,8,11,11,1,1,10,12,11,2,2,4,0,0,0,0,0,0,0,0,0,0,0,0,0,0,0,0,0,0,0,0,0,0,0,0,0,0,0,0,0,0,0,0,0,0,0,0,0,0,0,0,0,0,0,0,0,0,0,0],"split_type":[0,0,0,0,0,0,0,0,0,0,0,0,0,0,0,0,0,0,0,0,0,0,0,0,0,0,0,0,0,0,0,0,0,0,0,0,0,0,0,0,0,0,0,0,0,0,0,0,0,0,0,0,0,0,0,0,0,0,0,0,0,0,0,0,0,0,0,0,0,0,0,0,0,0,0,0,0,0,0,0,0,0,0,0,0,0,0,0,0,0,0,0,0,0,0,0,0,0,0,0,0],"sum_hessian":[3.04E2,7.6E1,2.28E2,4.2E1,3.4E1,1.66E2,6.2E1,4.1E1,1E0,2.1E1,1.3E1,1.36E2,3E1,5.1E1,1.1E1,2.6E1,1.5E1,8E0,1.3E1,1E0,1.2E1,1.6E1,1.2E2,1.9E1,1.1E1,2E1,3.1E1,7E0,4E0,1.8E1,8E0,1.1E1,4E0,6E0,2E0,3E0,1E1,5E0,7E0,1E1,6E0,8E1,4E1,1E1,9E0,9E0,2E0,9E0,1.1E1,2.5E1,6E0,5E0,2E0,1E0,3E0,1E1,8E0,7E0,1E0,9E0,2E0,3E0,3E0,1E0,1E0,2E0,1E0,7E0,3E0,2E0,3E0,3E0,4E0,5E0,5E0,5E0,1E0,5.5E1,2.5E1,3.3E1,7E0,7E0,3E0,2E0,7E0,8E0,1E0,1E0,1E0,4E0,5E0,4E0,7E0,2.2E1,3E0,3E0,3E0,1E0,4E0,1E0,1E0],"tree_param":{"num_deleted":"0","num_feature":"13","num_nodes":"101","size_leaf_vector":"0"}},{"base_weights":[4.9337083E-1,4.1118234E-1,6.7807293E0,1.672765E0,1.2262166E-1,2.0840633E0,1.0435364E1,1.159089E0,1.54761505E1,-4.3600056E-1,7.54705E-1,1.530314E0,-2.251376E0,2.7494955E-1,-1.832967E0,4.4722843E0,3.3850628E-1,4.8573753E-1,4.3308973E0,1.4406013E-1,-4.694832E0,-6.333617E-1,1.558472E0,-4.6922916E-1,-6.1294756E0,8.749187E0,1.6746958E-1,4.5184145E0,1.3623919E-1,1.6567554E0,-1.3011479E0,2.121912E0,6.236752E0,-9.0724945E-2,2.5256348E-1,-9.667354E-1,5.356237E0,5.5836434E0,1.16741575E-1,-1.5530847E0,2.504104E0,-7.58592E0,2.8301492E-1,1.0315376E1,4.591217E-1,-3.5923004E-1,1.6638336E0,5.2381325E0,8.197708E-1,1.7272474E0,-3.8254148E-1],"categories":[],"categories_nodes":[],"categories_segments":[],"categories_sizes":[],"default_left":[1,1,1,1,1,0,0,1,0,1,1,1,1,1,1,1,1,1,1,1,0,1,1,1,1,1,1,1,1,0,0,0,0,0,0,0,0,0,0,0,0,0,0,0,0,0,0,0,0,0,0],"id":15,"left_children":[1,3,5,7,9,-1,-1,11,-1,13,15,17,19,21,23,25,27,29,31,33,-1,35,37,39,41,43,45,47,49,-1,-1,-1,-1,-1,-1,-1,-1,-1,-1,-1,-1,-1,-1,-1,-1,-1,-1,-1,-1,-1,-1],"loss_changes":[1.5998764E2,1.1337635E2,4.691043E1,3.933089E2,9.036848E1,0E0,0E0,7.561015E1,0E0,1.3557556E2,1.8415631E2,1.5001831E2,3.5795197E1,1.0707832E2,2.6665222E2,2.1947006E2,9.153932E1,8.376221E1,4.5706238E1,1.2481367E-1,0E0,1.1300389E2,2.1987021E2,1.1990497E2,1.0488068E2,7.316687E1,6.1146393E0,9.015839E0,8.7326096E1,0E0,0E0,0E0,0E0,0E0,0E0,0E0,0E0,0E0,0E0,0E0,0E0,0E0,0E0,0E0,0E0,0E0,0E0,0E0,0E0,0E0,0E0],"parents":[2147483647,0,0,1,1,2,2,3,3,4,4,7,7,9,9,10,10,11,11,12,12,13,13,14,14,15,15,16,16,17,17,18,18,19,19,21,21,22,22,23,23,24,24,25,25,26,26,27,27,28,28],"right_children":[2,4,6,8,10,-1,-1,12,-1,14,16,18,20,22,24,26,28,30,32,34,-1,36,38,40,42,44,46,48,50,-1,-1,-1,-1,-1,-1,-1,-1,-1,-1,-1,-1,-1,-1,-1,-1,-1,-1,-1,-1,-1,-1],"split_conditions":[8.7849084E2,4.4861893E2,1.243E3,4.4202686E2,2.5E0,6.25219E-1,3.1306093E0,4.0591217E2,4.642845E0,6.8215E3,3.5164337E0,2.947028E2,7.727057E1,7.58558E1,7.999901E1,1.1666667E0,5.7843674E1,3.3136414E2,2.0719992E2,3E0,-1.4084496E0,6.2085E3,7.784108E1,1.2381717E2,4.5078576E-2,1.3867639E4,5.815942E2,2.54183E3,3.546833E2,4.9702665E-1,-3.903444E-1,6.365736E-1,1.8710257E0,-2.7217485E-2,7.5769044E-2,-2.9002064E-1,1.6068711E0,1.675093E0,3.5022475E-2,-4.6592543E-1,7.512312E-1,-2.2757761E0,8.490448E-2,3.094613E0,1.3773651E-1,-1.0776902E-1,4.991501E-1,1.5714399E0,2.4593125E-1,5.1817423E-1,-1.1476245E-1],"split_indices":[6,8,0,8,2,0,0,8,0,4,2,8,12,12,12,7,12,10,10,2,0,4,12,11,5,1,6,1,6,0,0,0,0,0,0,0,0,0,0,0,0,0,0,0,0,0,0,0,0,0,0],"split_type":[0,0,0,0,0,0,0,0,0,0,0,0,0,0,0,0,0,0,0,0,0,0,0,0,0,0,0,0,0,0,0,0,0,0,0,0,0,0,0,0,0,0,0,0,0,0,0,0,0,0,0],"sum_hessian":[3.14E2,3.11E2,3E0,5.7E1,2.54E2,2E0,1E0,5.6E1,1E0,1.35E2,1.19E2,5.1E1,5E0,9E1,4.5E1,1.1E1,1.08E2,3.8E1,1.3E1,3E0,2E0,5.3E1,3.7E1,3.5E1,1E1,5E0,6E0,4E0,1.04E2,2.3E1,1.5E1,7E0,6E0,1E0,2E0,5.1E1,2E0,9E0,2.8E1,2.6E1,9E0,8E0,2E0,4E0,1E0,5E0,1E0,3E0,1E0,2.5E1,7.9E1],"tree_param":{"num_deleted":"0","num_feature":"13","num_nodes":"51","size_leaf_vector":"0"}},{"base_weights":[7.621282E-1,7.1875954E0,6.8193424E-1,1.2848934E1,1.0175043E0,1.9335634E-1,1.4041636E0,1.8746147E0,-3.4835815E-1,6.813239E-1,-1.6353166E0,7.242563E-1,3.71437E0,2.658849E-1,2.7642708E0,-4.85207E0,-2.6010973E-2,-2.4414392E0,1.0498636E0,2.257432E0,8.178962E0,-3.8082552E-1,2.4773946E0,3.4316032E0,-1.763958E0,-6.7165728E0,1.4883308E0,-1.535773E0,2.9961143E0,-3.5707016E0,3.860962E0,2.7214894E0,5.6781024E-1,4.061444E0,4.1854155E-1,3.9378266E0,1.2521199E1,4.2871094E0,-7.6585317E-1,4.3487706E0,-3.0431014E-1,2.5651937E0,6.9057503E0,-3.3011932E0,-1.5114848E-1,-4.193754E0,-1.0083067E1,2.971939E0,3.1483967E-3,-5.670132E-1,-6.836408E0,4.735833E0,-7.974224E-1,-1.7285436E0,-5.441263E0,5.919346E0,1.3522E0,1.1492522E0,-5.721861E-1,9.9130374E-1,6.1127863E0,-8.3379555E-1,2.0185673E0,5.1832275E0,1.3798167E0],"categories":[],"categories_nodes":[],"categories_segments":[],"categories_sizes":[],"default_left":[1,1,1,0,1,1,1,0,0,1,1,1,1,1,1,1,1,1,1,1,1,1,1,1,1,1,1,1,1,1,0,1,1,1,1,1,0,0,0,0,0,0,0,0,0,0,0,0,0,0,0,0,0,0,0,0,0,0,0,0,0,0,0,0,0],"id":16,"left_children":[1,3,5,-1,7,9,11,-1,-1,13,15,17,19,21,23,25,27,29,31,33,35,37,39,41,43,45,47,49,51,53,-1,55,57,59,61,63,-1,-1,-1,-1,-1,-1,-1,-1,-1,-1,-1,-1,-1,-1,-1,-1,-1,-1,-1,-1,-1,-1,-1,-1,-1,-1,-1,-1,-1],"loss_changes":[1.6668791E2,1.2665007E2,1.1617404E2,0E0,4.165122E0,1.7779613E2,2.0621643E2,0E0,0E0,1.3512296E2,2.1729684E2,1.0976363E2,1.766755E2,1.8973071E2,8.4620895E1,1.7550018E2,1.3691937E2,8.4956985E1,7.500693E1,7.7917244E1,7.9605835E1,1.8840353E2,1.574918E2,5.1516205E1,9.418099E0,5.1137695E1,8.80436E0,9.8824524E1,6.9773346E1,2.1607384E1,0E0,8.395047E1,5.037072E1,6.9515274E1,2.7732103E1,8.776833E0,0E0,0E0,0E0,0E0,0E0,0E0,0E0,0E0,0E0,0E0,0E0,0E0,0E0,0E0,0E0,0E0,0E0,0E0,0E0,0E0,0E0,0E0,0E0,0E0,0E0,0E0,0E0,0E0,0E0],"parents":[2147483647,0,0,1,1,2,2,4,4,5,5,6,6,9,9,10,10,11,11,12,12,13,13,14,14,15,15,16,16,17,17,18,18,19,19,20,20,21,21,22,22,23,23,24,24,25,25,26,26,27,27,28,28,29,29,31,31,32,32,33,33,34,34,35,35],"right_children":[2,4,6,-1,8,10,12,-1,-1,14,16,18,20,22,24,26,28,30,32,34,36,38,40,42,44,46,48,50,52,54,-1,56,58,60,62,64,-1,-1,-1,-1,-1,-1,-1,-1,-1,-1,-1,-1,-1,-1,-1,-1,-1,-1,-1,-1,-1,-1,-1,-1,-1,-1,-1,-1,-1],"split_conditions":[9.2416565E1,2.8E4,1.3428583E0,3.8546803E0,4.882907E3,8.0068565E1,8.021081E1,5.623844E-1,-1.04507454E-1,2.3082983E-2,1.8777834E2,2.5913922E2,1.0020624E3,1.2390497E2,1.2714213E2,1.356862E3,4.6498086E3,6.016665E-1,1.6357591E0,8.445888E1,2.706795E3,2.7318115E2,5.615658E2,2.462823E4,5.4315E3,9.1215E3,4.3045325E2,6.6554975E5,1.3481024E2,6.862225E1,1.1582886E0,7.677565E2,3.709225E2,2.713E3,3.935E5,3.5E0,3.7563598E0,1.2861328E0,-2.2975595E-1,1.3046312E0,-9.1293044E-2,7.6955813E-1,2.0717251E0,-9.90358E-1,-4.5344546E-2,-1.2581263E0,-3.0249202E0,8.915818E-1,9.4451907E-4,-1.7010397E-1,-2.0509226E0,1.42075E0,-2.3922673E-1,-5.185631E-1,-1.632379E0,1.7758038E0,4.0566003E-1,3.4477568E-1,-1.7165583E-1,2.9739115E-1,1.833836E0,-2.5013867E-1,6.055702E-1,1.5549684E0,4.1394502E-1],"split_indices":[11,3,7,0,1,12,12,0,0,5,10,6,8,11,11,8,1,5,7,12,1,6,10,1,4,4,6,3,11,12,0,8,10,4,3,2,0,0,0,0,0,0,0,0,0,0,0,0,0,0,0,0,0,0,0,0,0,0,0,0,0,0,0,0,0],"split_type":[0,0,0,0,0,0,0,0,0,0,0,0,0,0,0,0,0,0,0,0,0,0,0,0,0,0,0,0,0,0,0,0,0,0,0,0,0,0,0,0,0,0,0,0,0,0,0,0,0,0,0,0,0,0,0,0,0,0,0,0,0,0,0,0,0],"sum_hessian":[3.32E2,3E0,3.29E2,1E0,2E0,1.97E2,1.32E2,1E0,1E0,1.56E2,4.1E1,1.03E2,2.9E1,1.31E2,2.5E1,1.3E1,2.8E1,9E0,9.4E1,2.3E1,6E0,1.02E2,2.9E1,2.2E1,3E0,1E1,3E0,1.9E1,9E0,8E0,1E0,2E1,7.4E1,1.1E1,1.2E1,4E0,2E0,7E0,9.5E1,1.7E1,1.2E1,1.9E1,3E0,1E0,2E0,7E0,3E0,1E0,2E0,1.7E1,2E0,6E0,3E0,5E0,3E0,5E0,1.5E1,4.9E1,2.5E1,5E0,6E0,7E0,5E0,2E0,2E0],"tree_param":{"num_deleted":"0","num_feature":"13","num_nodes":"65","size_leaf_vector":"0"}},{"base_weights":[7.568018E-1,4.060735E0,6.596929E-1,-1.2680237E0,8.577347E0,1.3131287E-2,1.0436248E0,-2.6406288E0,-2.647152E-1,1.1524587E1,2.770991E0,-2.2523792E0,4.9846384E-1,1.2245284E0,-2.4617271E0,1.08047485E-1,-4.2498526E-1,2.2135489E-1,-3.25663E0,2.564502E-1,4.166598E0,7.968287E-1,2.692322E0,7.653656E-1,-2.9053335E0,-9.604004E-1,2.117162E0,-4.154924E0,2.5240898E-1,1.3131797E0,-6.0199386E-1,5.1687126E0,1.4415792E0,6.11794E-1,5.0431786E0,9.828117E0,1.2300195E0,-3.3554144E0,3.4765625E-1,-1.6822128E0,8.154551E-2,-1.2505289E0,-4.6107497E0,-2.8796896E-1,9.367714E-1,4.2970877E0,6.964982E-1,-3.0006056E0,1.9260482E-1,4.9342373E-1,5.9318085E0,5.7953444E0,6.411743E-1,5.2380996E0,1.4202107E1,-1.7750574E0,2.1520078E0,-2.0697784E-1,-3.7756228E0],"categories":[],"categories_nodes":[],"categories_segments":[],"categories_sizes":[],"default_left":[1,1,1,1,1,1,1,0,1,0,0,1,1,1,1,0,0,1,1,1,1,1,1,0,1,1,0,1,1,1,1,0,0,1,1,1,1,1,0,0,0,0,0,0,0,0,0,0,0,0,0,0,0,0,0,0,0,0,0],"id":17,"left_children":[1,3,5,7,9,11,13,-1,15,-1,-1,17,19,21,23,-1,-1,25,27,29,31,33,35,-1,37,39,-1,41,43,45,47,-1,-1,49,51,53,55,57,-1,-1,-1,-1,-1,-1,-1,-1,-1,-1,-1,-1,-1,-1,-1,-1,-1,-1,-1,-1,-1],"loss_changes":[1.00632095E2,2.274877E2,7.793225E1,6.186717E0,5.362912E1,1.308668E2,1.2793829E2,0E0,2.8488937E-1,0E0,0E0,5.2890106E1,8.5929855E1,1.1587637E2,1.653923E1,0E0,0E0,1.7715984E1,4.8330963E1,8.515485E1,8.933571E0,1.1241575E2,4.261682E2,0E0,1.4343506E1,3.8976245E0,0E0,1.0120895E1,1.7490185E0,7.429216E1,9.968649E1,0E0,0E0,8.649498E1,1.615039E1,6.61449E1,1.0356317E2,9.802528E0,0E0,0E0,0E0,0E0,0E0,0E0,0E0,0E0,0E0,0E0,0E0,0E0,0E0,0E0,0E0,0E0,0E0,0E0,0E0,0E0,0E0],"parents":[2147483647,0,0,1,1,2,2,3,3,4,4,5,5,6,6,8,8,11,11,12,12,13,13,14,14,17,17,18,18,19,19,20,20,21,21,22,22,24,24,25,25,27,27,28,28,29,29,30,30,33,33,34,34,35,35,36,36,37,37],"right_children":[2,4,6,8,10,12,14,-1,16,-1,-1,18,20,22,24,-1,-1,26,28,30,32,34,36,-1,38,40,-1,42,44,46,48,-1,-1,50,52,54,56,58,-1,-1,-1,-1,-1,-1,-1,-1,-1,-1,-1,-1,-1,-1,-1,-1,-1,-1,-1,-1,-1],"split_conditions":[9.8397514E1,9.470104E2,3.840573E2,3.274859E3,3.425926E-2,1.1267477E2,2.7815855E-1,-7.921887E-1,3.2940075E-2,3.4573762E0,8.3129734E-1,2.895033E2,5.7881105E-1,7.98524E1,3.5166667E0,3.2414246E-2,-1.2749559E-1,3.5E0,1.1125793E3,1.2000885E2,7.617038E3,2.0634286E-1,1.19990166E2,2.2960968E-1,9.4885754E2,2.4571167E2,6.3514864E-1,1.0047872E2,1.8673867E4,1.57073E2,2.6236816E2,1.5506139E0,4.3247378E-1,1.4159773E3,1.7007883E4,1.1297448E0,1.21412895E2,7.475161E1,1.0429688E-1,-5.046639E-1,2.4463654E-2,-3.751587E-1,-1.383225E0,-8.639069E-2,2.8103143E-1,1.2891264E0,2.0894948E-1,-9.001817E-1,5.778145E-2,1.4802712E-1,1.7795426E0,1.7386034E0,1.9235231E-1,1.57143E0,4.2606325E0,-5.3251725E-1,6.4560235E-1,-6.2093355E-2,-1.1326869E0],"split_indices":[11,8,6,1,5,11,5,0,5,0,0,6,5,12,8,0,0,2,8,11,1,5,11,0,6,6,0,11,1,10,6,0,0,8,1,7,11,12,0,0,0,0,0,0,0,0,0,0,0,0,0,0,0,0,0,0,0,0,0],"split_type":[0,0,0,0,0,0,0,0,0,0,0,0,0,0,0,0,0,0,0,0,0,0,0,0,0,0,0,0,0,0,0,0,0,0,0,0,0,0,0,0,0,0,0,0,0,0,0,0,0,0,0,0,0,0,0,0,0,0,0],"sum_hessian":[3.21E2,8E0,3.13E2,4E0,4E0,1.17E2,1.96E2,1E0,3E0,2E0,2E0,2E1,9.7E1,1.87E2,9E0,1E0,2E0,6E0,1.4E1,9.2E1,5E0,1.46E2,4.1E1,1E0,8E0,4E0,2E0,1.1E1,3E0,4.1E1,5.1E1,3E0,2E0,1.41E2,5E0,6E0,3.5E1,7E0,1E0,2E0,2E0,2E0,9E0,2E0,1E0,6E0,3.5E1,1.2E1,3.9E1,1.39E2,2E0,4E0,1E0,4E0,2E0,8E0,2.7E1,1E0,6E0],"tree_param":{"num_deleted":"0","num_feature":"13","num_nodes":"59","size_leaf_vector":"0"}},{"base_weights":[4.5248812E-1,1.1864865E0,-1.4357337E-1,-6.750521E-2,1.8353755E0,-2.2478858E-1,6.669075E0,-1.1343219E0,1.0950131E0,3.5449634E0,1.1121778E0,-9.72875E-2,-4.310866E0,-1.617819E0,1.8084927E0,3.8303992E-1,5.7138214E0,9.0670204E-1,7.060165E0,2.5693166E0,3.4080043E-1,1.3442919E0,-4.351032E-1,-5.8067455E0,8.363266E-1,-2.0641594E0,3.1257018E-1,2.9266434E0,-7.7297974E-1,-9.336144E-1,1.4483318E0,1.4644048E0,-3.7294197E0,-2.191925E-1,9.817323E0,-7.962901E-1,3.6060414E0,-5.364244E-1,1.7139928E0,2.9349725E0,3.2413058E-2,-4.8719964E0,-3.2936642E-1,-7.657533E-1,-3.5914478E0,1.7281551E0,-2.6748848E0,3.3815306E-1,-1.8378181E0,2.4687908E0,3.6674827E-1,2.2004128E-1,2.5257177E0,-5.5485153E-1,7.764435E-2,1.0842367E1,1.3210068E0,-1.5664215E0,4.9598184E-1,4.3509116E0,9.748459E-2,-2.0483592E0,4.7344074E-1,4.2772484E0,1.2864614E0,-1.9123017E0,5.065112E0,-7.285557E-1,4.0801086E0,-3.9980197E-1,4.3784103E0],"categories":[],"categories_nodes":[],"categories_segments":[],"categories_sizes":[],"default_left":[1,1,1,1,1,1,0,1,1,1,1,1,1,1,1,1,0,1,1,1,1,1,1,0,0,1,1,0,0,1,1,1,0,1,1,1,1,1,1,1,1,0,1,0,0,0,0,0,0,0,0,0,0,0,0,0,0,0,0,0,0,0,0,0,0,0,0,0,0,0,0],"id":18,"left_children":[1,3,5,7,9,11,-1,13,15,17,19,21,23,25,27,29,-1,31,33,35,37,39,41,-1,-1,43,45,-1,-1,47,49,51,-1,53,55,57,59,61,63,65,67,-1,69,-1,-1,-1,-1,-1,-1,-1,-1,-1,-1,-1,-1,-1,-1,-1,-1,-1,-1,-1,-1,-1,-1,-1,-1,-1,-1,-1,-1],"loss_changes":[1.3186032E2,1.099736E2,9.389867E1,5.9531216E1,1.0609427E2,8.606316E1,0E0,3.8496872E1,7.344614E1,2.3472305E2,7.106063E1,7.947699E1,4.3354233E1,1.9600632E1,1.3808138E1,3.0807228E1,0E0,4.6830627E1,2.2292566E2,7.963403E1,5.2717163E1,6.4595055E1,6.032219E1,0E0,0E0,3.2944565E1,2.57676E1,0E0,0E0,1.2120833E1,1.2339111E1,1.9254124E1,0E0,4.41625E-1,5.5349915E1,6.748233E0,4.4003998E1,4.2194733E1,1.3127319E1,1.5424124E2,5.8415646E1,0E0,4.485783E1,0E0,0E0,0E0,0E0,0E0,0E0,0E0,0E0,0E0,0E0,0E0,0E0,0E0,0E0,0E0,0E0,0E0,0E0,0E0,0E0,0E0,0E0,0E0,0E0,0E0,0E0,0E0,0E0],"parents":[2147483647,0,0,1,1,2,2,3,3,4,4,5,5,7,7,8,8,9,9,10,10,11,11,12,12,13,13,14,14,15,15,17,17,18,18,19,19,20,20,21,21,22,22,25,25,26,26,29,29,30,30,31,31,33,33,34,34,35,35,36,36,37,37,38,38,39,39,40,40,42,42],"right_children":[2,4,6,8,10,12,-1,14,16,18,20,22,24,26,28,30,-1,32,34,36,38,40,42,-1,-1,44,46,-1,-1,48,50,52,-1,54,56,58,60,62,64,66,68,-1,70,-1,-1,-1,-1,-1,-1,-1,-1,-1,-1,-1,-1,-1,-1,-1,-1,-1,-1,-1,-1,-1,-1,-1,-1,-1,-1,-1,-1],"split_conditions":[1.1862979E2,3.8578033E2,1.243E3,2.9757938E2,4.4161456E2,9.402763E1,2.0007226E0,1.7E1,7.456829E1,3.061223E3,1.09691376E2,3.209878E2,2.0542274E0,1.9994206E0,1.1918824E4,1.12750275E2,1.7141465E0,4.405E5,7.672934E1,1.0034307E2,1.1620804E4,1.0295782E0,1.18801834E2,-1.7420237E0,2.50898E-1,1.7995758E2,7.8720836E4,8.7799305E-1,-2.3189393E-1,1.00452194E2,5.967E3,1.3491462E3,-1.1188259E0,1.1817295E4,1.6E1,7.723655E4,2.4560873E5,1.2991426E3,1.2658304E4,4.992857E2,1.3093E4,-1.461599E0,1.530896E0,-2.29726E-1,-1.0774344E0,5.1844656E-1,-8.024655E-1,1.0144592E-1,-5.5134547E-1,7.4063724E-1,1.1002449E-1,6.601238E-2,7.5771534E-1,-1.6645546E-1,2.3293305E-2,3.2527103E0,3.9630204E-1,-4.6992648E-1,1.4879456E-1,1.3052735E0,2.9245378E-2,-6.145078E-1,1.4203222E-1,1.2831745E0,3.8593844E-1,-5.7369053E-1,1.5195338E0,-2.1856672E-1,1.2240326E0,-1.19940594E-1,1.3135232E0],"split_indices":[11,6,0,10,6,12,0,2,12,1,11,6,7,7,1,11,0,3,10,11,4,7,11,0,0,10,3,0,0,11,4,8,0,1,2,3,3,8,4,8,4,0,5,0,0,0,0,0,0,0,0,0,0,0,0,0,0,0,0,0,0,0,0,0,0,0,0,0,0,0,0],"split_type":[0,0,0,0,0,0,0,0,0,0,0,0,0,0,0,0,0,0,0,0,0,0,0,0,0,0,0,0,0,0,0,0,0,0,0,0,0,0,0,0,0,0,0,0,0,0,0,0,0,0,0,0,0,0,0,0,0,0,0,0,0,0,0,0,0,0,0,0,0,0,0],"sum_hessian":[3E2,1.34E2,1.66E2,4.6E1,8.8E1,1.65E2,1E0,2.4E1,2.2E1,2.5E1,6.3E1,1.61E2,4E0,2.1E1,3E0,2E1,2E0,1.5E1,1E1,2.1E1,4.2E1,3E1,1.31E2,3E0,1E0,1.7E1,4E0,2E0,1E0,9E0,1.1E1,1.4E1,1E0,3E0,7E0,5E0,1.6E1,2.6E1,1.6E1,1.3E1,1.7E1,2E0,1.29E2,1E1,7E0,3E0,1E0,4E0,5E0,5E0,6E0,7E0,7E0,1E0,2E0,6E0,1E0,3E0,2E0,1.3E1,3E0,1E1,1.6E1,1E0,1.5E1,4E0,9E0,1.5E1,2E0,1.28E2,1E0],"tree_param":{"num_deleted":"0","num_feature":"13","num_nodes":"71","size_leaf_vector":"0"}},{"base_weights":[2.4905884E-1,5.986191E0,1.9415176E-1,1.412735E0,7.566551E0,-1.2013384E-1,9.331604E-1,-7.500996E-3,-3.160283E0,1.3555288E0,-1.8352808E0,-5.209166E-1,6.57316E-1,-3.4614563E-2,-5.0287614E0,6.442169E0,1.1503998E0,4.5495987E0,-2.7464874E0,7.1107455E-2,-2.6285245E0,-8.839569E-1,9.3462193E-1,1.3560257E0,-9.5016986E-1,-1.4336853E0,-5.569109E0,2.6881995E0,4.1587844E-1,-4.209788E0,-1.0998743E0,-4.3798953E-1,3.3943486E0,-3.477742E0,9.2336017E-1,-1.7836624E0,7.628784E-1,1.2996062E0,-4.150234E-1,-1.3970566E0,-2.8198242E-2,7.5912434E-1,6.933728E0,-6.369546E-1,1.9541587E0,-1.670641E0,-6.1920547E0,-3.6836244E-2,-2.5049794E0],"categories":[],"categories_nodes":[],"categories_segments":[],"categories_sizes":[],"default_left":[1,1,1,0,0,1,1,1,1,1,1,1,1,1,1,0,1,0,1,1,1,1,1,0,1,0,0,1,1,1,1,0,0,0,0,0,0,0,0,0,0,0,0,0,0,0,0,0,0],"id":19,"left_children":[1,3,5,-1,-1,7,9,11,13,15,17,19,21,23,25,-1,27,-1,29,31,33,35,37,-1,39,-1,-1,41,43,45,47,-1,-1,-1,-1,-1,-1,-1,-1,-1,-1,-1,-1,-1,-1,-1,-1,-1,-1],"loss_changes":[9.964072E1,1.0993591E1,7.397071E1,0E0,0E0,7.667853E1,1.13571465E2,7.441046E1,4.6547874E1,7.91926E1,8.812869E1,1.536607E2,4.1429546E1,6.381287E0,1.7286072E0,0E0,9.0375305E1,0E0,2.4283646E1,1.6559636E2,8.465193E1,2.3585722E1,4.043992E1,0E0,1.196656E0,0E0,0E0,2.07675E2,9.193964E1,1.9854897E1,1.0363487E1,0E0,0E0,0E0,0E0,0E0,0E0,0E0,0E0,0E0,0E0,0E0,0E0,0E0,0E0,0E0,0E0,0E0,0E0],"parents":[2147483647,0,0,1,1,2,2,5,5,6,6,7,7,8,8,9,9,10,10,11,11,12,12,13,13,14,14,16,16,18,18,19,19,20,20,21,21,22,22,24,24,27,27,28,28,29,29,30,30],"right_children":[2,4,6,-1,-1,8,10,12,14,16,18,20,22,24,26,-1,28,-1,30,32,34,36,38,-1,40,-1,-1,42,44,46,48,-1,-1,-1,-1,-1,-1,-1,-1,-1,-1,-1,-1,-1,-1,-1,-1,-1,-1],"split_conditions":[9.2416565E1,2.8593892E3,4.6955975E2,4.2382053E-1,2.2699654E0,2.206768E4,1.368842E3,1.4195614E0,1.3962045E2,4.8512512E2,1.5E0,8.068706E1,1.9539665E2,3.1654266E4,2.2634418E4,1.9326508E0,3.3095E3,1.3648796E0,1.20017334E2,1.3110458E2,1.3682207E3,2.8057312E2,3.5825848E2,4.0680772E-1,3.6399457E4,-4.301056E-1,-1.6707327E0,1.605E2,8.271754E2,1.1881685E2,1.25E1,-1.3139686E-1,1.0183046E0,-1.0433227E0,2.7700806E-1,-5.3509873E-1,2.2886354E-1,3.8988188E-1,-1.2450702E-1,-4.19117E-1,-8.459473E-3,2.2773731E-1,2.0801187E0,-1.910864E-1,5.862476E-1,-5.0119233E-1,-1.8576165E0,-1.1050873E-2,-7.514939E-1],"split_indices":[11,1,10,0,0,1,8,7,10,10,2,12,8,1,1,0,4,0,11,11,8,10,10,0,1,0,0,4,10,11,2,0,0,0,0,0,0,0,0,0,0,0,0,0,0,0,0,0,0],"split_type":[0,0,0,0,0,0,0,0,0,0,0,0,0,0,0,0,0,0,0,0,0,0,0,0,0,0,0,0,0,0,0,0,0,0,0,0,0,0,0,0,0,0,0,0,0,0,0,0,0],"sum_hessian":[3.19E2,2E0,3.17E2,1E0,1E0,2.23E2,9.4E1,2.16E2,7E0,8.2E1,1.2E1,1.22E2,9.4E1,3E0,4E0,2E0,8E1,1E0,1.1E1,9.6E1,2.6E1,1.4E1,8E1,1E0,2E0,1E0,3E0,2.5E1,5.5E1,5E0,6E0,8.4E1,1.2E1,2.1E1,5E0,9E0,5E0,6.3E1,1.7E1,1E0,1E0,1.8E1,7E0,3.3E1,2.2E1,3E0,2E0,4E0,2E0],"tree_param":{"num_deleted":"0","num_feature":"13","num_nodes":"49","size_leaf_vector":"0"}},{"base_weights":[2.4462509E-1,2.0354518E-1,3.4801311E0,4.0551177E-1,-3.7111664E-1,8.195267E-1,5.7309723E0,-8.3851084E-2,1.2714072E0,9.8729255E-3,-4.563412E0,1.6053772E-1,1.0687523E0,1.13095894E-1,-3.6676521E0,2.8013453E0,4.8451734E-1,8.5197854E-1,-1.5243149E0,-1.0789535E0,-8.849706E0,-8.1138834E-2,2.7628021E0,-1.8955994E-1,-4.1374426E0,4.694257E0,4.379218E-1,-5.899932E-1,1.5070603E0,-4.776516E-1,1.656373E0,-2.956302E0,1.1883654E-1,-1.9471874E0,1.196991E0,-4.644255E-1,1.4976004E0,6.801262E0,1.5583886E0,-1.1855354E0,-4.4318376E0,1.5735922E0,6.9465966E0,-5.7707673E-1,2.3803344E0,-1.6236436E0,1.0096487E0,2.0542772E0,-2.5457096E-1,-9.227066E-1,3.9891968E0,7.693674E-1,3.5308487E0,-4.3537183E0,-7.3729485E-1,-1.0254021E0,8.684582E-1,-2.2367604E0,-5.3923416E-1],"categories":[],"categories_nodes":[],"categories_segments":[],"categories_sizes":[],"default_left":[1,1,1,1,1,1,0,1,1,1,1,0,0,1,1,1,1,1,1,1,0,1,1,0,1,1,1,1,1,1,1,1,1,1,0,0,0,0,0,0,0,0,0,0,0,0,0,0,0,0,0,0,0,0,0,0,0,0,0],"id":20,"left_children":[1,3,5,7,9,11,-1,13,15,17,19,-1,-1,21,23,25,27,29,31,33,-1,35,37,-1,39,41,43,45,47,49,51,53,55,57,-1,-1,-1,-1,-1,-1,-1,-1,-1,-1,-1,-1,-1,-1,-1,-1,-1,-1,-1,-1,-1,-1,-1,-1,-1],"loss_changes":[4.235586E1,3.740655E1,1.9257706E1,1.00956024E2,1.3421161E2,3.2113576E-1,0E0,1.08405075E2,1.02177475E2,1.0207064E2,9.499948E1,0E0,0E0,7.536526E1,1.2287506E1,1.27683075E2,6.461568E1,5.533807E1,6.623451E1,1.2211027E1,0E0,8.359556E1,3.804075E1,0E0,8.290863E-1,1.0152966E2,2.897528E1,4.958996E1,2.9442787E1,4.3440723E1,5.048893E1,4.3303177E1,1.2898964E1,4.2468357E-1,0E0,0E0,0E0,0E0,0E0,0E0,0E0,0E0,0E0,0E0,0E0,0E0,0E0,0E0,0E0,0E0,0E0,0E0,0E0,0E0,0E0,0E0,0E0,0E0,0E0],"parents":[2147483647,0,0,1,1,2,2,3,3,4,4,5,5,7,7,8,8,9,9,10,10,13,13,14,14,15,15,16,16,17,17,18,18,19,19,21,21,22,22,24,24,25,25,26,26,27,27,28,28,29,29,30,30,31,31,32,32,33,33],"right_children":[2,4,6,8,10,12,-1,14,16,18,20,-1,-1,22,24,26,28,30,32,34,-1,36,38,-1,40,42,44,46,48,50,52,54,56,58,-1,-1,-1,-1,-1,-1,-1,-1,-1,-1,-1,-1,-1,-1,-1,-1,-1,-1,-1,-1,-1,-1,-1,-1,-1],"split_conditions":[8.384612E2,1.5734838E-4,1.243E3,2.707522E3,8.377444E1,5.6515986E3,1.7192918E0,1.8558E3,5.414495E3,1.9999926E0,1.03765E4,4.8161317E-2,3.206257E-1,1.0623608E1,2.8902277E2,2.5E0,1.1451665E0,5E-1,9.6710086E-2,6.4392627E3,-2.6549118E0,8.533E3,6.795371E1,-5.6867983E-2,7.864628E1,4.0178857E2,1.9979912E0,1.3463E4,1.873E4,1.4773464E0,2.2538E4,2.5E0,1.6619553E2,6.19905E4,3.590973E-1,-1.3932766E-1,4.4928014E-1,2.0403786E0,4.675166E-1,-3.5566065E-1,-1.3295513E0,4.7207767E-1,2.0839791E0,-1.7312303E-1,7.1410036E-1,-4.8709312E-1,3.0289462E-1,6.162832E-1,-7.637129E-2,-2.76812E-1,1.1967591E0,2.3081023E-1,1.0592546E0,-1.3061155E0,-2.2118847E-1,-3.0762064E-1,2.6053748E-1,-6.7102814E-1,-1.6177025E-1],"split_indices":[6,5,0,1,12,1,0,1,1,7,4,0,0,7,8,2,7,2,5,1,0,4,12,0,10,6,7,4,3,5,3,2,10,3,0,0,0,0,0,0,0,0,0,0,0,0,0,0,0,0,0,0,0,0,0,0,0,0,0],"split_type":[0,0,0,0,0,0,0,0,0,0,0,0,0,0,0,0,0,0,0,0,0,0,0,0,0,0,0,0,0,0,0,0,0,0,0,0,0,0,0,0,0,0,0,0,0,0,0,0,0,0,0,0,0,0,0,0,0,0,0],"sum_hessian":[3.23E2,3.2E2,3E0,2.37E2,8.3E1,2E0,1E0,1.52E2,8.5E1,7.7E1,6E0,1E0,1E0,1.45E2,7E0,2.8E1,5.7E1,5E1,2.7E1,4E0,2E0,1.36E2,9E0,1E0,6E0,1.5E1,1.3E1,2.8E1,2.9E1,1.9E1,3.1E1,1.4E1,1.3E1,3E0,1E0,1.1E2,2.6E1,1E0,8E0,1E0,5E0,7E0,8E0,9E0,4E0,1.7E1,1.1E1,2.2E1,7E0,1.8E1,1E0,2.2E1,9E0,8E0,6E0,5E0,8E0,2E0,1E0],"tree_param":{"num_deleted":"0","num_feature":"13","num_nodes":"59","size_leaf_vector":"0"}},{"base_weights":[1.4684421E-1,3.5232925E-1,-3.3342862E-1,1.6514432E-1,4.3790092E0,-4.1321425E0,-8.2062185E-2,3.7238726E-1,-8.53129E-1,7.979706E0,1.6958956E0,-8.1557465E-1,-7.1768517E0,-3.82727E-1,1.3700161E0,-4.685933E-1,8.5911167E-1,5.181554E-1,-2.0446286E0,1.9651438E0,4.0203094E-2,-4.9121857E-2,-1.054685E0,-1.9562665E-2,-2.8139718E0,-1.2945954E0,2.366103E0,3.6623117E-2,-1.746857E0,1.8106968E0,3.8450465E-1,-1.818222E0,9.238415E-1,-2.565136E0,2.992096E-2,2.4421656E-1,-2.785984E0,-3.7950122E0,-1.0739288E0,-2.0879269E0,9.393654E-1,4.0495796E0,5.851081E-1,-1.2933528E0,9.2205304E-1,-1.1514367E-1,-2.9230902E0,3.9353251E0,6.7874056E-1,-4.973E-1,1.6676395E0,2.9855624E-1,1.9162241E0,-3.0923257E0,-1.4455599E0,-1.2299601E0,1.2798284E0,-7.656137E-2,3.304367E0,-3.810196E-1,-3.190773E0,-4.198897E0,-8.877945E-1,-3.0614218E-2,-1.7592672E0,-2.4123204E0,-5.5737305E-1,-7.262319E-1,1.2548904E0],"categories":[],"categories_nodes":[],"categories_segments":[],"categories_sizes":[],"default_left":[1,1,1,1,1,1,1,1,1,0,1,1,0,1,1,1,1,1,1,0,0,0,0,1,1,1,1,1,1,1,1,0,1,1,1,1,1,1,1,1,0,0,1,0,0,0,0,0,0,0,0,0,0,0,0,0,0,0,0,0,0,0,0,0,0,0,0,0,0],"id":21,"left_children":[1,3,5,7,9,11,13,15,17,-1,19,21,-1,23,25,27,29,31,33,-1,-1,-1,-1,35,37,39,41,43,45,47,49,-1,51,53,55,57,59,61,63,65,-1,-1,67,-1,-1,-1,-1,-1,-1,-1,-1,-1,-1,-1,-1,-1,-1,-1,-1,-1,-1,-1,-1,-1,-1,-1,-1,-1,-1],"loss_changes":[3.1895296E1,1.6962067E2,9.22832E1,4.6111195E1,8.307805E1,5.473465E1,4.0690517E1,7.449054E1,6.1513172E1,0E0,3.0415401E0,6.812587E-1,0E0,6.793144E1,4.553009E1,4.3332565E1,5.124111E1,1.8740793E1,2.1673126E1,0E0,0E0,0E0,0E0,5.0301643E1,1.2994942E1,1.0822683E1,3.360972E1,5.8894966E1,3.6129654E1,8.871842E1,8.908431E1,0E0,9.356253E0,4.9735107E0,9.447811E0,6.20956E1,4.625271E0,3.3173294E0,3.5212584E0,6.4144707E-1,0E0,0E0,7.059529E0,0E0,0E0,0E0,0E0,0E0,0E0,0E0,0E0,0E0,0E0,0E0,0E0,0E0,0E0,0E0,0E0,0E0,0E0,0E0,0E0,0E0,0E0,0E0,0E0,0E0,0E0],"parents":[2147483647,0,0,1,1,2,2,3,3,4,4,5,5,6,6,7,7,8,8,10,10,11,11,13,13,14,14,15,15,16,16,17,17,18,18,23,23,24,24,25,25,26,26,27,27,28,28,29,29,30,30,32,32,33,33,34,34,35,35,36,36,37,37,38,38,39,39,42,42],"right_children":[2,4,6,8,10,12,14,16,18,-1,20,22,-1,24,26,28,30,32,34,-1,-1,-1,-1,36,38,40,42,44,46,48,50,-1,52,54,56,58,60,62,64,66,-1,-1,68,-1,-1,-1,-1,-1,-1,-1,-1,-1,-1,-1,-1,-1,-1,-1,-1,-1,-1,-1,-1,-1,-1,-1,-1,-1,-1],"split_conditions":[9.884E3,8.4375E3,1.0525E4,5.4933417E2,1.9285431E2,1.1890874E3,1.3305723E3,3.8208685E2,1.2734578E3,2.3939118E0,1.1518118E3,3.478595E3,-2.1530557E0,1.2124941E3,7.012056E1,3.5631036E2,6.6195076E1,4.0329697E1,4.6931796E-2,5.8954316E-1,1.2060929E-2,-1.4736557E-2,-3.164055E-1,1.3726782E2,1.286972E3,1.1062275E4,1.3432849E2,2.2379208E2,1.17836044E2,5E-1,7.8900665E1,-5.4546666E-1,3E0,1.20017334E2,8.5504824E-1,1.3110458E2,3.1349048E2,9E0,1.0295782E0,8.645631E3,2.8180963E-1,1.2148739E0,1.36015E4,-3.8800588E-1,2.7661592E-1,-3.4543104E-2,-8.769271E-1,1.1805975E0,2.0362218E-1,-1.4919001E-1,5.002919E-1,8.956687E-2,5.7486725E-1,-9.276977E-1,-4.33668E-1,-3.6898804E-1,3.8394853E-1,-2.2968411E-2,9.913102E-1,-1.1430588E-1,-9.5723194E-1,-1.2596691E0,-2.6633835E-1,-9.1842655E-3,-5.277802E-1,-7.236961E-1,-1.6721192E-1,-2.1786956E-1,3.7646714E-1],"split_indices":[4,4,4,6,10,8,8,6,8,0,8,1,0,8,12,6,12,10,5,0,0,0,0,11,8,1,11,10,11,2,12,0,2,11,2,11,6,2,7,1,0,0,4,0,0,0,0,0,0,0,0,0,0,0,0,0,0,0,0,0,0,0,0,0,0,0,0,0,0],"split_type":[0,0,0,0,0,0,0,0,0,0,0,0,0,0,0,0,0,0,0,0,0,0,0,0,0,0,0,0,0,0,0,0,0,0,0,0,0,0,0,0,0,0,0,0,0,0,0,0,0,0,0,0,0,0,0,0,0,0,0,0,0,0,0,0,0,0,0,0,0],"sum_hessian":[3.21E2,2.25E2,9.6E1,2.16E2,9E0,5E0,9.1E1,1.8E2,3.6E1,3E0,6E0,3E0,2E0,7.6E1,1.5E1,6.6E1,1.14E2,1.7E1,1.9E1,5E0,1E0,1E0,2E0,6.7E1,9E0,4E0,1.1E1,4.8E1,1.8E1,3.7E1,7.7E1,2E0,1.5E1,1.5E1,4E0,6.2E1,5E0,5E0,4E0,3E0,1E0,5E0,6E0,1.9E1,2.9E1,8E0,1E1,1.2E1,2.5E1,4.6E1,3.1E1,1E1,5E0,9E0,6E0,2E0,2E0,5.7E1,5E0,1E0,4E0,4E0,1E0,2E0,2E0,2E0,1E0,2E0,4E0],"tree_param":{"num_deleted":"0","num_feature":"13","num_nodes":"69","size_leaf_vector":"0"}},{"base_weights":[1.1298365E-1,-1.657211E-1,5.06589E-1,1.865402E-2,-9.796894E-1,2.0754938E0,1.6777971E-1,7.234181E-1,-3.168032E-1,-3.5029474E-1,-4.5601196E0,4.5807344E-1,4.540584E0,4.136763E0,-2.465006E-2,1.9321008E-1,2.176824E0,1.839646E-1,-8.9443225E-1,-1.1014076E0,1.8529415E0,-5.9706173E0,5.409355E-1,2.9308395E0,7.210159E-2,5.4946804E0,-1.546093E0,4.7035885E0,9.347305E-1,3.05152E0,-2.1083562E-1,-2.7234057E-1,1.3183608E0,5.0186462E0,1.2038887E0,2.8792226E-1,-2.7668533E0,2.2945802E-1,-1.8542416E0,-4.681956E-2,-2.7366757E0,-2.2109222E0,2.7493396E0,7.371434E-1,-5.1882267E-1,6.140854E0,4.8573303E-1,4.5888953E0,1.1356087E0,4.410994E-1,-1.5896089E0,-1.8487625E0,6.1857945E-1,1.8172729E0,-1.8353806E0,1.58428E0,1.4213371E-1,-4.7363243E-1,7.030103E-1,-1.5016371E0,9.2876434E-1,-2.7850714E0,-8.640671E-2,-1.8749479E0,1.0547394E0,-1.1942425E0,-3.308852E0,3.868367E0,-3.2152813E-2,9.146436E-1,-1.6392899E-1,-1.1015701E0,3.3931732E-1,6.603943E0,1.68116E0,-1.4403658E0,1.2550508E0,1.0285764E0,-2.5051947E0],"categories":[],"categories_nodes":[],"categories_segments":[],"categories_sizes":[],"default_left":[1,1,1,1,1,1,1,1,1,1,1,1,1,1,1,1,1,1,1,1,1,0,0,0,1,1,0,0,0,1,1,1,1,0,1,1,0,1,1,1,1,0,1,1,1,1,0,0,0,1,1,0,0,0,0,0,0,0,0,0,0,0,0,0,0,0,0,0,0,0,0,0,0,0,0,0,0,0,0],"id":22,"left_children":[1,3,5,7,9,11,13,15,17,19,21,23,25,27,29,31,33,35,37,39,41,-1,-1,-1,43,45,-1,-1,-1,47,49,51,53,-1,55,57,-1,59,61,63,65,-1,67,69,71,73,-1,-1,-1,75,77,-1,-1,-1,-1,-1,-1,-1,-1,-1,-1,-1,-1,-1,-1,-1,-1,-1,-1,-1,-1,-1,-1,-1,-1,-1,-1,-1,-1],"loss_changes":[3.441995E1,2.7632166E1,6.875452E1,3.592833E1,7.5021736E1,8.962309E1,8.258703E1,3.7339184E1,2.9958118E1,5.1687218E1,3.920485E1,1.4104954E1,6.0760773E1,4.678383E0,6.0208168E1,1.9740185E1,2.9901936E1,1.7975206E1,5.2204052E1,3.9536156E1,3.522129E1,0E0,0E0,0E0,5.884297E0,2.291037E1,0E0,0E0,0E0,1.24616585E1,8.968936E1,3.9064182E1,2.0643229E1,0E0,4.2175283E0,1.7719143E1,0E0,2.9237679E1,4.2543747E1,3.2184444E1,3.9913177E0,0E0,2.1912342E1,1.26952E0,4.374413E0,3.3543396E0,0E0,0E0,0E0,1.0594438E2,7.928633E1,0E0,0E0,0E0,0E0,0E0,0E0,0E0,0E0,0E0,0E0,0E0,0E0,0E0,0E0,0E0,0E0,0E0,0E0,0E0,0E0,0E0,0E0,0E0,0E0,0E0,0E0,0E0,0E0],"parents":[2147483647,0,0,1,1,2,2,3,3,4,4,5,5,6,6,7,7,8,8,9,9,10,10,11,11,12,12,13,13,14,14,15,15,16,16,17,17,18,18,19,19,20,20,24,24,25,25,29,29,30,30,31,31,32,32,34,34,35,35,37,37,38,38,39,39,40,40,42,42,43,43,44,44,45,45,49,49,50,50],"right_children":[2,4,6,8,10,12,14,16,18,20,22,24,26,28,30,32,34,36,38,40,42,-1,-1,-1,44,46,-1,-1,-1,48,50,52,54,-1,56,58,-1,60,62,64,66,-1,68,70,72,74,-1,-1,-1,76,78,-1,-1,-1,-1,-1,-1,-1,-1,-1,-1,-1,-1,-1,-1,-1,-1,-1,-1,-1,-1,-1,-1,-1,-1,-1,-1,-1,-1],"split_conditions":[1.1302426E3,9.846235E2,1.2665554E3,1.1857631E0,4.00291E5,7.8474144E1,5.7843674E1,8.920658E2,5.5751556E2,2.267468E0,9.48755E5,2.5690717E2,2.27881E4,4.8862103E2,3.2288907E2,7.677565E3,9.272869E2,2.1216343E3,7.020553E1,4.3531946E2,3.676E3,-1.7911853E0,1.6228066E-1,8.792519E-1,1.7146596E2,8.850908E1,-4.638279E-1,1.4110765E0,2.8041917E-1,8.7815E3,7.784108E1,1.199776E2,1.3749838E2,1.5055939E0,1.1953973E4,1.9539665E2,-8.30056E-1,5.643105E1,3.5811896E0,1.12636856E2,1.13772964E2,-6.632767E-1,1.0926582E3,2.3449387E4,3.665623E2,1.49355E4,1.4571992E-1,1.3766687E0,3.4068263E-1,6.422915E1,1.1966945E2,-5.546288E-1,1.8557385E-1,5.451819E-1,-5.506142E-1,4.75284E-1,4.2640116E-2,-1.4208974E-1,2.1090311E-1,-4.5049116E-1,2.786293E-1,-8.3552146E-1,-2.5922013E-2,-5.624844E-1,3.164218E-1,-3.5827276E-1,-9.9265563E-1,1.1605102E0,-9.645844E-3,2.7439308E-1,-4.9178697E-2,-3.3047104E-1,1.01795204E-1,1.9811829E0,5.0434804E-1,-4.3210974E-1,3.7651524E-1,3.0857292E-1,-7.515584E-1],"split_indices":[8,8,8,7,3,12,12,8,8,7,3,6,1,6,6,1,8,10,12,6,4,0,0,0,10,12,0,0,0,4,12,11,11,0,1,8,0,12,7,11,11,0,8,1,10,4,0,0,0,12,11,0,0,0,0,0,0,0,0,0,0,0,0,0,0,0,0,0,0,0,0,0,0,0,0,0,0,0,0],"split_type":[0,0,0,0,0,0,0,0,0,0,0,0,0,0,0,0,0,0,0,0,0,0,0,0,0,0,0,0,0,0,0,0,0,0,0,0,0,0,0,0,0,0,0,0,0,0,0,0,0,0,0,0,0,0,0,0,0,0,0,0,0,0,0,0,0,0,0,0,0,0,0,0,0,0,0,0,0,0,0],"sum_hessian":[3.12E2,1.83E2,1.29E2,1.5E2,3.3E1,2.2E1,1.07E2,4.8E1,1.02E2,2.9E1,4E0,1.4E1,8E0,4E0,1.03E2,3.6E1,1.2E1,5.5E1,4.7E1,2.2E1,7E0,3E0,1E0,1E0,1.3E1,7E0,1E0,3E0,1E0,5E0,9.8E1,2.6E1,1E1,2E0,1E1,5.4E1,1E0,2.2E1,2.5E1,1.4E1,8E0,1E0,6E0,6E0,7E0,6E0,1E0,2E0,3E0,6.7E1,3.1E1,9E0,1.7E1,9E0,1E0,7E0,3E0,1.9E1,3.5E1,6E0,1.6E1,1.6E1,9E0,5E0,9E0,3E0,5E0,4E0,2E0,5E0,1E0,4E0,3E0,5E0,1E0,2E1,4.7E1,8E0,2.3E1],"tree_param":{"num_deleted":"0","num_feature":"13","num_nodes":"79","size_leaf_vector":"0"}},{"base_weights":[1.8895073E-1,1.3714685E-1,1.9868486E0,1.0882289E-1,3.0560048E0,3.1625862E0,-2.7346992E-1,5.950758E-1,-6.846744E-2,5.701065E-1,4.0139008E0,4.5231953E0,2.942454E-1,1.0214233E0,-1.0455755E0,2.8822002E-1,2.412192E0,-1.6137391E-1,1.8043324E0,6.251646E-1,-1.8970474E0,4.1256104E0,1.0397816E0,-1.0439682E-1,-6.3481674E0,3.2793322E0,-1.5967503E0,3.1471583E-1,4.2255173E0,-3.467064E0,3.6638182E-1,4.6710052E0,9.720154E-1,1.7020975E0,-6.314443E-1,-2.2030935E-1,1.1334308E0,7.2100323E-1,4.0119414E0,-1.9071909E0,-3.3271408E-1],"categories":[],"categories_nodes":[],"categories_segments":[],"categories_sizes":[],"default_left":[1,1,1,1,1,1,1,1,1,0,0,0,0,0,0,1,1,1,1,1,1,1,1,1,0,1,1,0,0,0,0,0,0,0,0,0,0,0,0,0,0],"id":23,"left_children":[1,3,5,7,9,11,13,15,17,-1,-1,-1,-1,-1,-1,19,21,23,25,27,29,31,33,35,-1,37,39,-1,-1,-1,-1,-1,-1,-1,-1,-1,-1,-1,-1,-1,-1],"loss_changes":[2.990426E1,2.579229E1,2.4782745E1,2.7110035E1,4.855345E0,2.2085217E1,5.067152E0,4.614254E1,4.048407E1,0E0,0E0,0E0,0E0,0E0,0E0,5.4936897E1,2.3928429E1,7.724099E1,6.041884E1,7.0204575E1,3.680648E1,4.0594864E0,9.929815E0,3.1815247E1,0E0,1.2101418E1,9.3508434E-1,0E0,0E0,0E0,0E0,0E0,0E0,0E0,0E0,0E0,0E0,0E0,0E0,0E0,0E0],"parents":[2147483647,0,0,1,1,2,2,3,3,4,4,5,5,6,6,7,7,8,8,15,15,16,16,17,17,18,18,19,19,20,20,21,21,22,22,23,23,25,25,26,26],"right_children":[2,4,6,8,10,12,14,16,18,-1,-1,-1,-1,-1,-1,20,22,24,26,28,30,32,34,36,-1,38,40,-1,-1,-1,-1,-1,-1,-1,-1,-1,-1,-1,-1,-1,-1],"split_conditions":[1.4107666E3,8.7849084E2,7.996742E1,5.545516E2,1.243E3,5.43E3,4.193501E2,5.014237E2,8.467536E1,1.7103195E-1,1.2041702E0,1.3569586E0,8.827362E-2,3.06427E-1,-3.1367266E-1,4.6413577E2,2.3134102E3,8.397681E1,2.4865592E-2,4.3660162E2,4.3989996E4,1.55E1,1.3600397E2,1.3519449E2,-1.9044503E0,1.9219098E2,1.8095232E3,9.4414756E-2,1.2676553E0,-1.0401192E0,1.0991455E-1,1.4013016E0,2.9160464E-1,5.106293E-1,-1.8943329E-1,-6.6092804E-2,3.4002927E-1,2.1630098E-1,1.2035825E0,-5.721573E-1,-9.981423E-2],"split_indices":[8,6,12,8,0,4,6,8,12,0,0,0,0,0,0,8,1,12,5,8,3,2,11,11,0,10,1,0,0,0,0,0,0,0,0,0,0,0,0,0,0],"split_type":[0,0,0,0,0,0,0,0,0,0,0,0,0,0,0,0,0,0,0,0,0,0,0,0,0,0,0,0,0,0,0,0,0,0,0,0,0,0,0,0,0],"sum_hessian":[3.23E2,3.15E2,8E0,3.13E2,2E0,5E0,3E0,8.3E1,2.3E2,1E0,1E0,3E0,2E0,1E0,2E0,7.2E1,1.1E1,2.2E2,1E1,6.3E1,9E0,4E0,7E0,2.19E2,1E0,7E0,3E0,5.9E1,4E0,5E0,4E0,3E0,1E0,5E0,2E0,2.01E2,1.8E1,2E0,5E0,2E0,1E0],"tree_param":{"num_deleted":"0","num_feature":"13","num_nodes":"41","size_leaf_vector":"0"}},{"base_weights":[1.2604597E-1,1.6141158E0,5.981824E-2,-1.8570614E-1,3.744859E0,-1.0774268E0,1.7416823E-1,3.4194311E-1,-1.1791025E0,4.548954E0,1.4244461E0,-1.6714422E0,1.8705292E0,1.5614636E0,6.803711E-2,5.7262117E-1,-4.0572357E-1,-1.0620112E0,-2.912711E0,2.7365468E0,3.810018E-1,3.4969635E0,3.9915878E-1,-3.2574922E-1,4.3403795E-1,-4.3720245E-1,-2.134627E0,-3.1166317E0,-8.4459305E-1,8.691406E-2,4.8458862E-1,4.304049E0,-6.7277527E-1,2.678585E0,-5.525276E-1,-4.4430647E-2,-1.6632458E0,5.929157E-2,1.5798459E0,-7.9703826E-1,9.0798444E-1,-1.0550938E0,-2.8624623E0,4.671968E0,1.2322273E0,3.0197346E0,8.2756805E-1,-2.0874386E0,4.034969E-1,5.805324E-1,-4.6375936E-1,-2.1270049E0,8.3948135E-1,-6.5388346E-1,7.433364E-1,2.9069388E0,-1.1798859E-1],"categories":[],"categories_nodes":[],"categories_segments":[],"categories_sizes":[],"default_left":[1,1,1,1,1,1,1,1,0,0,0,1,1,1,1,0,0,1,1,0,1,1,1,1,1,1,1,0,0,0,0,1,0,1,1,1,1,1,1,0,0,0,0,0,0,0,0,0,0,0,0,0,0,0,0,0,0],"id":24,"left_children":[1,3,5,7,9,11,13,15,-1,-1,-1,17,19,21,23,-1,-1,25,27,-1,29,31,33,35,37,39,41,-1,-1,-1,-1,43,-1,45,47,49,51,53,55,-1,-1,-1,-1,-1,-1,-1,-1,-1,-1,-1,-1,-1,-1,-1,-1,-1,-1],"loss_changes":[3.0060204E1,5.05499E1,3.8420574E1,4.5965047E0,4.7152557E0,5.0407013E1,3.93528E1,1.2671477E0,0E0,0E0,0E0,1.430542E1,5.407158E0,4.134733E1,3.617292E1,0E0,0E0,1.0459795E1,3.1983948E-1,0E0,4.9273252E-2,2.6453018E1,2.968088E1,4.545388E1,5.5726685E1,6.532256E0,1.6941662E0,0E0,0E0,0E0,0E0,1.0241547E0,0E0,2.6857376E-2,1.5516399E1,2.6737785E1,2.6159492E1,4.878258E1,7.2444885E1,0E0,0E0,0E0,0E0,0E0,0E0,0E0,0E0,0E0,0E0,0E0,0E0,0E0,0E0,0E0,0E0,0E0,0E0],"parents":[2147483647,0,0,1,1,2,2,3,3,4,4,5,5,6,6,7,7,11,11,12,12,13,13,14,14,17,17,18,18,20,20,21,21,22,22,23,23,24,24,25,25,26,26,31,31,33,33,34,34,35,35,36,36,37,37,38,38],"right_children":[2,4,6,8,10,12,14,16,-1,-1,-1,18,20,22,24,-1,-1,26,28,-1,30,32,34,36,38,40,42,-1,-1,-1,-1,44,-1,46,48,50,52,54,56,-1,-1,-1,-1,-1,-1,-1,-1,-1,-1,-1,-1,-1,-1,-1,-1,-1,-1],"split_conditions":[1.000072E2,9.470104E2,1.076625E2,1.7223655E5,3.425926E-2,5.919343E2,6.08743E1,4.1185412E-1,-3.5373077E-1,1.3646863E0,4.2733386E-1,5.0125E3,5.4016218E-2,7.5E0,7.5068565E1,1.7178635E-1,-1.2171707E-1,1.05437614E2,8.44075E3,8.2096404E-1,7.385522E3,1.3384491E2,1.10027336E2,1.226584E2,5.3879504E2,4.8647734E4,3.2950075E0,-9.349896E-1,-2.533779E-1,2.607422E-2,1.453766E-1,6.5E0,-2.0183259E-1,1.25E1,1.11864E2,2.2304079E2,6.567529E-2,5E-1,4.613E3,-2.3911148E-1,2.7239534E-1,-3.1652814E-1,-8.587387E-1,1.4015905E0,3.6966822E-1,9.0592045E-1,2.4827042E-1,-6.262316E-1,1.2104907E-1,1.7415972E-1,-1.3912782E-1,-6.3810146E-1,2.518444E-1,-1.9616504E-1,2.2300093E-1,8.720817E-1,-3.5396576E-2],"split_indices":[11,8,11,3,5,6,12,5,0,0,0,4,5,2,12,0,0,11,1,0,1,11,11,11,10,3,7,0,0,0,0,2,0,2,11,10,5,2,4,0,0,0,0,0,0,0,0,0,0,0,0,0,0,0,0,0,0],"split_type":[0,0,0,0,0,0,0,0,0,0,0,0,0,0,0,0,0,0,0,0,0,0,0,0,0,0,0,0,0,0,0,0,0,0,0,0,0,0,0,0,0,0,0,0,0,0,0,0,0,0,0,0,0,0,0,0,0],"sum_hessian":[3.05E2,1.2E1,2.93E2,7E0,5E0,2.6E1,2.67E2,5E0,2E0,3E0,2E0,2.2E1,4E0,1.8E1,2.49E2,4E0,1E0,1.6E1,6E0,2E0,2E0,6E0,1.2E1,1.2E2,1.29E2,1.1E1,5E0,5E0,1E0,1E0,1E0,5E0,1E0,3E0,9E0,1E2,2E1,9.8E1,3.1E1,9E0,2E0,3E0,2E0,4E0,1E0,2E0,1E0,3E0,6E0,4E1,6E1,1.7E1,3E0,4.8E1,5E1,1.7E1,1.4E1],"tree_param":{"num_deleted":"0","num_feature":"13","num_nodes":"57","size_leaf_vector":"0"}},{"base_weights":[-6.863316E-2,-2.3802925E-2,-2.4481404E0,-1.8756016E-1,5.7461196E-1,-2.7597992E0,-4.449234E-1,-5.6641646E-2,-2.409129E0,-2.7001954E-3,1.9891617E0,1.5045677E-1,-8.627469E-1,-8.842358E-1,-4.294947E0,8.835883E-1,-5.288496E-1,-2.5575905E0,2.3630745E0,3.146571E-2,2.5532243E0,-1.7626408E-1,-2.4070237E0,-1.6103388E0,4.259777E-1,-6.1820016E0,-1.8059196E0,-3.4924593E-2,1.9080386E0,-8.8727397E-1,2.3607635E-1,3.8738795E-2,3.432865E0,1.6177447E-1,-2.0207963E0,6.5348816E-1,3.9423156E0,-4.7133088E-1,2.2283363E0,-4.231492E0,-7.205455E-1,-1.9530166E0,5.1525116E-2,5.677312E-1,3.5858154E-4,2.851135E-1,-1.6176529E0,2.3143997E0,3.2385E-1,-4.5943585E-1,-1.9516029E0,8.781719E-1,-1.1071339E0,-1.0063839E0,1.0741768E0,9.056193E-1,4.899191E0],"categories":[],"categories_nodes":[],"categories_segments":[],"categories_sizes":[],"default_left":[1,1,1,1,1,0,0,1,1,1,1,1,1,1,1,1,1,0,1,1,1,1,1,1,1,0,0,1,1,1,1,1,1,0,0,0,0,0,0,0,0,0,0,0,0,0,0,0,0,0,0,0,0,0,0,0,0],"id":25,"left_children":[1,3,5,7,9,-1,-1,11,13,15,17,19,21,23,25,27,29,-1,31,33,35,37,39,41,43,-1,-1,45,47,49,51,53,55,-1,-1,-1,-1,-1,-1,-1,-1,-1,-1,-1,-1,-1,-1,-1,-1,-1,-1,-1,-1,-1,-1,-1,-1],"loss_changes":[3.461074E1,3.1466099E1,2.5180206E0,7.315636E1,5.635331E1,0E0,0E0,4.0029213E1,3.6461655E1,2.3783293E1,4.0045547E1,5.452807E1,5.152158E1,9.248118E0,1.7017387E1,1.7945084E1,8.982844E0,0E0,4.7111496E1,4.926619E1,2.1173904E1,2.5883406E1,4.310491E1,3.5175323E0,2.4112839E-1,0E0,0E0,6.033082E0,5.0442543E0,9.121294E0,1.0459417E1,8.656153E0,4.373816E1,0E0,0E0,0E0,0E0,0E0,0E0,0E0,0E0,0E0,0E0,0E0,0E0,0E0,0E0,0E0,0E0,0E0,0E0,0E0,0E0,0E0,0E0,0E0,0E0],"parents":[2147483647,0,0,1,1,2,2,3,3,4,4,7,7,8,8,9,9,10,10,11,11,12,12,13,13,14,14,15,15,16,16,18,18,19,19,20,20,21,21,22,22,23,23,24,24,27,27,28,28,29,29,30,30,31,31,32,32],"right_children":[2,4,6,8,10,-1,-1,12,14,16,18,20,22,24,26,28,30,-1,32,34,36,38,40,42,44,-1,-1,46,48,50,52,54,56,-1,-1,-1,-1,-1,-1,-1,-1,-1,-1,-1,-1,-1,-1,-1,-1,-1,-1,-1,-1,-1,-1,-1,-1],"split_conditions":[9.402763E1,5.088448E2,4.15372E3,4.8271155E2,1.3068109E2,-8.279398E-1,-1.3347703E-1,1.27107994E2,7.259155E1,1.1069977E2,7.204385E1,1.24589066E2,1.3095264E3,1.6172767E0,4.9396353E2,1.8575217E2,3.6795E3,-7.672772E-1,7.355996E1,1.2306412E2,7.6454216E1,4.3463824E2,1.3528893E2,4.0737668E2,1.0859305E4,-1.8546005E0,-5.4177594E-1,5.1801367E3,5.4016218E-2,1.0985E3,7.6335144E1,1.13159984E5,6.806208E2,4.8532344E-2,-6.062389E-1,1.9604646E-1,1.1826947E0,-1.4139926E-1,6.685009E-1,-1.2694477E0,-2.1616365E-1,-5.85905E-1,1.5457535E-2,1.7031936E-1,1.07574466E-4,8.553406E-2,-4.852959E-1,6.9431996E-1,9.7155005E-2,-1.3783076E-1,-5.854809E-1,2.6345158E-1,-3.3214018E-1,-3.0191517E-1,3.2225305E-1,2.716858E-1,1.4697573E0],"split_indices":[12,6,1,6,11,0,0,11,12,11,12,11,8,7,6,10,4,0,10,11,12,6,11,1,1,0,0,1,5,4,12,3,8,0,0,0,0,0,0,0,0,0,0,0,0,0,0,0,0,0,0,0,0,0,0,0,0],"split_type":[0,0,0,0,0,0,0,0,0,0,0,0,0,0,0,0,0,0,0,0,0,0,0,0,0,0,0,0,0,0,0,0,0,0,0,0,0,0,0,0,0,0,0,0,0,0,0,0,0,0,0,0,0,0,0,0,0],"sum_hessian":[3.24E2,3.19E2,5E0,2.51E2,6.8E1,4E0,1E0,2.38E2,1.3E1,4.9E1,1.9E1,1.9E2,4.8E1,8E0,5E0,1.8E1,3.1E1,1E0,1.8E1,1.82E2,8E0,3.4E1,1.4E1,5E0,3E0,2E0,3E0,1E1,8E0,2.1E1,1E1,6E0,1.2E1,1.72E2,1E1,4E0,4E0,3.1E1,3E0,6E0,8E0,4E0,1E0,2E0,1E0,9E0,1E0,6E0,2E0,1.6E1,5E0,7E0,3E0,3E0,3E0,5E0,7E0],"tree_param":{"num_deleted":"0","num_feature":"13","num_nodes":"57","size_leaf_vector":"0"}},{"base_weights":[-4.479675E-2,-1.1573265E0,2.8785404E-2,-1.8362569E0,7.3288727E-1,-3.8362393E-1,2.692076E-1,-2.3285196E0,-3.8602751E-1,-5.7234573E-1,2.228902E0,3.852333E0,-4.564914E-1,3.2468872E0,1.7222746E-1,-2.547879E0,-6.746292E-2,-1.3096809E0,1.7230606E-1,-1.0217692E0,3.8796234E-1,-1.6008785E-1,-1.3727067E0,1.1969833E0,4.8977966E0,5.379355E-1,-4.0624717E-1,-1.0684112E0,-3.3561223E0,3.40978E-1,-1.6685486E-1,-8.0690235E-1,3.0882034E-1,-2.2639053E0,6.612354E-1,3.8863465E-1,8.779114E0,-6.767014E-1,1.0249538E0,-1.5673409E0,4.6365356E-1,-2.8415152E-1,-2.6010113E0,9.2186636E-1,-6.5684205E-1,-3.0154154E0,-5.448281E-1,-5.756912E-1,1.3756472E0,2.774814E0,2.7663893E-1,-1.4669065E0,-6.52504E-2,-1.2347158E-1,3.3526726E0],"categories":[],"categories_nodes":[],"categories_segments":[],"categories_sizes":[],"default_left":[1,1,1,1,1,1,1,1,1,1,0,0,1,1,1,1,0,0,1,0,0,1,1,0,0,1,1,1,0,0,0,1,1,1,1,1,0,1,1,0,0,0,0,0,0,0,0,0,0,0,0,0,0,0,0],"id":26,"left_children":[1,3,5,7,9,11,13,15,17,19,-1,-1,21,23,25,27,-1,-1,29,-1,-1,31,33,-1,-1,35,37,39,-1,-1,-1,41,43,45,47,49,-1,51,53,-1,-1,-1,-1,-1,-1,-1,-1,-1,-1,-1,-1,-1,-1,-1,-1],"loss_changes":[2.6392984E1,2.7012243E1,3.0146439E1,9.809536E0,1.29915905E1,3.6328873E1,5.4885742E1,5.2839394E0,2.8041997E0,2.122748E0,0E0,0E0,2.9924456E1,1.4442654E1,3.977891E1,8.371979E0,0E0,0E0,2.857215E-1,0E0,0E0,2.60294E1,5.043842E1,0E0,0E0,1.380858E2,2.8950024E1,4.548665E0,0E0,0E0,0E0,3.3024307E1,3.0205297E1,2.2903297E1,8.745023E0,2.9697954E1,0E0,2.9860931E1,3.2492496E1,0E0,0E0,0E0,0E0,0E0,0E0,0E0,0E0,0E0,0E0,0E0,0E0,0E0,0E0,0E0,0E0],"parents":[2147483647,0,0,1,1,2,2,3,3,4,4,5,5,6,6,7,7,8,8,9,9,12,12,13,13,14,14,15,15,18,18,21,21,22,22,25,25,26,26,27,27,31,31,32,32,33,33,34,34,35,35,37,37,38,38],"right_children":[2,4,6,8,10,12,14,16,18,20,-1,-1,22,24,26,28,-1,-1,30,-1,-1,32,34,-1,-1,36,38,40,-1,-1,-1,42,44,46,48,50,-1,52,54,-1,-1,-1,-1,-1,-1,-1,-1,-1,-1,-1,-1,-1,-1,-1,-1],"split_conditions":[2.4759973E2,2.7608301E-2,2.1072308E2,9.452237E2,1.2325652E2,2.5159203E2,2.2723593E2,2.9769E4,1.1082117E2,2.470956E4,6.6867065E-1,1.1557E0,7.993381E1,4.7932782E2,4.447802E2,1.1687193E2,-2.0238876E-2,-3.929043E-1,7.0505E3,-3.0653077E-1,1.1638871E-1,6.87361E1,1.7547594E0,3.59095E-1,1.469339E0,4.4424136E2,1.35E1,5.5E0,-1.0068368E0,1.022934E-1,-5.005646E-2,1.15E1,1.2149435E2,8.4603546E1,4.9081314E2,5.6695953E1,2.6337342E0,5.0609283E2,1.2514253E2,-4.7020227E-1,1.3909608E-1,-8.524546E-2,-7.803034E-1,2.7655992E-1,-1.9705263E-1,-9.0462464E-1,-1.6344844E-1,-1.7270738E-1,4.126942E-1,8.324442E-1,8.299168E-2,-4.4007197E-1,-1.9575119E-2,-3.7041474E-2,1.0058018E0],"split_indices":[6,5,10,8,6,6,10,3,11,1,0,0,12,6,6,11,0,0,4,0,0,12,7,0,0,6,2,2,0,0,0,2,11,12,8,12,0,6,11,0,0,0,0,0,0,0,0,0,0,0,0,0,0,0,0],"split_type":[0,0,0,0,0,0,0,0,0,0,0,0,0,0,0,0,0,0,0,0,0,0,0,0,0,0,0,0,0,0,0,0,0,0,0,0,0,0,0,0,0,0,0,0,0,0,0,0,0,0,0,0,0,0,0],"sum_hessian":[3.21E2,1.9E1,3.02E2,1.4E1,5E0,1.11E2,1.91E2,1E1,4E0,3E0,2E0,1E0,1.1E2,5E0,1.86E2,9E0,1E0,1E0,3E0,2E0,1E0,8.4E1,2.6E1,3E0,2E0,1.14E2,7.2E1,4E0,5E0,2E0,1E0,3.5E1,4.9E1,1.8E1,8E0,1.13E2,1E0,6.1E1,1.1E1,3E0,1E0,2.8E1,7E0,3E1,1.9E1,1.2E1,6E0,3E0,5E0,4E0,1.09E2,2.6E1,3.5E1,8E0,3E0],"tree_param":{"num_deleted":"0","num_feature":"13","num_nodes":"55","size_leaf_vector":"0"}},{"base_weights":[5.263959E-3,3.6590952E-2,-2.3769035E0,5.0468206E-1,-8.786723E-2,4.013386E-1,3.50766E0,-1.4189956E0,4.7987883E-4,2.0669236E0,2.53385E-1,-5.4479915E-1,-3.6868362E0,9.336992E-2,-1.419445E0,4.811859E-2,2.559595E0,-1.8620864E-2,1.1290196E0,-1.023673E0,3.303589E-1,-7.228397E-2,2.0172582E0,-2.276547E0,1.0278193E-1,3.7069383E-1,-7.7175426E-1,4.1317156E-1,2.0146217E0,-1.2711321E0,-1.8753052E-1,7.3333234E-1,-1.8273418E-1,7.1978736E-1,-2.1246062E-1,2.7940454E0,1.0163312E0,-2.4621582E0,-3.9582825E-1,1.0824356E0,-1.2376837E0],"categories":[],"categories_nodes":[],"categories_segments":[],"categories_sizes":[],"default_left":[1,1,0,1,1,1,0,1,1,1,1,1,0,1,1,0,0,1,1,1,1,1,1,1,1,0,0,0,0,0,0,0,0,0,0,0,0,0,0,0,0],"id":27,"left_children":[1,3,-1,5,7,9,-1,11,13,15,17,19,-1,21,23,-1,-1,25,27,29,31,33,35,37,39,-1,-1,-1,-1,-1,-1,-1,-1,-1,-1,-1,-1,-1,-1,-1,-1],"loss_changes":[2.29972E1,1.7754707E1,0E0,1.845388E1,2.8342606E1,1.500132E1,0E0,2.7729486E1,3.0073126E1,4.8498745E0,1.407351E1,5.367264E0,0E0,6.834753E1,1.849984E1,0E0,0E0,1.3773555E1,8.043005E0,1.4169121E0,1.1678194E0,2.2136848E1,1.0377953E1,2.1671486E0,9.218864E0,0E0,0E0,0E0,0E0,0E0,0E0,0E0,0E0,0E0,0E0,0E0,0E0,0E0,0E0,0E0,0E0],"parents":[2147483647,0,0,1,1,3,3,4,4,5,5,7,7,8,8,9,9,10,10,11,11,13,13,14,14,17,17,18,18,19,19,20,20,21,21,22,22,23,23,24,24],"right_children":[2,4,-1,6,8,10,-1,12,14,16,18,20,-1,22,24,-1,-1,26,28,30,32,34,36,38,40,-1,-1,-1,-1,-1,-1,-1,-1,-1,-1,-1,-1,-1,-1,-1,-1],"split_conditions":[1.8193157E3,1.3417174E2,-7.130711E-1,1.3162177E2,1.5151067E2,2.7574945E2,1.0522981E0,1.2507535E2,8.667906E1,3.1726284E3,6.958555E-2,7.147355E1,-1.106051E0,8.2850235E1,6.365851E2,1.4435578E-2,7.678786E-1,6.8295E3,7.857477E1,6.294E3,1.19843254E2,1.0949631E2,1.2920993E2,5.2142584E-1,1.3816394E2,1.11208156E-1,-2.3152629E-1,1.2395147E-1,6.0438657E-1,-3.8133964E-1,-5.625916E-2,2.1999972E-1,-5.4820254E-2,2.1593621E-1,-6.373819E-2,8.382137E-1,3.0489936E-1,-7.3864746E-1,-1.1874848E-1,3.247307E-1,-3.713051E-1],"split_indices":[10,10,0,10,10,6,0,11,12,1,5,12,0,12,8,0,0,4,12,4,11,11,11,5,11,0,0,0,0,0,0,0,0,0,0,0,0,0,0,0,0],"split_type":[0,0,0,0,0,0,0,0,0,0,0,0,0,0,0,0,0,0,0,0,0,0,0,0,0,0,0,0,0,0,0,0,0,0,0,0,0,0,0,0,0],"sum_hessian":[3.06E2,3.03E2,3E0,6.3E1,2.4E2,6.2E1,1E0,1.4E1,2.26E2,4E0,5.8E1,1.1E1,3E0,2.13E2,1.3E1,1E0,3E0,4.5E1,1.3E1,7E0,4E0,1.97E2,1.6E1,8E0,5E0,3E1,1.5E1,8E0,5E0,5E0,2E0,2E0,2E0,2.9E1,1.68E2,8E0,8E0,7E0,1E0,3E0,2E0],"tree_param":{"num_deleted":"0","num_feature":"13","num_nodes":"41","size_leaf_vector":"0"}},{"base_weights":[7.488218E-2,-6.602165E-1,1.7922251E-1,-1.059271E-1,-1.7180094E0,3.1138164E-1,-3.4783822E-1,-1.3555205E0,5.247544E-1,-3.0509186E-1,-2.1113753E0,4.9841428E-1,-1.6590369E-1,-1.9901903E0,-1.8946772E-2,-2.1050503E0,1.0765457E-1,-8.6724854E-1,8.6097157E-1,-5.581004E-1,2.2696686E-1,-2.4526463E0,-4.9752808E-1,1.0191345E-1,1.2102628E0,-1.2979443E0,3.3815855E-1,-1.0212498E0,-4.8708572E0,-2.2940771E-1,1.7527145E0,-2.462925E0,-9.2620087E-1,-2.577629E-1,3.1538138E-1,-1.9359589E0,1.3430786E-1,1.2316812E0,-1.0324274E0,-2.677924E0,-4.3785095E-1,-1.1966324E-1,-6.266289E-1,1.9253862E-1,-2.1212254E0,2.0512416E0,-6.323738E-1,1.3826193E0,-1.6946353E0,-7.335078E-2,1.1958101E0,2.4184036E-1,-1.2362398E0,-5.2443154E-2,-3.7424774E0,3.3920696E0,-4.708786E-1,1.6056061E-1,4.0901184E-2,-7.831029E-2,2.3657184E0,1.4959129E-2,1.1623093E0,-3.4682236E0,-5.161514E-1,5.4169693E0,1.6079801E0,-1.4282979E0,2.510435E0,-4.2392254E0,-8.465642E-1,-3.2546517E-1,1.646759E0,5.2833176E-1,2.2916045E0,-1.4028183E0,-5.465291E-1,-6.402751E-1,2.4334581E-1,4.324875E-1,-1.1388054E0],"categories":[],"categories_nodes":[],"categories_segments":[],"categories_sizes":[],"default_left":[1,1,1,1,1,1,1,1,1,1,1,1,1,1,1,1,1,1,1,0,0,1,1,1,1,1,1,1,0,1,1,0,0,0,0,0,1,1,0,0,0,0,0,1,1,1,1,0,1,1,1,0,1,1,0,0,1,0,0,0,0,0,0,0,0,0,0,0,0,0,0,0,0,0,0,0,0,0,0,0,0],"id":28,"left_children":[1,3,5,7,9,11,13,15,17,19,21,23,25,27,29,31,33,35,37,-1,-1,39,41,43,45,47,49,51,-1,53,55,-1,-1,-1,-1,-1,57,59,-1,-1,-1,-1,-1,61,63,65,67,-1,69,71,73,-1,75,77,-1,-1,79,-1,-1,-1,-1,-1,-1,-1,-1,-1,-1,-1,-1,-1,-1,-1,-1,-1,-1,-1,-1,-1,-1,-1,-1],"loss_changes":[2.3435257E1,2.2098303E1,1.8706436E1,2.1201796E1,6.5811577E0,1.9186028E1,2.9130693E1,1.0096861E1,9.170951E0,6.6513187E-1,4.2873306E0,4.3342934E1,3.5246666E1,2.0146393E1,1.75539E1,2.5011826E-1,3.8492164E-1,4.541509E0,1.1800143E1,0E0,0E0,2.4585762E0,7.136351E-2,2.0555653E1,8.652615E1,2.2546787E1,1.5263773E1,2.4713879E0,0E0,2.5914665E1,1.9823544E1,0E0,0E0,0E0,0E0,0E0,7.8942627E-4,1.9497784E1,0E0,0E0,0E0,0E0,0E0,1.6687117E1,6.857998E0,4.798172E1,4.8611523E1,0E0,3.309711E1,1.3545896E1,9.029137E0,0E0,3.755474E-2,7.284651E0,0E0,0E0,2.3026664E0,0E0,0E0,0E0,0E0,0E0,0E0,0E0,0E0,0E0,0E0,0E0,0E0,0E0,0E0,0E0,0E0,0E0,0E0,0E0,0E0,0E0,0E0,0E0,0E0],"parents":[2147483647,0,0,1,1,2,2,3,3,4,4,5,5,6,6,7,7,8,8,9,9,10,10,11,11,12,12,13,13,14,14,15,15,16,16,17,17,18,18,21,21,22,22,23,23,24,24,25,25,26,26,27,27,29,29,30,30,36,36,37,37,43,43,44,44,45,45,46,46,48,48,49,49,50,50,52,52,53,53,56,56],"right_children":[2,4,6,8,10,12,14,16,18,20,22,24,26,28,30,32,34,36,38,-1,-1,40,42,44,46,48,50,52,-1,54,56,-1,-1,-1,-1,-1,58,60,-1,-1,-1,-1,-1,62,64,66,68,-1,70,72,74,-1,76,78,-1,-1,80,-1,-1,-1,-1,-1,-1,-1,-1,-1,-1,-1,-1,-1,-1,-1,-1,-1,-1,-1,-1,-1,-1,-1,-1],"split_conditions":[3.040639E2,2.7540332E2,1.05E1,6.451906E1,6.6847946E1,4.8247626E2,1.1800113E2,4.5E0,7.15E2,8.474405E3,5.652543E0,4.1662183E2,1.2897769E0,1.189698E2,1.3540979E2,4.246508E3,6E0,9.7065E4,8.3482834E1,-1.6743013E-1,6.809006E-2,4.9830928E5,1.2072326E4,4.1344904E2,5.4610117E3,1.1160385E2,3.886E3,1.0521642E2,-1.4612572E0,1.3238226E2,3.5210643E-2,-7.3887753E-1,-2.7786028E-1,-7.7328876E-2,9.461442E-2,-5.8078766E-1,5E0,7.632649E1,-3.0972824E-1,-8.033772E-1,-1.3135529E-1,-3.5898972E-2,-1.8798867E-1,5.5E0,1.02744E3,5.4435925E2,1.8333694E-1,4.147858E-1,4.9596115E2,7.089616E5,4.700171E2,7.2552115E-2,1.3333689E3,2.411E3,-1.1227432E0,1.0176209E0,8.9759125E2,4.8168186E-2,1.2270356E-2,-2.3493087E-2,7.0971555E-1,4.487739E-3,3.486928E-1,-1.0404671E0,-1.5484543E-1,1.6250908E0,4.8239407E-1,-4.284894E-1,7.5313056E-1,-1.2717676E0,-2.5396925E-1,-9.763955E-2,4.9402773E-1,1.5849954E-1,6.874814E-1,-4.208455E-1,-1.6395874E-1,-1.9208254E-1,7.300375E-2,1.2974626E-1,-3.4164163E-1],"split_indices":[6,6,2,12,12,6,10,2,4,1,7,6,7,11,11,1,2,3,12,0,0,3,1,6,1,11,4,11,0,11,5,0,0,0,0,0,2,12,0,0,0,0,0,2,1,8,5,0,6,3,10,0,8,4,0,0,1,0,0,0,0,0,0,0,0,0,0,0,0,0,0,0,0,0,0,0,0,0,0,0,0],"split_type":[0,0,0,0,0,0,0,0,0,0,0,0,0,0,0,0,0,0,0,0,0,0,0,0,0,0,0,0,0,0,0,0,0,0,0,0,0,0,0,0,0,0,0,0,0,0,0,0,0,0,0,0,0,0,0,0,0,0,0,0,0,0,0,0,0,0,0,0,0,0,0,0,0,0,0,0,0,0,0,0,0],"sum_hessian":[3.03E2,3.7E1,2.66E2,2.5E1,1.2E1,2.13E2,5.3E1,8E0,1.7E1,3E0,9E0,1.53E2,6E1,8E0,4.5E1,5E0,3E0,3E0,1.4E1,2E0,1E0,7E0,2E0,9.9E1,5.4E1,1.8E1,4.2E1,7E0,1E0,4.1E1,4E0,3E0,2E0,1E0,2E0,1E0,2E0,1.2E1,2E0,6E0,1E0,1E0,1E0,9.6E1,3E0,3.7E1,1.7E1,2E0,1.6E1,2.9E1,1.3E1,1E0,6E0,4E1,1E0,2E0,2E0,1E0,1E0,6E0,6E0,8.2E1,1.4E1,1E0,2E0,3E0,3.4E1,1.4E1,3E0,3E0,1.3E1,2.6E1,3E0,9E0,4E0,4E0,2E0,1.3E1,2.7E1,1E0,1E0],"tree_param":{"num_deleted":"0","num_feature":"13","num_nodes":"81","size_leaf_vector":"0"}},{"base_weights":[7.625718E-2,1.3693537E-1,-1.1019384E0,6.26714E-2,1.8521614E0,-1.4851094E0,-3.857422E-2,-1.00775495E-1,5.339809E-1,2.9048724E0,3.1530508E-1,-8.935514E-1,-2.016269E0,5.8943176E-1,-6.537221E-1,-2.1146717E-2,-1.5249321E0,8.110839E-2,1.5595498E0,9.6935016E-1,3.4852111E0,5.9291077E-1,2.8274536E-2,-5.8760834E-1,-2.226532E0,-8.709511E-1,1.0669179E-1,-2.3783972E0,-2.5094604E-2,6.36861E-1,-2.5831664E0,2.823932E0,3.84466E-2,9.009806E-2,-7.859802E-2,-1.1525205E0,1.6719208E0,-1.8745291E-1,6.232532E-1,-4.1788483E-1,7.7303314E-1,1.9080105E-1,2.9036267E0,-3.3438263E0,5.276235E-2,4.046029E0,-6.317692E-1,5.875329E-1,-1.6216278E0],"categories":[],"categories_nodes":[],"categories_segments":[],"categories_sizes":[],"default_left":[1,1,1,1,1,1,1,1,1,1,1,0,1,0,0,1,1,1,1,0,0,0,1,0,0,1,1,0,1,1,1,1,1,0,0,0,0,0,0,0,0,0,0,0,0,0,0,0,0],"id":29,"left_children":[1,3,5,7,9,11,13,15,17,19,21,-1,23,-1,-1,25,27,29,31,-1,-1,-1,33,-1,-1,35,37,-1,39,41,43,45,47,-1,-1,-1,-1,-1,-1,-1,-1,-1,-1,-1,-1,-1,-1,-1,-1],"loss_changes":[2.188409E1,3.6823975E1,6.054472E0,2.1546318E1,1.8498466E1,1.6546879E0,2.3169074E0,2.3555756E1,3.331405E1,4.484417E0,4.6132362E-1,0E0,1.9364357E-1,0E0,0E0,2.1603191E1,1.4020966E1,7.7159676E1,4.220306E1,0E0,0E0,0E0,3.3510484E-2,0E0,0E0,2.0542791E1,2.6403112E1,0E0,1.8905227E0,4.292386E1,1.8221848E1,5.323458E1,1.0979526E1,0E0,0E0,0E0,0E0,0E0,0E0,0E0,0E0,0E0,0E0,0E0,0E0,0E0,0E0,0E0,0E0],"parents":[2147483647,0,0,1,1,2,2,3,3,4,4,5,5,6,6,7,7,8,8,9,9,10,10,12,12,15,15,16,16,17,17,18,18,22,22,25,25,26,26,28,28,29,29,30,30,31,31,32,32],"right_children":[2,4,6,8,10,12,14,16,18,20,22,-1,24,-1,-1,26,28,30,32,-1,-1,-1,34,-1,-1,36,38,-1,40,42,44,46,48,-1,-1,-1,-1,-1,-1,-1,-1,-1,-1,-1,-1,-1,-1,-1,-1],"split_conditions":[2.8987053E-1,1.8690476E-1,5.628833E2,5.259673E2,1.5E0,4.8877527E2,1.411883E0,4.4467764E2,7.986847E1,1.5E0,5.5E0,-2.6806542E-1,3.366801E-1,1.7682953E-1,-1.9611664E-1,1.0804387E2,1.5897905E0,7.779171E1,7.853179E2,2.9080507E-1,1.0455633E0,1.7787324E-1,2.8270346E-1,-1.7628251E-1,-6.6795963E-1,7.531331E1,1.1303817E3,-7.135192E-1,5.0810535E2,7.5002075E1,1.3364317E4,4.5365E3,1.6328936E3,2.702942E-2,-2.3579407E-2,-3.4575617E-1,5.0157624E-1,-5.6235876E-2,1.8697597E-1,-1.2536545E-1,2.3190995E-1,5.724032E-2,8.71088E-1,-1.003148E0,1.5828704E-2,1.2138088E0,-1.8953076E-1,1.7625988E-1,-4.8648837E-1],"split_indices":[5,5,6,10,7,8,5,10,12,2,2,0,5,0,0,11,7,12,10,0,0,0,5,0,0,12,8,0,10,12,1,4,10,0,0,0,0,0,0,0,0,0,0,0,0,0,0,0,0],"split_type":[0,0,0,0,0,0,0,0,0,0,0,0,0,0,0,0,0,0,0,0,0,0,0,0,0,0,0,0,0,0,0,0,0,0,0,0,0,0,0,0,0,0,0,0,0,0,0,0,0],"sum_hessian":[3.03E2,2.89E2,1.4E1,2.78E2,1.1E1,1E1,4E0,2.07E2,7.1E1,6E0,5E0,6E0,4E0,2E0,2E0,1.97E2,1E1,5E1,2.1E1,2E0,4E0,2E0,3E0,1E0,3E0,2.5E1,1.72E2,6E0,4E0,4.2E1,8E0,1.1E1,1E1,2E0,1E0,2.3E1,2E0,1.1E2,6.2E1,3E0,1E0,3.6E1,6E0,6E0,2E0,8E0,3E0,8E0,2E0],"tree_param":{"num_deleted":"0","num_feature":"13","num_nodes":"49","size_leaf_vector":"0"}},{"base_weights":[8.199469E-2,-1.15449674E-1,4.742221E-1,-2.7842414E-1,3.0361125E-1,6.027274E-1,-4.8156387E-1,-3.285651E-1,2.304718E0,2.291832E0,1.5617384E-1,3.9629993E-1,1.6497304E0,-1.2543259E0,1.5820312E-1,1.9149553E-2,-6.052918E-1,3.0714264E0,-2.3475647E-2,4.856703E-2,2.0410385E0,5.505476E-1,-1.9966751E0,2.3392076E0,7.540369E-1,-1.4630508E0,-1.05350494E-1,1.0877075E0,-1.0432281E0,3.7841463E-1,-5.2711034E-1,-1.8981328E0,-2.6822332E-1,9.742307E-1,-1.8395267E-1,-3.15823E-1,8.5013443E-1,-2.2863827E0,-4.1892242E-1,7.42012E-1,3.7509003E0,-1.2539215E-1,1.664814E0,-4.3385315E-1,-1.611887E0,-2.7292213E0,4.2851004E-1,6.819319E-1,-7.7652824E-1,-1.1120332E0,9.546334E-2,-2.447245E0,4.9829292E-1,9.913277E-2,-1.2014984E0,-2.8646547E-1,1.7355521E0,-2.1469543E0,6.6021346E-2,-9.121338E-1,2.5498894E-1,1.2459079E0,-5.4604426E-2,5.742569E-1,-7.8324383E-1,5.677376E-1,7.5027466E-2],"categories":[],"categories_nodes":[],"categories_segments":[],"categories_sizes":[],"default_left":[1,1,1,1,1,1,1,1,0,1,1,1,1,1,1,1,1,0,0,1,0,1,1,1,1,1,0,0,1,1,1,1,1,1,1,1,1,0,0,0,0,1,0,0,0,0,1,0,0,0,0,0,0,0,0,0,0,0,0,0,0,0,0,0,0,0,0],"id":30,"left_children":[1,3,5,7,9,11,13,15,-1,17,19,21,23,25,27,29,31,-1,-1,33,-1,35,37,39,41,43,-1,-1,45,47,49,51,53,55,57,59,61,-1,-1,-1,-1,63,-1,-1,-1,-1,65,-1,-1,-1,-1,-1,-1,-1,-1,-1,-1,-1,-1,-1,-1,-1,-1,-1,-1,-1,-1],"loss_changes":[2.4294436E1,1.4358443E1,1.3186728E1,2.0314953E1,1.6937222E1,1.9446323E1,6.625478E0,1.4348658E1,0E0,7.2921066E0,1.1259031E1,3.0259018E1,7.4995537E0,1.2847862E0,1.0068613E1,1.3348357E1,3.5660286E1,0E0,0E0,1.1801905E1,0E0,1.9734987E1,1.3276176E0,1.5254784E1,6.616466E0,6.6586494E-2,0E0,0E0,1.109486E1,1.490189E1,9.938416E0,2.3589855E1,2.3089676E1,1.105492E1,2.173252E1,7.0402102E0,2.0120045E1,0E0,0E0,0E0,0E0,2.7511096E0,0E0,0E0,0E0,0E0,1.0504758E-1,0E0,0E0,0E0,0E0,0E0,0E0,0E0,0E0,0E0,0E0,0E0,0E0,0E0,0E0,0E0,0E0,0E0,0E0,0E0,0E0],"parents":[2147483647,0,0,1,1,2,2,3,3,4,4,5,5,6,6,7,7,9,9,10,10,11,11,12,12,13,13,14,14,15,15,16,16,19,19,21,21,22,22,23,23,24,24,25,25,28,28,29,29,30,30,31,31,32,32,33,33,34,34,35,35,36,36,41,41,46,46],"right_children":[2,4,6,8,10,12,14,16,-1,18,20,22,24,26,28,30,32,-1,-1,34,-1,36,38,40,42,44,-1,-1,46,48,50,52,54,56,58,60,62,-1,-1,-1,-1,64,-1,-1,-1,-1,66,-1,-1,-1,-1,-1,-1,-1,-1,-1,-1,-1,-1,-1,-1,-1,-1,-1,-1,-1,-1],"split_conditions":[4.4746246E2,4.778564E2,1.3706892E3,1.0681219E0,4.8366074E2,1.3381051E3,9.8181104E2,9.602007E2,6.914154E-1,1.597222E-2,4.134135E2,1.3287795E3,4.44313E2,1.5566543E4,7.961067E1,2.4608192E0,1.02244885E3,9.2142797E-1,-7.0426944E-3,1.092749E0,6.123116E-1,1.1355623E2,9.785374E5,3.6397406E2,1.3868928E0,8.5E0,-3.160515E-2,3.2631227E-1,1.2003452E2,4.10581E2,1.194639E2,4.3853534E2,1.02495E4,1.6656647E2,1.2864327E0,5.5E0,4.496205E-3,-6.859148E-1,-1.2567674E-1,2.2260362E-1,1.1252701E0,2.5E0,4.9944422E-1,-1.3015595E-1,-4.835661E-1,-8.187664E-1,6.416143E3,2.0457958E-1,-2.3295848E-1,-3.3361E-1,2.8639004E-2,-7.341735E-1,1.4948788E-1,2.9739833E-2,-3.6044952E-1,-8.5939646E-2,5.2066565E-1,-6.440863E-1,1.9806404E-2,-2.7364016E-1,7.649668E-2,3.7377238E-1,-1.6381329E-2,1.7227708E-1,-2.3497316E-1,1.7032129E-1,2.2508241E-2],"split_indices":[10,6,8,5,6,8,10,8,0,5,10,8,6,1,12,7,8,0,0,7,0,11,3,6,7,2,0,0,11,6,11,6,4,10,7,2,5,0,0,0,0,2,0,0,0,0,1,0,0,0,0,0,0,0,0,0,0,0,0,0,0,0,0,0,0,0,0],"split_type":[0,0,0,0,0,0,0,0,0,0,0,0,0,0,0,0,0,0,0,0,0,0,0,0,0,0,0,0,0,0,0,0,0,0,0,0,0,0,0,0,0,0,0,0,0,0,0,0,0,0,0,0,0,0,0,0,0,0,0,0,0,0,0,0,0,0,0],"sum_hessian":[3.12E2,2.08E2,1.04E2,1.5E2,5.8E1,9.2E1,1.2E1,1.48E2,2E0,3E0,5.5E1,7.8E1,1.4E1,5E0,7E0,6.6E1,8.2E1,2E0,1E0,5.3E1,2E0,7.4E1,4E0,7E0,7E0,4E0,1E0,4E0,3E0,4E1,2.6E1,1.6E1,6.6E1,1E1,4.3E1,1.9E1,5.5E1,3E0,1E0,4E0,3E0,4E0,3E0,1E0,3E0,1E0,2E0,3.2E1,8E0,1.3E1,1.3E1,1.3E1,3E0,4.8E1,1.8E1,4E0,6E0,4E0,3.9E1,9E0,1E1,3.8E1,1.7E1,2E0,2E0,1E0,1E0],"tree_param":{"num_deleted":"0","num_feature":"13","num_nodes":"67","size_leaf_vector":"0"}},{"base_weights":[6.866439E-2,1.2559603E-1,-6.1726195E-1,6.550401E-2,7.3076713E-1,-3.2129765E-2,-1.4917473E0,-5.8675382E-2,4.1471112E-1,5.887779E0,3.0596748E-1,-9.708954E-1,1.3135539E0,-2.2519977E0,-2.810974E-1,-2.7838418E-1,2.6232994E-1,9.1513914E-1,-3.219311E-2,1.8927972E0,-2.647213E-1,-2.3048727E-1,-2.0238857E0,1.5007921E0,9.5062256E-2,-3.1482716E0,-3.0629984E-1,5.637868E-1,-1.0322825E0,-1.0115556E-1,-2.2355065E0,1.0665951E0,-3.763965E-1,1.480895E0,3.29973E-1,-2.4755944E-1,1.9141521E0,2.3311372E0,5.3129834E-1,-2.1854846E0,5.2123207E-1,-4.843394E-1,6.463127E-1,6.377411E-2,-5.232239E-1,-2.1247183E-1,9.4024587E-1,-5.5314636E-1,-2.3609746E0,1.9085983E0,7.27787E-1,-2.4271634E0,-7.446798E-2,2.3892076E0,4.0803868E-1,2.0282211E0,1.1076894E-1,8.471298E-2,-1.0104252E0,2.3411152E0,3.1663132E-1,-3.1527348E0,-1.673228E-1,-8.7084657E-1,1.1066104E0,-5.626236E-1,-4.6459198E-2],"categories":[],"categories_nodes":[],"categories_segments":[],"categories_sizes":[],"default_left":[1,1,1,1,1,1,1,1,1,0,1,1,1,1,1,1,1,1,1,1,1,1,0,0,0,0,1,0,0,1,1,1,1,1,1,1,1,0,0,1,1,1,0,0,0,0,0,0,0,0,0,0,0,0,0,0,0,0,0,0,0,0,0,0,0,0,0],"id":31,"left_children":[1,3,5,7,9,11,13,15,17,-1,19,21,23,25,27,29,31,33,35,37,39,41,-1,-1,-1,-1,43,-1,-1,45,47,49,51,53,55,57,59,-1,-1,61,63,65,-1,-1,-1,-1,-1,-1,-1,-1,-1,-1,-1,-1,-1,-1,-1,-1,-1,-1,-1,-1,-1,-1,-1,-1,-1],"loss_changes":[1.2730023E1,1.0861919E1,1.2744308E1,1.19061575E1,5.734735E1,2.1487827E1,8.57094E0,1.439015E1,1.6131786E1,0E0,2.4046295E1,7.3299446E0,1.4543695E0,9.498953E0,3.7553096E0,4.17437E1,4.3039013E1,1.0767429E1,1.682178E1,2.939066E0,3.1331753E1,1.8710773E0,0E0,0E0,0E0,0E0,2.7420193E-1,0E0,0E0,1.3183369E1,8.0485916E-1,9.166218E0,2.892095E1,1.5591419E1,6.476068E0,9.21085E0,1.9870596E0,0E0,0E0,1.1184881E1,1.3187078E1,1.7953563E-1,0E0,0E0,0E0,0E0,0E0,0E0,0E0,0E0,0E0,0E0,0E0,0E0,0E0,0E0,0E0,0E0,0E0,0E0,0E0,0E0,0E0,0E0,0E0,0E0,0E0],"parents":[2147483647,0,0,1,1,2,2,3,3,4,4,5,5,6,6,7,7,8,8,10,10,11,11,12,12,13,13,14,14,15,15,16,16,17,17,18,18,19,19,20,20,21,21,26,26,29,29,30,30,31,31,32,32,33,33,34,34,35,35,36,36,39,39,40,40,41,41],"right_children":[2,4,6,8,10,12,14,16,18,-1,20,22,24,26,28,30,32,34,36,38,40,42,-1,-1,-1,-1,44,-1,-1,46,48,50,52,54,56,58,60,-1,-1,62,64,66,-1,-1,-1,-1,-1,-1,-1,-1,-1,-1,-1,-1,-1,-1,-1,-1,-1,-1,-1,-1,-1,-1,-1,-1,-1],"split_conditions":[9.964011E2,7.654269E2,7.953667E1,1.2862486E4,7.719155E2,1.1938788E2,1.2325992E2,2.9127207E3,2.4560873E5,1.7663338E0,6.503926E1,1.699E3,1.7385754E4,7.205173E3,1.2655754E2,1.7685702E3,1.03375E4,4.8597626E2,1.3505364E3,1.50145E3,8.315369E2,1.3E1,-6.0716575E-1,4.5023766E-1,2.8518679E-2,-9.444815E-1,1.5621594E4,1.6913605E-1,-3.0968475E-1,1.3874996E3,2.8902277E2,1.1287874E2,1.1081E4,1.3729308E-2,1.2500336E0,9.814634E2,1.35E1,6.993412E-1,1.5938951E-1,4.969335E3,7.106532E1,3.5E0,1.9389382E-1,1.9132234E-2,-1.5696716E-1,-6.374155E-2,2.8207377E-1,-1.6594392E-1,-7.0829237E-1,5.725795E-1,2.1833612E-1,-7.2814906E-1,-2.2340395E-2,7.167623E-1,1.2241161E-1,6.084664E-1,3.323068E-2,2.5413895E-2,-3.031276E-1,7.023346E-1,9.49894E-2,-9.4582045E-1,-5.019684E-2,-2.6125398E-1,3.3198315E-1,-1.6878709E-1,-1.393776E-2],"split_indices":[10,10,12,3,10,11,11,1,3,0,12,4,1,1,11,1,4,6,8,1,10,2,0,0,0,0,1,0,0,8,8,11,4,5,7,8,2,0,0,1,12,2,0,0,0,0,0,0,0,0,0,0,0,0,0,0,0,0,0,0,0,0,0,0,0,0,0],"split_type":[0,0,0,0,0,0,0,0,0,0,0,0,0,0,0,0,0,0,0,0,0,0,0,0,0,0,0,0,0,0,0,0,0,0,0,0,0,0,0,0,0,0,0,0,0,0,0,0,0,0,0,0,0,0,0,0,0,0,0,0,0,0,0,0,0,0,0],"sum_hessian":[3.23E2,2.99E2,2.4E1,2.73E2,2.6E1,1.5E1,9E0,2.02E2,7.1E1,1E0,2.5E1,9E0,6E0,5E0,4E0,1.2E2,8.2E1,3.3E1,3.8E1,6E0,1.9E1,6E0,3E0,5E0,1E0,3E0,2E0,2E0,2E0,1.11E2,9E0,3.6E1,4.6E1,1.6E1,1.7E1,3.5E1,3E0,4E0,2E0,5E0,1.4E1,5E0,1E0,1E0,1E0,1.01E2,1E1,1E0,8E0,9E0,2.7E1,5E0,4.1E1,8E0,8E0,1E0,1.6E1,2.5E1,1E1,2E0,1E0,3E0,2E0,4E0,1E1,4E0,1E0],"tree_param":{"num_deleted":"0","num_feature":"13","num_nodes":"67","size_leaf_vector":"0"}},{"base_weights":[2.6005462E-2,9.759806E-1,-8.567911E-3,-2.6269022E-1,2.051988E0,-1.2345756E-1,3.0257928E-1,-6.776314E-1,3.7812805E-1,2.530466E0,7.300212E-1,-1.0170849E-2,-6.7173606E-1,2.1435797E0,1.2903214E-1,-2.0898438E-1,-1.0417862E0,-2.803618E-1,2.7814585E-1,3.832571E-1,-1.0622071E0,-8.005409E-1,2.76769E0,-2.706604E0,2.0292868E-1,-9.1574095E-2,-1.5942446E0,6.014284E-1,-7.484287E-1,-4.5708576E-1,1.4830856E0,-1.3882987E0,-7.344055E-2,3.3412724E0,1.0803503E0,-9.190001E-3,8.7514836E-1,-3.5841134E-1,1.1775604E0,-2.2966719E0,-1.5151215E-1,2.0801926E0,4.5339692E-1,-1.3602318E0,1.1097513E0,-1.5948054E0,3.169632E-1,-3.4838867E-1,-2.139199E0,8.199959E-1,-1.8358332E0,-3.1767273E-1,1.9381981E0,-1.5855423E-1,1.1016856E0,-1.7448807E0,1.1319077E0],"categories":[],"categories_nodes":[],"categories_segments":[],"categories_sizes":[],"default_left":[1,1,1,1,1,1,1,1,0,0,0,1,1,1,1,0,0,1,1,1,1,0,1,0,1,1,1,1,1,1,0,1,1,0,1,1,1,0,0,0,0,0,0,0,0,0,0,0,0,0,0,0,0,0,0,0,0],"id":32,"left_children":[1,3,5,7,9,11,13,15,-1,-1,-1,17,19,21,23,-1,-1,25,27,29,31,-1,33,-1,35,37,39,41,43,45,-1,47,49,-1,51,53,55,-1,-1,-1,-1,-1,-1,-1,-1,-1,-1,-1,-1,-1,-1,-1,-1,-1,-1,-1,-1],"loss_changes":[1.0288486E1,1.52000475E1,1.08688755E1,1.8516426E0,1.9478989E0,1.3782181E1,2.592244E1,4.6492314E-1,0E0,0E0,0E0,1.4489587E1,1.606098E1,1.5077839E1,1.6474567E1,0E0,0E0,2.366632E1,3.0318748E1,1.0844461E1,8.926041E0,0E0,2.1972237E0,0E0,1.0702318E1,2.9207499E1,1.1813002E1,1.4161196E1,2.6520004E1,6.6700487E0,0E0,1.5652969E1,1.4102062E1,0E0,4.213586E0,9.798332E0,1.408395E1,0E0,0E0,0E0,0E0,0E0,0E0,0E0,0E0,0E0,0E0,0E0,0E0,0E0,0E0,0E0,0E0,0E0,0E0,0E0,0E0],"parents":[2147483647,0,0,1,1,2,2,3,3,4,4,5,5,6,6,7,7,11,11,12,12,13,13,14,14,17,17,18,18,19,19,20,20,22,22,24,24,25,25,26,26,27,27,28,28,29,29,31,31,32,32,34,34,35,35,36,36],"right_children":[2,4,6,8,10,12,14,16,-1,-1,-1,18,20,22,24,-1,-1,26,28,30,32,-1,34,-1,36,38,40,42,44,46,-1,48,50,-1,52,54,56,-1,-1,-1,-1,-1,-1,-1,-1,-1,-1,-1,-1,-1,-1,-1,-1,-1,-1,-1,-1],"split_conditions":[1.0000485E2,9.470104E2,4.799583E2,9.769994E1,3.425926E-2,8.154686E1,4.8271155E2,2E0,1.1343842E-1,7.5913984E-1,2.1900636E-1,1.198058E2,1.2256E2,1.0125976E2,4.841845E2,-6.269532E-2,-3.1253588E-1,1.181146E2,6.0562476E2,1.1295187E0,6.669217E3,-2.4016228E-1,1.1934294E2,-8.1198126E-1,1.3085632E2,2.4105953E-2,8.242E3,1.2000001E2,1.3561992E2,3.6115137E2,4.449257E-1,4.355E2,1.3758177E2,1.0023818E0,1E1,1.0573782E3,7.204385E1,-1.07523404E-1,3.5326815E-1,-6.8900156E-1,-4.5453645E-2,6.2405777E-1,1.3601908E-1,-4.0806955E-1,3.329254E-1,-4.7844163E-1,9.5088966E-2,-1.045166E-1,-6.4175975E-1,2.4599877E-1,-5.5074996E-1,-9.530182E-2,5.8145946E-1,-4.756627E-2,3.305057E-1,-5.234642E-1,3.395723E-1],"split_indices":[11,8,6,11,5,12,6,2,0,0,0,11,11,11,6,0,0,11,10,7,1,0,11,0,11,5,4,11,11,6,0,4,11,0,2,10,12,0,0,0,0,0,0,0,0,0,0,0,0,0,0,0,0,0,0,0,0],"split_type":[0,0,0,0,0,0,0,0,0,0,0,0,0,0,0,0,0,0,0,0,0,0,0,0,0,0,0,0,0,0,0,0,0,0,0,0,0,0,0,0,0,0,0,0,0,0,0,0,0,0,0,0,0,0,0,0,0],"sum_hessian":[3.12E2,1E1,3.02E2,5E0,5E0,2.21E2,8.1E1,3E0,2E0,3E0,2E0,1.84E2,3.7E1,6E0,7.5E1,2E0,1E0,9.5E1,8.9E1,1E1,2.7E1,1E0,5E0,1E0,7.4E1,8.4E1,1.1E1,6.8E1,2.1E1,6E0,4E0,2E1,7E0,3E0,2E0,5.7E1,1.7E1,7E1,1.4E1,7E0,4E0,5E0,6.3E1,1.6E1,5E0,2E0,4E0,9E0,1.1E1,5E0,2E0,1E0,1E0,5.1E1,6E0,1E0,1.6E1],"tree_param":{"num_deleted":"0","num_feature":"13","num_nodes":"57","size_leaf_vector":"0"}},{"base_weights":[7.37608E-2,-1.8450652E-1,2.1211843E-1,-6.0087204E-2,-9.0553147E-1,2.8193238E0,1.4962718E-1,-7.4562424E-1,2.0368163E-1,-3.4435349E0,-3.3756205E-1,3.979206E0,-9.1010284E-1,2.5092906E-1,-4.9827522E-1,-1.06875E0,5.528005E-2,-1.2258356E-2,8.18051E-1,-4.52874E0,-6.3656235E-1,-8.947102E-1,9.5567626E-1,8.0566406E-1,4.768499E0,1.7541565E-1,1.3186697E0,-1.9793183E0,-1.8213563E-1,-6.9862694E-1,-1.6563176E0,2.0369053E-1,-5.660019E-1,-5.744452E-1,4.4151357E-1,1.2874336E0,1.1720657E-2,5.9635544E-1,-1.1034523E0,1.3274637E0,2.6533E-1,3.0301017E-1,-6.2935895E-1,1.9286661E0,7.8941345E-2,-2.20652E0,-5.3525543E-1,-8.9644456E-1,2.0674178E-1,-1.0139812E0,3.432541E-1,-2.0767899E0,-8.217659E-1,3.091812E-1,-2.6737213E-1,1.9026756E-1,-1.1888815E0,-3.7530681E-1,1.0522897E0,2.1979065E0,3.231092E-1,-6.594798E-1,3.4536743E-1,-1.5206996E0,-9.740639E-2,6.4704895E-2,3.332901E-1,2.4030226E-1,2.5317726E0,-1.1247588E0,7.3443496E-1,3.0767822E-1,2.4177158E0,-3.3647346E-1,8.703003E-1,-1.1298425E0,-5.3034466E-2,4.6627453E-1,-1.1598358E0],"categories":[],"categories_nodes":[],"categories_segments":[],"categories_sizes":[],"default_left":[1,1,1,1,1,1,1,1,1,1,1,1,0,1,1,1,1,1,1,0,0,1,1,0,0,1,1,1,1,1,1,1,0,1,1,1,1,0,1,0,1,1,1,1,1,0,0,1,1,0,0,0,0,0,0,0,0,0,0,0,0,0,0,0,0,0,0,0,0,0,0,0,0,0,0,0,0,0,0],"id":33,"left_children":[1,3,5,7,9,11,13,15,17,19,21,23,-1,25,27,29,31,33,35,-1,-1,37,39,-1,-1,41,43,45,47,49,51,53,-1,55,57,59,61,-1,63,-1,65,67,69,71,73,-1,-1,75,77,-1,-1,-1,-1,-1,-1,-1,-1,-1,-1,-1,-1,-1,-1,-1,-1,-1,-1,-1,-1,-1,-1,-1,-1,-1,-1,-1,-1,-1,-1],"loss_changes":[1.1866844E1,1.0351882E1,3.4770496E1,1.8234201E1,2.3343233E1,2.5249966E1,1.4039381E1,7.305279E0,9.694713E0,6.2556E0,1.1662933E1,6.177601E0,0E0,1.4604365E1,1.3217772E1,3.192299E0,9.4513196E-1,1.4284378E1,7.1759815E0,0E0,0E0,4.0817795E0,9.310951E-1,0E0,0E0,1.7955173E1,8.922508E0,4.5941544E-1,7.1297975E0,4.9479165E0,7.4970436E-1,4.8020822E-1,0E0,1.1972886E1,1.5860661E1,9.825731E0,2.0193138E0,0E0,4.049576E0,0E0,1.9338027E-2,2.035576E1,1.7041021E1,5.5980663E0,1.9365442E0,0E0,0E0,1.711731E0,6.570219E0,0E0,0E0,0E0,0E0,0E0,0E0,0E0,0E0,0E0,0E0,0E0,0E0,0E0,0E0,0E0,0E0,0E0,0E0,0E0,0E0,0E0,0E0,0E0,0E0,0E0,0E0,0E0,0E0,0E0,0E0],"parents":[2147483647,0,0,1,1,2,2,3,3,4,4,5,5,6,6,7,7,8,8,9,9,10,10,11,11,13,13,14,14,15,15,16,16,17,17,18,18,21,21,22,22,25,25,26,26,27,27,28,28,29,29,30,30,31,31,33,33,34,34,35,35,36,36,38,38,40,40,41,41,42,42,43,43,44,44,47,47,48,48],"right_children":[2,4,6,8,10,12,14,16,18,20,22,24,-1,26,28,30,32,34,36,-1,-1,38,40,-1,-1,42,44,46,48,50,52,54,-1,56,58,60,62,-1,64,-1,66,68,70,72,